<?xml version="1.0"?>
<MethodSetup Method="BDT::bdt">
  <GeneralInfo>
    <Info name="TMVA Release" value="4.2.1 [262657]"/>
    <Info name="ROOT Release" value="6.18/04 [397828]"/>
    <Info name="Creator" value="marherje"/>
    <Info name="Date" value="Thu Sep  1 13:29:54 2022"/>
    <Info name="Host" value="Linux naf-ilc11.desy.de 3.10.0-1127.8.2.el7.x86_64 #1 SMP Tue May 12 16:57:42 UTC 2020 x86_64 x86_64 x86_64 GNU/Linux"/>
    <Info name="Dir" value="/lhome/ific/m/marherje/QQbarAnalysis500/scripts/ReTraining250_Test_ParticleSwarm"/>
    <Info name="Training events" value="53602"/>
    <Info name="TrainingTime" value="7.31277709e+01"/>
    <Info name="AnalysisType" value="Multiclass"/>
  </GeneralInfo>
  <Options>
    <Option name="V" modified="Yes">False</Option>
    <Option name="VerbosityLevel" modified="No">Default</Option>
    <Option name="VarTransform" modified="No">None</Option>
    <Option name="H" modified="Yes">False</Option>
    <Option name="CreateMVAPdfs" modified="No">False</Option>
    <Option name="IgnoreNegWeightsInTraining" modified="No">False</Option>
    <Option name="NTrees" modified="Yes">638</Option>
    <Option name="MaxDepth" modified="Yes">2</Option>
    <Option name="MinNodeSize" modified="No">5%</Option>
    <Option name="nCuts" modified="Yes">10</Option>
    <Option name="BoostType" modified="Yes">Grad</Option>
    <Option name="AdaBoostR2Loss" modified="No">quadratic</Option>
    <Option name="UseBaggedBoost" modified="Yes">True</Option>
    <Option name="Shrinkage" modified="Yes">2.269283e-02</Option>
    <Option name="AdaBoostBeta" modified="No">5.000000e-01</Option>
    <Option name="UseRandomisedTrees" modified="No">False</Option>
    <Option name="UseNvars" modified="No">4</Option>
    <Option name="UsePoissonNvars" modified="No">True</Option>
    <Option name="BaggedSampleFraction" modified="No">1.000000e-01</Option>
    <Option name="UseYesNoLeaf" modified="No">True</Option>
    <Option name="NegWeightTreatment" modified="Yes">ignorenegweightsintraining</Option>
    <Option name="Css" modified="No">1.000000e+00</Option>
    <Option name="Cts_sb" modified="No">1.000000e+00</Option>
    <Option name="Ctb_ss" modified="No">1.000000e+00</Option>
    <Option name="Cbb" modified="No">1.000000e+00</Option>
    <Option name="NodePurityLimit" modified="No">5.000000e-01</Option>
    <Option name="SeparationType" modified="No">giniindex</Option>
    <Option name="RegressionLossFunctionBDTG" modified="No">huber</Option>
    <Option name="HuberQuantile" modified="No">7.000000e-01</Option>
    <Option name="DoBoostMonitor" modified="No">False</Option>
    <Option name="UseFisherCuts" modified="No">False</Option>
    <Option name="MinLinCorrForFisher" modified="No">8.000000e-01</Option>
    <Option name="UseExclusiveVars" modified="No">False</Option>
    <Option name="DoPreselection" modified="No">False</Option>
    <Option name="SigToBkgFraction" modified="No">1.000000e+00</Option>
    <Option name="PruneMethod" modified="No">nopruning</Option>
    <Option name="PruneStrength" modified="No">0.000000e+00</Option>
    <Option name="PruningValFraction" modified="No">5.000000e-01</Option>
    <Option name="SkipNormalization" modified="Yes">True</Option>
    <Option name="nEventsMin" modified="No">0</Option>
    <Option name="UseBaggedGrad" modified="No">False</Option>
    <Option name="GradBaggingFraction" modified="Yes">1.000000e-01</Option>
    <Option name="UseNTrainEvents" modified="No">0</Option>
    <Option name="NNodesMax" modified="No">0</Option>
  </Options>
  <Variables NVar="19">
    <Variable VarIndex="0" Expression="trk1d0sig" Label="trk1d0sig" Title="trk1d0sig" Unit="" Internal="trk1d0sig" Type="F" Min="-8.44111061e+00" Max="1.76111359e+05"/>
    <Variable VarIndex="1" Expression="trk2d0sig" Label="trk2d0sig" Title="trk2d0sig" Unit="" Internal="trk2d0sig" Type="F" Min="-1.19272423e+02" Max="1.38005469e+04"/>
    <Variable VarIndex="2" Expression="trk1z0sig" Label="trk1z0sig" Title="trk1z0sig" Unit="" Internal="trk1z0sig" Type="F" Min="-2.20306875e+05" Max="1.11125820e+05"/>
    <Variable VarIndex="3" Expression="trk2z0sig" Label="trk2z0sig" Title="trk2z0sig" Unit="" Internal="trk2z0sig" Type="F" Min="-4.38231797e+04" Max="7.36260156e+04"/>
    <Variable VarIndex="4" Expression="trk1pt_jete" Label="trk1pt_jete" Title="trk1pt_jete" Unit="" Internal="trk1pt_jete" Type="F" Min="2.48552446e-04" Max="7.08612859e-01"/>
    <Variable VarIndex="5" Expression="trk2pt_jete" Label="trk2pt_jete" Title="trk2pt_jete" Unit="" Internal="trk2pt_jete" Type="F" Min="0.00000000e+00" Max="6.98373199e-01"/>
    <Variable VarIndex="6" Expression="jprobr2" Label="jprobr2" Title="jprobr2" Unit="" Internal="jprobr2" Type="F" Min="0.00000000e+00" Max="1.00000000e+00"/>
    <Variable VarIndex="7" Expression="jprobz2" Label="jprobz2" Title="jprobz2" Unit="" Internal="jprobz2" Type="F" Min="0.00000000e+00" Max="1.00000000e+00"/>
    <Variable VarIndex="8" Expression="vtxlen1_jete" Label="vtxlen1_jete" Title="vtxlen1_jete" Unit="" Internal="vtxlen1_jete" Type="F" Min="5.10454818e-04" Max="1.01967704e+00"/>
    <Variable VarIndex="9" Expression="vtxsig1_jete" Label="vtxsig1_jete" Title="vtxsig1_jete" Unit="" Internal="vtxsig1_jete" Type="F" Min="7.45455688e-03" Max="6.96934052e+01"/>
    <Variable VarIndex="10" Expression="vtxdirang1_jete" Label="vtxdirang1_jete" Title="vtxdirang1_jete" Unit="" Internal="vtxdirang1_jete" Type="F" Min="0.00000000e+00" Max="4.22989349e+02"/>
    <Variable VarIndex="11" Expression="vtxmom1_jete" Label="vtxmom1_jete" Title="vtxmom1_jete" Unit="" Internal="vtxmom1_jete" Type="F" Min="6.05045445e-03" Max="9.31718946e-01"/>
    <Variable VarIndex="12" Expression="vtxmass1" Label="vtxmass1" Title="vtxmass1" Unit="" Internal="vtxmass1" Type="F" Min="2.42376346e-02" Max="2.21903648e+01"/>
    <Variable VarIndex="13" Expression="vtxmult1" Label="vtxmult1" Title="vtxmult1" Unit="" Internal="vtxmult1" Type="F" Min="2.00000000e+00" Max="1.20000000e+01"/>
    <Variable VarIndex="14" Expression="vtxmasspc" Label="vtxmasspc" Title="vtxmasspc" Unit="" Internal="vtxmasspc" Type="F" Min="2.99345348e-02" Max="6.12100182e+01"/>
    <Variable VarIndex="15" Expression="vtxprob" Label="vtxprob" Title="vtxprob" Unit="" Internal="vtxprob" Type="F" Min="0.00000000e+00" Max="9.99976993e-01"/>
    <Variable VarIndex="16" Expression="1vtxprob" Label="1vtxprob" Title="1vtxprob" Unit="" Internal="1vtxprob" Type="F" Min="0.00000000e+00" Max="9.97900963e-04"/>
    <Variable VarIndex="17" Expression="vtxlen12all_jete" Label="vtxlen12all_jete" Title="vtxlen12all_jete" Unit="" Internal="vtxlen12all_jete" Type="F" Min="9.24312117e-05" Max="9.99874696e-02"/>
    <Variable VarIndex="18" Expression="vtxmassall" Label="vtxmassall" Title="vtxmassall" Unit="" Internal="vtxmassall" Type="F" Min="2.58466005e-01" Max="3.19112701e+01"/>
  </Variables>
  <Spectators NSpec="2">
    <Spectator SpecIndex="0" Expression="aux" Label="aux" Title="aux" Unit="" Internal="aux" Type="F" Min="-1.00000000e+00" Max="-1.00000000e+00"/>
    <Spectator SpecIndex="1" Expression="nvtx" Label="nvtx" Title="nvtx" Unit="" Internal="nvtx" Type="F" Min="1.00000000e+00" Max="1.00000000e+00"/>
  </Spectators>
  <Classes NClass="3">
    <Class Name="jetB" Index="0"/>
    <Class Name="jetC" Index="1"/>
    <Class Name="jetO" Index="2"/>
  </Classes>
  <Transformations NTransformations="0"/>
  <MVAPdfs/>
  <Weights NTrees="1914" AnalysisType="1">
    <BinaryTree type="DecisionTree" boostWeight="1.0000000000000000e+00" itree="0">
      <Node pos="s" depth="0" NCoef="0" IVar="14" Cut="2.0116446018218994e+00" cType="1" res="5.7959008216857910e-01" rms="2.8194725513458252e-01" purity="9.1292339563369751e-01" nType="0">
        <Node pos="l" depth="1" NCoef="0" IVar="14" Cut="1.6738446950912476e+00" cType="1" res="5.1974409818649292e-01" rms="3.5402873158454895e-01" purity="8.5307741165161133e-01" nType="0">
          <Node pos="l" depth="2" NCoef="0" IVar="-1" Cut="0.0000000000000000e+00" cType="1" res="3.3150639384984970e-02" rms="3.8395351171493530e-01" purity="8.2028067111968994e-01" nType="-99"/>
          <Node pos="r" depth="2" NCoef="0" IVar="-1" Cut="0.0000000000000000e+00" cType="1" res="4.1450001299381256e-02" rms="2.3338492214679718e-01" purity="9.4218939542770386e-01" nType="-99"/>
        </Node>
        <Node pos="r" depth="1" NCoef="0" IVar="11" Cut="1.6407926380634308e-01" cType="1" res="6.5463346242904663e-01" rms="1.0903392732143402e-01" purity="9.8796677589416504e-01" nType="0">
          <Node pos="l" depth="2" NCoef="0" IVar="-1" Cut="0.0000000000000000e+00" cType="1" res="4.3431252241134644e-02" rms="1.6698496043682098e-01" purity="9.7129184007644653e-01" nType="-99"/>
          <Node pos="r" depth="2" NCoef="0" IVar="-1" Cut="0.0000000000000000e+00" cType="1" res="4.4804669916629791e-02" rms="9.1985352337360382e-02" purity="9.9146586656570435e-01" nType="-99"/>
        </Node>
      </Node>
    </BinaryTree>
    <BinaryTree type="DecisionTree" boostWeight="1.0000000000000000e+00" itree="1">
      <Node pos="s" depth="0" NCoef="0" IVar="18" Cut="1.2528762817382812e+00" cType="1" res="5.7506924867630005e-01" rms="2.8845682740211487e-01" purity="7.9409047961235046e-02" nType="0">
        <Node pos="l" depth="1" NCoef="0" IVar="14" Cut="1.0999134778976440e+00" cType="1" res="3.9417991042137146e-01" rms="4.4523897767066956e-01" purity="2.3941798508167267e-01" nType="0">
          <Node pos="l" depth="2" NCoef="0" IVar="-1" Cut="0.0000000000000000e+00" cType="1" res="-2.3917891085147858e-03" rms="4.7602981328964233e-01" purity="2.9820051789283752e-01" nType="-99"/>
          <Node pos="r" depth="2" NCoef="0" IVar="-1" Cut="0.0000000000000000e+00" cType="1" res="-1.0635331273078918e-02" rms="3.9501079916954041e-01" purity="1.7711171507835388e-01" nType="-99"/>
        </Node>
        <Node pos="r" depth="1" NCoef="0" IVar="14" Cut="2.2194151878356934e+00" cType="1" res="6.0442155599594116e-01" rms="2.4160021543502808e-01" purity="5.3444944322109222e-02" nType="0">
          <Node pos="l" depth="2" NCoef="0" IVar="-1" Cut="0.0000000000000000e+00" cType="1" res="-1.6693379729986191e-02" rms="2.9607671499252319e-01" purity="8.8125467300415039e-02" nType="-99"/>
          <Node pos="r" depth="2" NCoef="0" IVar="-1" Cut="0.0000000000000000e+00" cType="1" res="-2.2246073931455612e-02" rms="1.2212505936622620e-01" purity="6.5623424015939236e-03" nType="-99"/>
        </Node>
      </Node>
    </BinaryTree>
    <BinaryTree type="DecisionTree" boostWeight="1.0000000000000000e+00" itree="2">
      <Node pos="s" depth="0" NCoef="0" IVar="18" Cut="1.9442322254180908e+00" cType="1" res="5.7240742444992065e-01" rms="2.9218906164169312e-01" purity="1.3518518768250942e-02" nType="0">
        <Node pos="l" depth="1" NCoef="0" IVar="14" Cut="1.6960612535476685e+00" cType="1" res="5.0117373466491699e-01" rms="3.7162488698959351e-01" purity="2.0246479660272598e-02" nType="0">
          <Node pos="l" depth="2" NCoef="0" IVar="-1" Cut="0.0000000000000000e+00" cType="1" res="-2.0923461765050888e-02" rms="4.1360899806022644e-01" purity="2.5990098714828491e-02" nType="-99"/>
          <Node pos="r" depth="2" NCoef="0" IVar="-1" Cut="0.0000000000000000e+00" cType="1" res="-2.2277716547250748e-02" rms="1.8003301322460175e-01" purity="6.0975607484579086e-03" nType="-99"/>
        </Node>
        <Node pos="r" depth="1" NCoef="0" IVar="8" Cut="5.4831586778163910e-02" cType="1" res="6.2414747476577759e-01" rms="2.0177042484283447e-01" purity="8.6317136883735657e-03" nType="0">
          <Node pos="l" depth="2" NCoef="0" IVar="-1" Cut="0.0000000000000000e+00" cType="1" res="-2.1726490929722786e-02" rms="2.4952600896358490e-01" purity="1.4194464311003685e-02" nType="-99"/>
          <Node pos="r" depth="2" NCoef="0" IVar="-1" Cut="0.0000000000000000e+00" cType="1" res="-2.2415604442358017e-02" rms="1.4890561997890472e-01" purity="4.0721348486840725e-03" nType="-99"/>
        </Node>
      </Node>
    </BinaryTree>
    <BinaryTree type="DecisionTree" boostWeight="1.0000000000000000e+00" itree="3">
      <Node pos="s" depth="0" NCoef="0" IVar="14" Cut="2.0069212913513184e+00" cType="1" res="5.5963879823684692e-01" rms="2.9102328419685364e-01" purity="9.0621489286422729e-01" nType="0">
        <Node pos="l" depth="1" NCoef="0" IVar="11" Cut="3.0620771646499634e-01" cType="1" res="4.9854120612144470e-01" rms="3.6279419064521790e-01" purity="8.4382361173629761e-01" nType="0">
          <Node pos="l" depth="2" NCoef="0" IVar="-1" Cut="0.0000000000000000e+00" cType="1" res="3.5650610923767090e-02" rms="3.2722944021224976e-01" purity="8.7786257266998291e-01" nType="-99"/>
          <Node pos="r" depth="2" NCoef="0" IVar="-1" Cut="0.0000000000000000e+00" cType="1" res="2.4570638313889503e-02" rms="4.5201507210731506e-01" purity="7.1288746595382690e-01" nType="-99"/>
        </Node>
        <Node pos="r" depth="1" NCoef="0" IVar="11" Cut="1.7557178437709808e-01" cType="1" res="6.3619762659072876e-01" rms="1.2391891330480576e-01" purity="9.8439478874206543e-01" nType="0">
          <Node pos="l" depth="2" NCoef="0" IVar="-1" Cut="0.0000000000000000e+00" cType="1" res="4.0310189127922058e-02" rms="2.1295969188213348e-01" purity="9.5238095521926880e-01" nType="-99"/>
          <Node pos="r" depth="2" NCoef="0" IVar="-1" Cut="0.0000000000000000e+00" cType="1" res="4.2944453656673431e-02" rms="8.5784696042537689e-02" purity="9.9258476495742798e-01" nType="-99"/>
        </Node>
      </Node>
    </BinaryTree>
    <BinaryTree type="DecisionTree" boostWeight="1.0000000000000000e+00" itree="4">
      <Node pos="s" depth="0" NCoef="0" IVar="14" Cut="1.5234433412551880e+00" cType="1" res="5.6746691465377808e-01" rms="2.7968597412109375e-01" purity="7.0955537259578705e-02" nType="0">
        <Node pos="l" depth="1" NCoef="0" IVar="8" Cut="5.3822614252567291e-02" cType="1" res="4.6644118428230286e-01" rms="3.9132976531982422e-01" purity="1.6220930218696594e-01" nType="0">
          <Node pos="l" depth="2" NCoef="0" IVar="-1" Cut="0.0000000000000000e+00" cType="1" res="-7.0406561717391014e-03" rms="4.3342506885528564e-01" purity="2.2626787424087524e-01" nType="-99"/>
          <Node pos="r" depth="2" NCoef="0" IVar="-1" Cut="0.0000000000000000e+00" cType="1" res="-1.4982577413320541e-02" rms="3.4560126066207886e-01" purity="1.1041009426116943e-01" nType="-99"/>
        </Node>
        <Node pos="r" depth="1" NCoef="0" IVar="14" Cut="2.6977186203002930e+00" cType="1" res="6.1620867252349854e-01" rms="1.8649481236934662e-01" purity="2.6928471401333809e-02" nType="0">
          <Node pos="l" depth="2" NCoef="0" IVar="-1" Cut="0.0000000000000000e+00" cType="1" res="-1.9832855090498924e-02" rms="2.1355545520782471e-01" purity="3.8511466234922409e-02" nType="-99"/>
          <Node pos="r" depth="2" NCoef="0" IVar="-1" Cut="0.0000000000000000e+00" cType="1" res="-2.2055868059396744e-02" rms="1.1892261356115341e-01" purity="5.5821370333433151e-03" nType="-99"/>
        </Node>
      </Node>
    </BinaryTree>
    <BinaryTree type="DecisionTree" boostWeight="1.0000000000000000e+00" itree="5">
      <Node pos="s" depth="0" NCoef="0" IVar="14" Cut="2.0539839267730713e+00" cType="1" res="5.5869472026824951e-01" rms="2.9236477613449097e-01" purity="1.7310496419668198e-02" nType="0">
        <Node pos="l" depth="1" NCoef="0" IVar="14" Cut="1.5779066085815430e+00" cType="1" res="5.0158619880676270e-01" rms="3.5987833142280579e-01" purity="2.1324716508388519e-02" nType="0">
          <Node pos="l" depth="2" NCoef="0" IVar="-1" Cut="0.0000000000000000e+00" cType="1" res="-2.0549498498439789e-02" rms="3.9999425411224365e-01" purity="2.7736503630876541e-02" nType="-99"/>
          <Node pos="r" depth="2" NCoef="0" IVar="-1" Cut="0.0000000000000000e+00" cType="1" res="-2.1799568086862564e-02" rms="2.4646602571010590e-01" purity="9.2936800792813301e-03" nType="-99"/>
        </Node>
        <Node pos="r" depth="1" NCoef="0" IVar="11" Cut="1.7720055580139160e-01" cType="1" res="6.3255637884140015e-01" rms="1.3729624450206757e-01" purity="1.2118679471313953e-02" nType="0">
          <Node pos="l" depth="2" NCoef="0" IVar="-1" Cut="0.0000000000000000e+00" cType="1" res="-1.9469475373625755e-02" rms="2.2151277959346771e-01" purity="4.3103449046611786e-02" nType="-99"/>
          <Node pos="r" depth="2" NCoef="0" IVar="-1" Cut="0.0000000000000000e+00" cType="1" res="-2.2115893661975861e-02" rms="1.0617253929376602e-01" purity="4.6656299382448196e-03" nType="-99"/>
        </Node>
      </Node>
    </BinaryTree>
    <BinaryTree type="DecisionTree" boostWeight="1.0000000000000000e+00" itree="6">
      <Node pos="s" depth="0" NCoef="0" IVar="14" Cut="1.8987656831741333e+00" cType="1" res="5.4747569561004639e-01" rms="2.8935107588768005e-01" purity="9.0702903270721436e-01" nType="0">
        <Node pos="l" depth="1" NCoef="0" IVar="11" Cut="2.8232449293136597e-01" cType="1" res="4.7543588280677795e-01" rms="3.7327137589454651e-01" purity="8.3216005563735962e-01" nType="0">
          <Node pos="l" depth="2" NCoef="0" IVar="-1" Cut="0.0000000000000000e+00" cType="1" res="3.4009017050266266e-02" rms="3.3248892426490784e-01" purity="8.7317782640457153e-01" nType="-99"/>
          <Node pos="r" depth="2" NCoef="0" IVar="-1" Cut="0.0000000000000000e+00" cType="1" res="2.2774245589971542e-02" rms="4.5760625600814819e-01" purity="7.0046800374984741e-01" nType="-99"/>
        </Node>
        <Node pos="r" depth="1" NCoef="0" IVar="11" Cut="1.7671799659729004e-01" cType="1" res="6.2123721837997437e-01" rms="1.2662149965763092e-01" purity="9.8368740081787109e-01" nType="0">
          <Node pos="l" depth="2" NCoef="0" IVar="-1" Cut="0.0000000000000000e+00" cType="1" res="3.8575820624828339e-02" rms="2.1798959374427795e-01" purity="9.4999998807907104e-01" nType="-99"/>
          <Node pos="r" depth="2" NCoef="0" IVar="-1" Cut="0.0000000000000000e+00" cType="1" res="4.1262429207563400e-02" rms="8.2242041826248169e-02" purity="9.9319064617156982e-01" nType="-99"/>
        </Node>
      </Node>
    </BinaryTree>
    <BinaryTree type="DecisionTree" boostWeight="1.0000000000000000e+00" itree="7">
      <Node pos="s" depth="0" NCoef="0" IVar="14" Cut="2.4169099330902100e+00" cType="1" res="5.5100333690643311e-01" rms="2.8430318832397461e-01" purity="7.6157107949256897e-02" nType="0">
        <Node pos="l" depth="1" NCoef="0" IVar="14" Cut="1.8431720733642578e+00" cType="1" res="5.1664912700653076e-01" rms="3.3034330606460571e-01" purity="1.0899329185485840e-01" nType="0">
          <Node pos="l" depth="2" NCoef="0" IVar="-1" Cut="0.0000000000000000e+00" cType="1" res="-1.2017750181257725e-02" rms="3.7500771880149841e-01" purity="1.5001899003982544e-01" nType="-99"/>
          <Node pos="r" depth="2" NCoef="0" IVar="-1" Cut="0.0000000000000000e+00" cType="1" res="-2.1556731313467026e-02" rms="1.3393151760101318e-01" purity="1.0073260404169559e-02" nType="-99"/>
        </Node>
        <Node pos="r" depth="1" NCoef="0" IVar="11" Cut="2.5307458639144897e-01" cType="1" res="6.2636810541152954e-01" rms="1.0236970335245132e-01" purity="4.1224970482289791e-03" nType="0">
          <Node pos="l" depth="2" NCoef="0" IVar="-1" Cut="0.0000000000000000e+00" cType="1" res="-2.1832680329680443e-02" rms="1.4988780021667480e-01" purity="5.3097344934940338e-03" nType="-99"/>
          <Node pos="r" depth="2" NCoef="0" IVar="-1" Cut="0.0000000000000000e+00" cType="1" res="-2.1951818838715553e-02" rms="6.6287562251091003e-02" purity="3.5304501652717590e-03" nType="-99"/>
        </Node>
      </Node>
    </BinaryTree>
    <BinaryTree type="DecisionTree" boostWeight="1.0000000000000000e+00" itree="8">
      <Node pos="s" depth="0" NCoef="0" IVar="18" Cut="1.9848027229309082e+00" cType="1" res="5.5016827583312988e-01" rms="2.8534114360809326e-01" purity="1.3387876562774181e-02" nType="0">
        <Node pos="l" depth="1" NCoef="0" IVar="14" Cut="1.4285746812820435e+00" cType="1" res="4.8628067970275879e-01" rms="3.6198273301124573e-01" purity="1.8252933397889137e-02" nType="0">
          <Node pos="l" depth="2" NCoef="0" IVar="-1" Cut="0.0000000000000000e+00" cType="1" res="-2.0624162629246712e-02" rms="4.2240214347839355e-01" purity="2.2881355136632919e-02" nType="-99"/>
          <Node pos="r" depth="2" NCoef="0" IVar="-1" Cut="0.0000000000000000e+00" cType="1" res="-2.1285124123096466e-02" rms="2.6255697011947632e-01" purity="1.3380910269916058e-02" nType="-99"/>
        </Node>
        <Node pos="r" depth="1" NCoef="0" IVar="8" Cut="4.8502638936042786e-02" cType="1" res="5.9794384241104126e-01" rms="1.9744542241096497e-01" purity="9.7497561946511269e-03" nType="0">
          <Node pos="l" depth="2" NCoef="0" IVar="-1" Cut="0.0000000000000000e+00" cType="1" res="-2.1048268303275108e-02" rms="2.5134345889091492e-01" purity="1.6666667535901070e-02" nType="-99"/>
          <Node pos="r" depth="2" NCoef="0" IVar="-1" Cut="0.0000000000000000e+00" cType="1" res="-2.1836206316947937e-02" rms="1.5078933537006378e-01" purity="5.3276503458619118e-03" nType="-99"/>
        </Node>
      </Node>
    </BinaryTree>
    <BinaryTree type="DecisionTree" boostWeight="1.0000000000000000e+00" itree="9">
      <Node pos="s" depth="0" NCoef="0" IVar="18" Cut="1.8311243057250977e+00" cType="1" res="5.3514510393142700e-01" rms="2.8812512755393982e-01" purity="9.0748322010040283e-01" nType="0">
        <Node pos="l" depth="1" NCoef="0" IVar="14" Cut="1.5283831357955933e+00" cType="1" res="4.5529010891914368e-01" rms="3.7923261523246765e-01" purity="8.2446265220642090e-01" nType="0">
          <Node pos="l" depth="2" NCoef="0" IVar="-1" Cut="0.0000000000000000e+00" cType="1" res="2.6118608191609383e-02" rms="4.2146834731101990e-01" purity="7.6811593770980835e-01" nType="-99"/>
          <Node pos="r" depth="2" NCoef="0" IVar="-1" Cut="0.0000000000000000e+00" cType="1" res="3.5574629902839661e-02" rms="2.6600399613380432e-01" purity="9.2275279760360718e-01" nType="-99"/>
        </Node>
        <Node pos="r" depth="1" NCoef="0" IVar="14" Cut="2.3045425415039062e+00" cType="1" res="5.8079648017883301e-01" rms="2.0622244477272034e-01" purity="9.5494443178176880e-01" nType="0">
          <Node pos="l" depth="2" NCoef="0" IVar="-1" Cut="0.0000000000000000e+00" cType="1" res="3.5768598318099976e-02" rms="2.6648846268653870e-01" purity="9.2241376638412476e-01" nType="-99"/>
          <Node pos="r" depth="2" NCoef="0" IVar="-1" Cut="0.0000000000000000e+00" cType="1" res="3.9337377995252609e-02" rms="1.0575556755065918e-01" purity="9.8867702484130859e-01" nType="-99"/>
        </Node>
      </Node>
    </BinaryTree>
    <BinaryTree type="DecisionTree" boostWeight="1.0000000000000000e+00" itree="10">
      <Node pos="s" depth="0" NCoef="0" IVar="14" Cut="1.7852107286453247e+00" cType="1" res="5.4047334194183350e-01" rms="2.8035825490951538e-01" purity="7.4738413095474243e-02" nType="0">
        <Node pos="l" depth="1" NCoef="0" IVar="11" Cut="2.3308008909225464e-01" cType="1" res="4.6070384979248047e-01" rms="3.7657347321510315e-01" purity="1.5176714956760406e-01" nType="0">
          <Node pos="l" depth="2" NCoef="0" IVar="-1" Cut="0.0000000000000000e+00" cType="1" res="-1.5292481519281864e-02" rms="3.3022999763488770e-01" purity="9.9812850356101990e-02" nType="-99"/>
          <Node pos="r" depth="2" NCoef="0" IVar="-1" Cut="0.0000000000000000e+00" cType="1" res="-4.5064897276461124e-03" rms="4.4107913970947266e-01" purity="2.5561097264289856e-01" nType="-99"/>
        </Node>
        <Node pos="r" depth="1" NCoef="0" IVar="10" Cut="7.3917021751403809e+00" cType="1" res="6.0557198524475098e-01" rms="1.3261952996253967e-01" purity="1.1876484379172325e-02" nType="0">
          <Node pos="l" depth="2" NCoef="0" IVar="-1" Cut="0.0000000000000000e+00" cType="1" res="-2.1245522424578667e-02" rms="1.2208528071641922e-01" purity="1.0650437325239182e-02" nType="-99"/>
          <Node pos="r" depth="2" NCoef="0" IVar="-1" Cut="0.0000000000000000e+00" cType="1" res="-2.0453233271837234e-02" rms="1.9806030392646790e-01" purity="2.2012578323483467e-02" nType="-99"/>
        </Node>
      </Node>
    </BinaryTree>
    <BinaryTree type="DecisionTree" boostWeight="1.0000000000000000e+00" itree="11">
      <Node pos="s" depth="0" NCoef="0" IVar="18" Cut="1.9405217170715332e+00" cType="1" res="5.3473377227783203e-01" rms="2.8873944282531738e-01" purity="1.6657201573252678e-02" nType="0">
        <Node pos="l" depth="1" NCoef="0" IVar="14" Cut="1.8742424249649048e+00" cType="1" res="4.7018605470657349e-01" rms="3.6576193571090698e-01" purity="2.5735294446349144e-02" nType="0">
          <Node pos="l" depth="2" NCoef="0" IVar="-1" Cut="0.0000000000000000e+00" cType="1" res="-1.9922351464629173e-02" rms="3.9757263660430908e-01" purity="2.9498524963855743e-02" nType="-99"/>
          <Node pos="r" depth="2" NCoef="0" IVar="-1" Cut="0.0000000000000000e+00" cType="1" res="-2.1088480949401855e-02" rms="1.6798244416713715e-01" purity="1.2474012561142445e-02" nType="-99"/>
        </Node>
        <Node pos="r" depth="1" NCoef="0" IVar="8" Cut="5.4445192217826843e-02" cType="1" res="5.7993996143341064e-01" rms="2.0761293172836304e-01" purity="1.0299324057996273e-02" nType="0">
          <Node pos="l" depth="2" NCoef="0" IVar="-1" Cut="0.0000000000000000e+00" cType="1" res="-2.0998165011405945e-02" rms="2.5573876500129700e-01" purity="1.3986013829708099e-02" nType="-99"/>
          <Node pos="r" depth="2" NCoef="0" IVar="-1" Cut="0.0000000000000000e+00" cType="1" res="-2.1472079679369926e-02" rms="1.5187628567218781e-01" purity="7.1556349284946918e-03" nType="-99"/>
        </Node>
      </Node>
    </BinaryTree>
    <BinaryTree type="DecisionTree" boostWeight="1.0000000000000000e+00" itree="12">
      <Node pos="s" depth="0" NCoef="0" IVar="13" Cut="2.8181817531585693e+00" cType="1" res="5.2265745401382446e-01" rms="2.8735551238059998e-01" purity="9.0757858753204346e-01" nType="0">
        <Node pos="l" depth="1" NCoef="0" IVar="14" Cut="1.8112921714782715e+00" cType="1" res="4.6923804283142090e-01" rms="3.5398373007774353e-01" purity="8.5108387470245361e-01" nType="0">
          <Node pos="l" depth="2" NCoef="0" IVar="-1" Cut="0.0000000000000000e+00" cType="1" res="2.6655314490199089e-02" rms="4.0470093488693237e-01" purity="7.9241377115249634e-01" nType="-99"/>
          <Node pos="r" depth="2" NCoef="0" IVar="-1" Cut="0.0000000000000000e+00" cType="1" res="3.7384517490863800e-02" rms="1.4733487367630005e-01" purity="9.7767859697341919e-01" nType="-99"/>
        </Node>
        <Node pos="r" depth="1" NCoef="0" IVar="8" Cut="4.7221705317497253e-02" cType="1" res="5.5713313817977905e-01" rms="2.2795867919921875e-01" purity="9.4403892755508423e-01" nType="0">
          <Node pos="l" depth="2" NCoef="0" IVar="-1" Cut="0.0000000000000000e+00" cType="1" res="3.3932659775018692e-02" rms="2.7068212628364563e-01" purity="9.1889882087707520e-01" nType="-99"/>
          <Node pos="r" depth="2" NCoef="0" IVar="-1" Cut="0.0000000000000000e+00" cType="1" res="3.6647684872150421e-02" rms="1.9104124605655670e-01" purity="9.6141976118087769e-01" nType="-99"/>
        </Node>
      </Node>
    </BinaryTree>
    <BinaryTree type="DecisionTree" boostWeight="1.0000000000000000e+00" itree="13">
      <Node pos="s" depth="0" NCoef="0" IVar="14" Cut="2.0069212913513184e+00" cType="1" res="5.2039104700088501e-01" rms="2.9079636931419373e-01" purity="8.0985255539417267e-02" nType="0">
        <Node pos="l" depth="1" NCoef="0" IVar="11" Cut="2.9486206173896790e-01" cType="1" res="4.6235433220863342e-01" rms="3.6380812525749207e-01" purity="1.4025008678436279e-01" nType="0">
          <Node pos="l" depth="2" NCoef="0" IVar="-1" Cut="0.0000000000000000e+00" cType="1" res="-1.4685541391372681e-02" rms="3.3353248238563538e-01" purity="1.0501089692115784e-01" nType="-99"/>
          <Node pos="r" depth="2" NCoef="0" IVar="-1" Cut="0.0000000000000000e+00" cType="1" res="-3.8339905440807343e-03" rms="4.3848299980163574e-01" purity="2.6204818487167358e-01" nType="-99"/>
        </Node>
        <Node pos="r" depth="1" NCoef="0" IVar="14" Cut="3.5971083641052246e+00" cType="1" res="5.9194540977478027e-01" rms="1.2792155146598816e-01" purity="7.9166665673255920e-03" nType="0">
          <Node pos="l" depth="2" NCoef="0" IVar="-1" Cut="0.0000000000000000e+00" cType="1" res="-2.1542774513363838e-02" rms="1.0631065070629120e-01" purity="2.9895366169512272e-03" nType="-99"/>
          <Node pos="r" depth="2" NCoef="0" IVar="-1" Cut="0.0000000000000000e+00" cType="1" res="-1.9367028027772903e-02" rms="2.0328615605831146e-01" purity="3.3078879117965698e-02" nType="-99"/>
        </Node>
      </Node>
    </BinaryTree>
    <BinaryTree type="DecisionTree" boostWeight="1.0000000000000000e+00" itree="14">
      <Node pos="s" depth="0" NCoef="0" IVar="14" Cut="2.0187082290649414e+00" cType="1" res="5.3128385543823242e-01" rms="2.7484157681465149e-01" purity="1.1687087826430798e-02" nType="0">
        <Node pos="l" depth="1" NCoef="0" IVar="11" Cut="3.0744740366935730e-01" cType="1" res="4.7837281227111816e-01" rms="3.4785348176956177e-01" purity="1.4467791654169559e-02" nType="0">
          <Node pos="l" depth="2" NCoef="0" IVar="-1" Cut="0.0000000000000000e+00" cType="1" res="-2.0539006218314171e-02" rms="3.1796455383300781e-01" purity="1.7417162656784058e-02" nType="-99"/>
          <Node pos="r" depth="2" NCoef="0" IVar="-1" Cut="0.0000000000000000e+00" cType="1" res="-2.1700404584407806e-02" rms="4.3637806177139282e-01" purity="1.8214936135336757e-03" nType="-99"/>
        </Node>
        <Node pos="r" depth="1" NCoef="0" IVar="11" Cut="1.8192353844642639e-01" cType="1" res="5.9523093700408936e-01" rms="1.1453494429588318e-01" purity="8.3263944834470749e-03" nType="0">
          <Node pos="l" depth="2" NCoef="0" IVar="-1" Cut="0.0000000000000000e+00" cType="1" res="-1.9589668139815331e-02" rms="1.9768796861171722e-01" purity="3.0549898743629456e-02" nType="-99"/>
          <Node pos="r" depth="2" NCoef="0" IVar="-1" Cut="0.0000000000000000e+00" cType="1" res="-2.1544218063354492e-02" rms="7.8958429396152496e-02" purity="2.6164310984313488e-03" nType="-99"/>
        </Node>
      </Node>
    </BinaryTree>
    <BinaryTree type="DecisionTree" boostWeight="1.0000000000000000e+00" itree="15">
      <Node pos="s" depth="0" NCoef="0" IVar="18" Cut="1.7138628959655762e+00" cType="1" res="5.1865839958190918e-01" rms="2.7497440576553345e-01" purity="9.1598087549209595e-01" nType="0">
        <Node pos="l" depth="1" NCoef="0" IVar="18" Cut="1.1129522323608398e+00" cType="1" res="4.3803146481513977e-01" rms="3.7459525465965271e-01" purity="8.2926827669143677e-01" nType="0">
          <Node pos="l" depth="2" NCoef="0" IVar="-1" Cut="0.0000000000000000e+00" cType="1" res="2.1081866696476936e-02" rms="4.4788494706153870e-01" purity="7.1960783004760742e-01" nType="-99"/>
          <Node pos="r" depth="2" NCoef="0" IVar="-1" Cut="0.0000000000000000e+00" cType="1" res="3.0862219631671906e-02" rms="3.2499021291732788e-01" purity="8.7876105308532715e-01" nType="-99"/>
        </Node>
        <Node pos="r" depth="1" NCoef="0" IVar="8" Cut="4.7490362077951431e-02" cType="1" res="5.5554211139678955e-01" rms="2.0414222776889801e-01" purity="9.5564854145050049e-01" nType="0">
          <Node pos="l" depth="2" NCoef="0" IVar="-1" Cut="0.0000000000000000e+00" cType="1" res="3.2864164561033249e-02" rms="2.6787525415420532e-01" purity="9.2070484161376953e-01" nType="-99"/>
          <Node pos="r" depth="2" NCoef="0" IVar="-1" Cut="0.0000000000000000e+00" cType="1" res="3.6344416439533234e-02" rms="1.4855955541133881e-01" purity="9.7705805301666260e-01" nType="-99"/>
        </Node>
      </Node>
    </BinaryTree>
    <BinaryTree type="DecisionTree" boostWeight="1.0000000000000000e+00" itree="16">
      <Node pos="s" depth="0" NCoef="0" IVar="18" Cut="1.1073197126388550e+00" cType="1" res="5.1033616065979004e-01" rms="2.8695484995841980e-01" purity="7.9992577433586121e-02" nType="0">
        <Node pos="l" depth="1" NCoef="0" IVar="-1" Cut="0.0000000000000000e+00" cType="1" res="-3.5363167989999056e-03" rms="4.5561125874519348e-01" purity="2.6229506731033325e-01" nType="-99"/>
        <Node pos="r" depth="1" NCoef="0" IVar="14" Cut="2.4027199745178223e+00" cType="1" res="5.2985084056854248e-01" rms="2.5625321269035339e-01" purity="6.1836734414100647e-02" nType="0">
          <Node pos="l" depth="2" NCoef="0" IVar="-1" Cut="0.0000000000000000e+00" cType="1" res="-1.5295945107936859e-02" rms="3.0471575260162354e-01" purity="9.2028319835662842e-02" nType="-99"/>
          <Node pos="r" depth="2" NCoef="0" IVar="-1" Cut="0.0000000000000000e+00" cType="1" res="-2.1351827308535576e-02" rms="8.4880046546459198e-02" purity="2.4227739777415991e-03" nType="-99"/>
        </Node>
      </Node>
    </BinaryTree>
    <BinaryTree type="DecisionTree" boostWeight="1.0000000000000000e+00" itree="17">
      <Node pos="s" depth="0" NCoef="0" IVar="18" Cut="1.4292117357254028e+00" cType="1" res="5.0495547056198120e-01" rms="2.9414209723472595e-01" purity="1.8971178680658340e-02" nType="0">
        <Node pos="l" depth="1" NCoef="0" IVar="18" Cut="1.0508236885070801e+00" cType="1" res="3.5991469025611877e-01" rms="4.3133097887039185e-01" purity="3.5878565162420273e-02" nType="0">
          <Node pos="l" depth="2" NCoef="0" IVar="-1" Cut="0.0000000000000000e+00" cType="1" res="-1.7217271029949188e-02" rms="4.7397300601005554e-01" purity="6.0465116053819656e-02" nType="-99"/>
          <Node pos="r" depth="2" NCoef="0" IVar="-1" Cut="0.0000000000000000e+00" cType="1" res="-2.0159155130386353e-02" rms="3.8919132947921753e-01" purity="1.9786911085247993e-02" nType="-99"/>
        </Node>
        <Node pos="r" depth="1" NCoef="0" IVar="14" Cut="2.0949683189392090e+00" cType="1" res="5.4082787036895752e-01" rms="2.3540212213993073e-01" purity="1.4789533801376820e-02" nType="0">
          <Node pos="l" depth="2" NCoef="0" IVar="-1" Cut="0.0000000000000000e+00" cType="1" res="-2.0244674757122993e-02" rms="3.0354839563369751e-01" purity="1.8313253298401833e-02" nType="-99"/>
          <Node pos="r" depth="2" NCoef="0" IVar="-1" Cut="0.0000000000000000e+00" cType="1" res="-2.0685195922851562e-02" rms="1.4220963418483734e-01" purity="1.1637930758297443e-02" nType="-99"/>
        </Node>
      </Node>
    </BinaryTree>
    <BinaryTree type="DecisionTree" boostWeight="1.0000000000000000e+00" itree="18">
      <Node pos="s" depth="0" NCoef="0" IVar="18" Cut="1.3358465433120728e+00" cType="1" res="4.9845594167709351e-01" rms="2.8603750467300415e-01" purity="9.0798580646514893e-01" nType="0">
        <Node pos="l" depth="1" NCoef="0" IVar="10" Cut="3.1301391124725342e+00" cType="1" res="3.6552146077156067e-01" rms="4.2250159382820129e-01" purity="7.6456874608993530e-01" nType="0">
          <Node pos="l" depth="2" NCoef="0" IVar="-1" Cut="0.0000000000000000e+00" cType="1" res="1.5931248664855957e-02" rms="4.7582659125328064e-01" purity="6.4896070957183838e-01" nType="-99"/>
          <Node pos="r" depth="2" NCoef="0" IVar="-1" Cut="0.0000000000000000e+00" cType="1" res="3.0303290113806725e-02" rms="3.2127922773361206e-01" purity="8.8235294818878174e-01" nType="-99"/>
        </Node>
        <Node pos="r" depth="1" NCoef="0" IVar="14" Cut="2.3476083278656006e+00" cType="1" res="5.2386420965194702e-01" rms="2.4354356527328491e-01" purity="9.3539762496948242e-01" nType="0">
          <Node pos="l" depth="2" NCoef="0" IVar="-1" Cut="0.0000000000000000e+00" cType="1" res="3.1129213050007820e-02" rms="2.9363521933555603e-01" purity="9.0336591005325317e-01" nType="-99"/>
          <Node pos="r" depth="2" NCoef="0" IVar="-1" Cut="0.0000000000000000e+00" cType="1" res="3.5280838608741760e-02" rms="1.1452648788690567e-01" purity="9.8667436838150024e-01" nType="-99"/>
        </Node>
      </Node>
    </BinaryTree>
    <BinaryTree type="DecisionTree" boostWeight="1.0000000000000000e+00" itree="19">
      <Node pos="s" depth="0" NCoef="0" IVar="14" Cut="1.9130002260208130e+00" cType="1" res="4.9753355979919434e-01" rms="2.8703570365905762e-01" purity="8.0791272222995758e-02" nType="0">
        <Node pos="l" depth="1" NCoef="0" IVar="11" Cut="3.7592738866806030e-01" cType="1" res="4.3077406287193298e-01" rms="3.7168219685554504e-01" purity="1.5031009912490845e-01" nType="0">
          <Node pos="l" depth="2" NCoef="0" IVar="-1" Cut="0.0000000000000000e+00" cType="1" res="-1.3234693557024002e-02" rms="3.4469029307365417e-01" purity="1.1978521198034286e-01" nType="-99"/>
          <Node pos="r" depth="2" NCoef="0" IVar="-1" Cut="0.0000000000000000e+00" cType="1" res="5.0585553981363773e-03" rms="4.8432829976081848e-01" purity="3.8124999403953552e-01" nType="-99"/>
        </Node>
        <Node pos="r" depth="1" NCoef="0" IVar="10" Cut="7.6723451614379883e+00" cType="1" res="5.6611967086791992e-01" rms="1.2578900158405304e-01" purity="9.3703148886561394e-03" nType="0">
          <Node pos="l" depth="2" NCoef="0" IVar="-1" Cut="0.0000000000000000e+00" cType="1" res="-2.0862009376287460e-02" rms="1.0415059328079224e-01" purity="6.7653278820216656e-03" nType="-99"/>
          <Node pos="r" depth="2" NCoef="0" IVar="-1" Cut="0.0000000000000000e+00" cType="1" res="-1.9203813746571541e-02" rms="2.3025715351104736e-01" purity="2.9702970758080482e-02" nType="-99"/>
        </Node>
      </Node>
    </BinaryTree>
    <BinaryTree type="DecisionTree" boostWeight="1.0000000000000000e+00" itree="20">
      <Node pos="s" depth="0" NCoef="0" IVar="18" Cut="1.9164626598358154e+00" cType="1" res="4.9902915954589844e-01" rms="2.8516873717308044e-01" purity="1.2478729709982872e-02" nType="0">
        <Node pos="l" depth="1" NCoef="0" IVar="10" Cut="3.0386002063751221e+00" cType="1" res="4.2839550971984863e-01" rms="3.7200567126274109e-01" purity="1.7703348770737648e-02" nType="0">
          <Node pos="l" depth="2" NCoef="0" IVar="-1" Cut="0.0000000000000000e+00" cType="1" res="-2.0611774176359177e-02" rms="4.2180863022804260e-01" purity="1.0666666552424431e-02" nType="-99"/>
          <Node pos="r" depth="2" NCoef="0" IVar="-1" Cut="0.0000000000000000e+00" cType="1" res="-1.9488103687763214e-02" rms="2.8625863790512085e-01" purity="2.5906736031174660e-02" nType="-99"/>
        </Node>
        <Node pos="r" depth="1" NCoef="0" IVar="8" Cut="5.0712719559669495e-02" cType="1" res="5.4517620801925659e-01" rms="1.9659242033958435e-01" purity="9.0653328225016594e-03" nType="0">
          <Node pos="l" depth="2" NCoef="0" IVar="-1" Cut="0.0000000000000000e+00" cType="1" res="-2.0358586683869362e-02" rms="2.4076029658317566e-01" purity="1.3483146205544472e-02" nType="-99"/>
          <Node pos="r" depth="2" NCoef="0" IVar="-1" Cut="0.0000000000000000e+00" cType="1" res="-2.0884752273559570e-02" rms="1.5573176741600037e-01" purity="5.9012877754867077e-03" nType="-99"/>
        </Node>
      </Node>
    </BinaryTree>
    <BinaryTree type="DecisionTree" boostWeight="1.0000000000000000e+00" itree="21">
      <Node pos="s" depth="0" NCoef="0" IVar="14" Cut="2.1603178977966309e+00" cType="1" res="4.8585134744644165e-01" rms="2.8647193312644958e-01" purity="9.0738660097122192e-01" nType="0">
        <Node pos="l" depth="1" NCoef="0" IVar="11" Cut="3.0461958050727844e-01" cType="1" res="4.4218400120735168e-01" rms="3.4815496206283569e-01" purity="8.5665100812911987e-01" nType="0">
          <Node pos="l" depth="2" NCoef="0" IVar="-1" Cut="0.0000000000000000e+00" cType="1" res="2.9209971427917480e-02" rms="3.1884175539016724e-01" purity="8.8384038209915161e-01" nType="-99"/>
          <Node pos="r" depth="2" NCoef="0" IVar="-1" Cut="0.0000000000000000e+00" cType="1" res="2.1311623975634575e-02" rms="4.2760100960731506e-01" purity="7.5301206111907959e-01" nType="-99"/>
        </Node>
        <Node pos="r" depth="1" NCoef="0" IVar="11" Cut="1.6921786963939667e-01" cType="1" res="5.5107676982879639e-01" rms="1.2842147052288055e-01" purity="9.8316973447799683e-01" nType="0">
          <Node pos="l" depth="2" NCoef="0" IVar="-1" Cut="0.0000000000000000e+00" cType="1" res="3.1236883252859116e-02" rms="2.4577294290065765e-01" purity="9.3548387289047241e-01" nType="-99"/>
          <Node pos="r" depth="2" NCoef="0" IVar="-1" Cut="0.0000000000000000e+00" cType="1" res="3.4493684768676758e-02" rms="8.7773121893405914e-02" purity="9.9221354722976685e-01" nType="-99"/>
        </Node>
      </Node>
    </BinaryTree>
    <BinaryTree type="DecisionTree" boostWeight="1.0000000000000000e+00" itree="22">
      <Node pos="s" depth="0" NCoef="0" IVar="14" Cut="1.8122439384460449e+00" cType="1" res="4.8455572128295898e-01" rms="2.8813925385475159e-01" purity="7.7959030866622925e-02" nType="0">
        <Node pos="l" depth="1" NCoef="0" IVar="11" Cut="3.7867668271064758e-01" cType="1" res="4.1293981671333313e-01" rms="3.7856447696685791e-01" purity="1.5518638491630554e-01" nType="0">
          <Node pos="l" depth="2" NCoef="0" IVar="-1" Cut="0.0000000000000000e+00" cType="1" res="-1.2459675781428814e-02" rms="3.5642352700233459e-01" purity="1.2812358140945435e-01" nType="-99"/>
          <Node pos="r" depth="2" NCoef="0" IVar="-1" Cut="0.0000000000000000e+00" cType="1" res="4.8661194741725922e-03" rms="4.8351991176605225e-01" purity="3.7827715277671814e-01" nType="-99"/>
        </Node>
        <Node pos="r" depth="1" NCoef="0" IVar="11" Cut="1.6398245096206665e-01" cType="1" res="5.4758995771408081e-01" rms="1.4653989672660828e-01" purity="9.9857347086071968e-03" nType="0">
          <Node pos="l" depth="2" NCoef="0" IVar="-1" Cut="0.0000000000000000e+00" cType="1" res="-2.0077610388398170e-02" rms="2.3360551893711090e-01" purity="1.5414258465170860e-02" nType="-99"/>
          <Node pos="r" depth="2" NCoef="0" IVar="-1" Cut="0.0000000000000000e+00" cType="1" res="-2.0524999126791954e-02" rms="1.1683354526758194e-01" purity="8.7527353316545486e-03" nType="-99"/>
        </Node>
      </Node>
    </BinaryTree>
    <BinaryTree type="DecisionTree" boostWeight="1.0000000000000000e+00" itree="23">
      <Node pos="s" depth="0" NCoef="0" IVar="13" Cut="2.9090909957885742e+00" cType="1" res="4.8175221681594849e-01" rms="2.9240897297859192e-01" purity="1.3237519189715385e-02" nType="0">
        <Node pos="l" depth="1" NCoef="0" IVar="8" Cut="4.9021217972040176e-02" cType="1" res="4.3136304616928101e-01" rms="3.5662159323692322e-01" purity="1.8446601927280426e-02" nType="0">
          <Node pos="l" depth="2" NCoef="0" IVar="-1" Cut="0.0000000000000000e+00" cType="1" res="-1.9266450777649879e-02" rms="4.2887994647026062e-01" purity="2.5956284254789352e-02" nType="-99"/>
          <Node pos="r" depth="2" NCoef="0" IVar="-1" Cut="0.0000000000000000e+00" cType="1" res="-2.0119259133934975e-02" rms="2.9711806774139404e-01" purity="1.4307228848338127e-02" nType="-99"/>
        </Node>
        <Node pos="r" depth="1" NCoef="0" IVar="17" Cut="5.4584190249443054e-02" cType="1" res="5.1390886306762695e-01" rms="2.3717594146728516e-01" purity="9.9132591858506203e-03" nType="0">
          <Node pos="l" depth="2" NCoef="0" IVar="-1" Cut="0.0000000000000000e+00" cType="1" res="-2.0384036004543304e-02" rms="2.1998342871665955e-01" purity="1.0167029686272144e-02" nType="-99"/>
          <Node pos="r" depth="2" NCoef="0" IVar="-1" Cut="0.0000000000000000e+00" cType="1" res="-2.0503295585513115e-02" rms="3.1438311934471130e-01" purity="8.4388181567192078e-03" nType="-99"/>
        </Node>
      </Node>
    </BinaryTree>
    <BinaryTree type="DecisionTree" boostWeight="1.0000000000000000e+00" itree="24">
      <Node pos="s" depth="0" NCoef="0" IVar="14" Cut="1.8534975051879883e+00" cType="1" res="4.6951651573181152e-01" rms="2.9277810454368591e-01" purity="9.0242069959640503e-01" nType="0">
        <Node pos="l" depth="1" NCoef="0" IVar="8" Cut="4.2531974613666534e-02" cType="1" res="4.0153220295906067e-01" rms="3.7878763675689697e-01" purity="8.2409459352493286e-01" nType="0">
          <Node pos="l" depth="2" NCoef="0" IVar="-1" Cut="0.0000000000000000e+00" cType="1" res="1.9546682015061378e-02" rms="4.3815955519676208e-01" purity="7.3734176158905029e-01" nType="-99"/>
          <Node pos="r" depth="2" NCoef="0" IVar="-1" Cut="0.0000000000000000e+00" cType="1" res="2.7785504236817360e-02" rms="3.3336061239242554e-01" purity="8.7087601423263550e-01" nType="-99"/>
        </Node>
        <Node pos="r" depth="1" NCoef="0" IVar="11" Cut="1.7056363821029663e-01" cType="1" res="5.3965204954147339e-01" rms="1.2823070585727692e-01" purity="9.8322528600692749e-01" nType="0">
          <Node pos="l" depth="2" NCoef="0" IVar="-1" Cut="0.0000000000000000e+00" cType="1" res="3.1653352081775665e-02" rms="2.0439711213111877e-01" purity="9.5635676383972168e-01" nType="-99"/>
          <Node pos="r" depth="2" NCoef="0" IVar="-1" Cut="0.0000000000000000e+00" cType="1" res="3.3438760787248611e-02" rms="9.9460601806640625e-02" purity="9.8998093605041504e-01" nType="-99"/>
        </Node>
      </Node>
    </BinaryTree>
    <BinaryTree type="DecisionTree" boostWeight="1.0000000000000000e+00" itree="25">
      <Node pos="s" depth="0" NCoef="0" IVar="14" Cut="1.4535968303680420e+00" cType="1" res="4.7891286015510559e-01" rms="2.7937260270118713e-01" purity="7.3900841176509857e-02" nType="0">
        <Node pos="l" depth="1" NCoef="0" IVar="11" Cut="2.0614840090274811e-01" cType="1" res="3.9125624299049377e-01" rms="3.8880953192710876e-01" purity="1.6563275456428528e-01" nType="0">
          <Node pos="l" depth="2" NCoef="0" IVar="-1" Cut="0.0000000000000000e+00" cType="1" res="-1.3584216125309467e-02" rms="3.4488019347190857e-01" purity="1.0990008711814880e-01" nType="-99"/>
          <Node pos="r" depth="2" NCoef="0" IVar="-1" Cut="0.0000000000000000e+00" cType="1" res="-1.2182445498183370e-03" rms="4.5300060510635376e-01" purity="2.8571429848670959e-01" nType="-99"/>
        </Node>
        <Node pos="r" depth="1" NCoef="0" IVar="14" Cut="2.6343414783477783e+00" cType="1" res="5.1676511764526367e-01" rms="2.0425873994827271e-01" purity="3.4288775175809860e-02" nType="0">
          <Node pos="l" depth="2" NCoef="0" IVar="-1" Cut="0.0000000000000000e+00" cType="1" res="-1.7583144828677177e-02" rms="2.3636648058891296e-01" purity="4.9392711371183395e-02" nType="-99"/>
          <Node pos="r" depth="2" NCoef="0" IVar="-1" Cut="0.0000000000000000e+00" cType="1" res="-2.0559832453727722e-02" rms="1.1492159217596054e-01" purity="4.7505940310657024e-03" nType="-99"/>
        </Node>
      </Node>
    </BinaryTree>
    <BinaryTree type="DecisionTree" boostWeight="1.0000000000000000e+00" itree="26">
      <Node pos="s" depth="0" NCoef="0" IVar="14" Cut="1.6911709308624268e+00" cType="1" res="4.7592860460281372e-01" rms="2.8330039978027344e-01" purity="1.0420543141663074e-02" nType="0">
        <Node pos="l" depth="1" NCoef="0" IVar="8" Cut="5.6072086095809937e-02" cType="1" res="3.8884443044662476e-01" rms="3.9013844728469849e-01" purity="1.7647059634327888e-02" nType="0">
          <Node pos="l" depth="2" NCoef="0" IVar="-1" Cut="0.0000000000000000e+00" cType="1" res="-1.9659122452139854e-02" rms="4.3086308240890503e-01" purity="1.7890771850943565e-02" nType="-99"/>
          <Node pos="r" depth="2" NCoef="0" IVar="-1" Cut="0.0000000000000000e+00" cType="1" res="-1.9694982096552849e-02" rms="3.3905223011970520e-01" purity="1.7421603202819824e-02" nType="-99"/>
        </Node>
        <Node pos="r" depth="1" NCoef="0" IVar="14" Cut="2.2651252746582031e+00" cType="1" res="5.3675538301467896e-01" rms="1.4493826031684875e-01" purity="5.3729456849396229e-03" nType="0">
          <Node pos="l" depth="2" NCoef="0" IVar="-1" Cut="0.0000000000000000e+00" cType="1" res="-2.0422261208295822e-02" rms="1.9236464798450470e-01" purity="7.1599045768380165e-03" nType="-99"/>
          <Node pos="r" depth="2" NCoef="0" IVar="-1" Cut="0.0000000000000000e+00" cType="1" res="-2.0611274987459183e-02" rms="1.0168081521987915e-01" purity="4.1950708255171776e-03" nType="-99"/>
        </Node>
      </Node>
    </BinaryTree>
    <BinaryTree type="DecisionTree" boostWeight="1.0000000000000000e+00" itree="27">
      <Node pos="s" depth="0" NCoef="0" IVar="13" Cut="2.7272727489471436e+00" cType="1" res="4.5838096737861633e-01" rms="2.9118701815605164e-01" purity="9.0308207273483276e-01" nType="0">
        <Node pos="l" depth="1" NCoef="0" IVar="14" Cut="1.8298093080520630e+00" cType="1" res="4.1736754775047302e-01" rms="3.4726244211196899e-01" purity="8.5533112287521362e-01" nType="0">
          <Node pos="l" depth="2" NCoef="0" IVar="-1" Cut="0.0000000000000000e+00" cType="1" res="2.2845515981316566e-02" rms="3.9713740348815918e-01" purity="8.0054092407226562e-01" nType="-99"/>
          <Node pos="r" depth="2" NCoef="0" IVar="-1" Cut="0.0000000000000000e+00" cType="1" res="3.2021414488554001e-02" rms="1.3960172235965729e-01" purity="9.8000001907348633e-01" nType="-99"/>
        </Node>
        <Node pos="r" depth="1" NCoef="0" IVar="17" Cut="5.4588276892900467e-02" cType="1" res="4.8519015312194824e-01" rms="2.4406842887401581e-01" purity="9.3429535627365112e-01" nType="0">
          <Node pos="l" depth="2" NCoef="0" IVar="-1" Cut="0.0000000000000000e+00" cType="1" res="3.0364241451025009e-02" rms="2.2306640446186066e-01" purity="9.4580739736557007e-01" nType="-99"/>
          <Node pos="r" depth="2" NCoef="0" IVar="-1" Cut="0.0000000000000000e+00" cType="1" res="2.6156920939683914e-02" rms="3.2633522152900696e-01" purity="8.7452471256256104e-01" nType="-99"/>
        </Node>
      </Node>
    </BinaryTree>
    <BinaryTree type="DecisionTree" boostWeight="1.0000000000000000e+00" itree="28">
      <Node pos="s" depth="0" NCoef="0" IVar="14" Cut="1.8110451698303223e+00" cType="1" res="4.6593657135963440e-01" rms="2.8065136075019836e-01" purity="7.7912397682666779e-02" nType="0">
        <Node pos="l" depth="1" NCoef="0" IVar="11" Cut="3.1876847147941589e-01" cType="1" res="3.9444601535797119e-01" rms="3.7664860486984253e-01" purity="1.5659341216087341e-01" nType="0">
          <Node pos="l" depth="2" NCoef="0" IVar="-1" Cut="0.0000000000000000e+00" cType="1" res="-1.2595484033226967e-02" rms="3.4576663374900818e-01" purity="1.2013295292854309e-01" nType="-99"/>
          <Node pos="r" depth="2" NCoef="0" IVar="-1" Cut="0.0000000000000000e+00" cType="1" res="1.8915449036285281e-03" rms="4.6972993016242981e-01" purity="3.3031675219535828e-01" nType="-99"/>
        </Node>
        <Node pos="r" depth="1" NCoef="0" IVar="18" Cut="3.6252601146697998e+00" cType="1" res="5.3060036897659302e-01" rms="1.1352257430553436e-01" purity="6.7447638139128685e-03" nType="0">
          <Node pos="l" depth="2" NCoef="0" IVar="-1" Cut="0.0000000000000000e+00" cType="1" res="-2.0411979407072067e-02" rms="1.0199362039566040e-01" purity="5.2953157573938370e-03" nType="-99"/>
          <Node pos="r" depth="2" NCoef="0" IVar="-1" Cut="0.0000000000000000e+00" cType="1" res="-1.9489757716655731e-02" rms="1.7118626832962036e-01" purity="1.6574585810303688e-02" nType="-99"/>
        </Node>
      </Node>
    </BinaryTree>
    <BinaryTree type="DecisionTree" boostWeight="1.0000000000000000e+00" itree="29">
      <Node pos="s" depth="0" NCoef="0" IVar="18" Cut="2.0328414440155029e+00" cType="1" res="4.6446388959884644e-01" rms="2.8234970569610596e-01" purity="1.2320328503847122e-02" nType="0">
        <Node pos="l" depth="1" NCoef="0" IVar="18" Cut="1.2843364477157593e+00" cType="1" res="4.1125279664993286e-01" rms="3.5482296347618103e-01" purity="1.9278096035122871e-02" nType="0">
          <Node pos="l" depth="2" NCoef="0" IVar="-1" Cut="0.0000000000000000e+00" cType="1" res="-1.9176483154296875e-02" rms="4.3023544549942017e-01" purity="2.2280471399426460e-02" nType="-99"/>
          <Node pos="r" depth="2" NCoef="0" IVar="-1" Cut="0.0000000000000000e+00" cType="1" res="-1.9443152472376823e-02" rms="3.0586594343185425e-01" purity="1.7910446971654892e-02" nType="-99"/>
        </Node>
        <Node pos="r" depth="1" NCoef="0" IVar="8" Cut="4.7338020056486130e-02" cType="1" res="5.0890672206878662e-01" rms="1.9186630845069885e-01" purity="6.5090786665678024e-03" nType="0">
          <Node pos="l" depth="2" NCoef="0" IVar="-1" Cut="0.0000000000000000e+00" cType="1" res="-1.9767900928854942e-02" rms="2.4143956601619720e-01" purity="1.3181019574403763e-02" nType="-99"/>
          <Node pos="r" depth="2" NCoef="0" IVar="-1" Cut="0.0000000000000000e+00" cType="1" res="-2.0561791956424713e-02" rms="1.4996823668479919e-01" purity="2.2459293249994516e-03" nType="-99"/>
        </Node>
      </Node>
    </BinaryTree>
    <BinaryTree type="DecisionTree" boostWeight="1.0000000000000000e+00" itree="30">
      <Node pos="s" depth="0" NCoef="0" IVar="14" Cut="2.0917394161224365e+00" cType="1" res="4.4994169473648071e-01" rms="2.8646713495254517e-01" purity="9.0612244606018066e-01" nType="0">
        <Node pos="l" depth="1" NCoef="0" IVar="11" Cut="3.8070032000541687e-01" cType="1" res="4.0270420908927917e-01" rms="3.5521987080574036e-01" purity="8.4832000732421875e-01" nType="0">
          <Node pos="l" depth="2" NCoef="0" IVar="-1" Cut="0.0000000000000000e+00" cType="1" res="2.6293838396668434e-02" rms="3.2673785090446472e-01" purity="8.7623578310012817e-01" nType="-99"/>
          <Node pos="r" depth="2" NCoef="0" IVar="-1" Cut="0.0000000000000000e+00" cType="1" res="1.3376095332205296e-02" rms="4.7068098187446594e-01" purity="6.5482234954833984e-01" nType="-99"/>
        </Node>
        <Node pos="r" depth="1" NCoef="0" IVar="11" Cut="1.7943932116031647e-01" cType="1" res="5.1511478424072266e-01" rms="1.1776434630155563e-01" purity="9.8587197065353394e-01" nType="0">
          <Node pos="l" depth="2" NCoef="0" IVar="-1" Cut="0.0000000000000000e+00" cType="1" res="2.9408995062112808e-02" rms="2.1510136127471924e-01" purity="9.5137423276901245e-01" nType="-99"/>
          <Node pos="r" depth="2" NCoef="0" IVar="-1" Cut="0.0000000000000000e+00" cType="1" res="3.1773038208484650e-02" rms="7.0651583373546600e-02" purity="9.9497765302658081e-01" nType="-99"/>
        </Node>
      </Node>
    </BinaryTree>
    <BinaryTree type="DecisionTree" boostWeight="1.0000000000000000e+00" itree="31">
      <Node pos="s" depth="0" NCoef="0" IVar="14" Cut="1.6911147832870483e+00" cType="1" res="4.5260143280029297e-01" rms="2.8279408812522888e-01" purity="7.6893940567970276e-02" nType="0">
        <Node pos="l" depth="1" NCoef="0" IVar="11" Cut="2.8859406709671021e-01" cType="1" res="3.7557992339134216e-01" rms="3.8414537906646729e-01" purity="1.6252821683883667e-01" nType="0">
          <Node pos="l" depth="2" NCoef="0" IVar="-1" Cut="0.0000000000000000e+00" cType="1" res="-1.1907972395420074e-02" rms="3.5532358288764954e-01" purity="1.2676055729389191e-01" nType="-99"/>
          <Node pos="r" depth="2" NCoef="0" IVar="-1" Cut="0.0000000000000000e+00" cType="1" res="4.1469480493105948e-04" rms="4.6284520626068115e-01" purity="3.0681818723678589e-01" nType="-99"/>
        </Node>
        <Node pos="r" depth="1" NCoef="0" IVar="18" Cut="2.3947391510009766e+00" cType="1" res="5.0826299190521240e-01" rms="1.5407074987888336e-01" purity="1.5008156187832355e-02" nType="0">
          <Node pos="l" depth="2" NCoef="0" IVar="-1" Cut="0.0000000000000000e+00" cType="1" res="-1.8770899623632431e-02" rms="1.9191820919513702e-01" purity="2.5801407173275948e-02" nType="-99"/>
          <Node pos="r" depth="2" NCoef="0" IVar="-1" Cut="0.0000000000000000e+00" cType="1" res="-2.0072413608431816e-02" rms="1.1915191262960434e-01" purity="7.2788354009389877e-03" nType="-99"/>
        </Node>
      </Node>
    </BinaryTree>
    <BinaryTree type="DecisionTree" boostWeight="1.0000000000000000e+00" itree="32">
      <Node pos="s" depth="0" NCoef="0" IVar="18" Cut="1.2911947965621948e+00" cType="1" res="4.5054307579994202e-01" rms="2.8615689277648926e-01" purity="1.4415080659091473e-02" nType="0">
        <Node pos="l" depth="1" NCoef="0" IVar="18" Cut="9.7323304414749146e-01" cType="1" res="3.1025353074073792e-01" rms="4.3086323142051697e-01" purity="3.4313727170228958e-02" nType="0">
          <Node pos="l" depth="2" NCoef="0" IVar="-1" Cut="0.0000000000000000e+00" cType="1" res="-1.6676794737577438e-02" rms="4.7841280698776245e-01" purity="5.2631579339504242e-02" nType="-99"/>
          <Node pos="r" depth="2" NCoef="0" IVar="-1" Cut="0.0000000000000000e+00" cType="1" res="-1.8810391426086426e-02" rms="3.9111706614494324e-01" purity="2.4482108652591705e-02" nType="-99"/>
        </Node>
        <Node pos="r" depth="1" NCoef="0" IVar="14" Cut="2.0116446018218994e+00" cType="1" res="4.7545629739761353e-01" rms="2.4360695481300354e-01" purity="1.0881393216550350e-02" nType="0">
          <Node pos="l" depth="2" NCoef="0" IVar="-1" Cut="0.0000000000000000e+00" cType="1" res="-1.9517833366990089e-02" rms="3.2323679327964783e-01" purity="1.4330497011542320e-02" nType="-99"/>
          <Node pos="r" depth="2" NCoef="0" IVar="-1" Cut="0.0000000000000000e+00" cType="1" res="-1.9970247521996498e-02" rms="1.1545896530151367e-01" purity="7.6206605881452560e-03" nType="-99"/>
        </Node>
      </Node>
    </BinaryTree>
    <BinaryTree type="DecisionTree" boostWeight="1.0000000000000000e+00" itree="33">
      <Node pos="s" depth="0" NCoef="0" IVar="18" Cut="1.3973934650421143e+00" cType="1" res="4.4933897256851196e-01" rms="2.7081325650215149e-01" purity="9.1708588600158691e-01" nType="0">
        <Node pos="l" depth="1" NCoef="0" IVar="11" Cut="1.9917708635330200e-01" cType="1" res="3.4228879213333130e-01" rms="4.0184214711189270e-01" purity="7.9260778427124023e-01" nType="0">
          <Node pos="l" depth="2" NCoef="0" IVar="-1" Cut="0.0000000000000000e+00" cType="1" res="2.4249635636806488e-02" rms="3.5693961381912231e-01" purity="8.4861719608306885e-01" nType="-99"/>
          <Node pos="r" depth="2" NCoef="0" IVar="-1" Cut="0.0000000000000000e+00" cType="1" res="1.2964751571416855e-02" rms="4.6778681874275208e-01" purity="6.5853661298751831e-01" nType="-99"/>
        </Node>
        <Node pos="r" depth="1" NCoef="0" IVar="8" Cut="4.2238272726535797e-02" cType="1" res="4.7307372093200684e-01" rms="2.2515371441841125e-01" purity="9.4468474388122559e-01" nType="0">
          <Node pos="l" depth="2" NCoef="0" IVar="-1" Cut="0.0000000000000000e+00" cType="1" res="2.6847323402762413e-02" rms="2.7828666567802429e-01" purity="9.1239893436431885e-01" nType="-99"/>
          <Node pos="r" depth="2" NCoef="0" IVar="-1" Cut="0.0000000000000000e+00" cType="1" res="2.9712464660406113e-02" rms="1.9050671160221100e-01" purity="9.6115505695343018e-01" nType="-99"/>
        </Node>
      </Node>
    </BinaryTree>
    <BinaryTree type="DecisionTree" boostWeight="1.0000000000000000e+00" itree="34">
      <Node pos="s" depth="0" NCoef="0" IVar="14" Cut="1.9175426959991455e+00" cType="1" res="4.4264131784439087e-01" rms="2.8091499209403992e-01" purity="7.7747002243995667e-02" nType="0">
        <Node pos="l" depth="1" NCoef="0" IVar="11" Cut="2.9605615139007568e-01" cType="1" res="3.8637298345565796e-01" rms="3.6410346627235413e-01" purity="1.4306202530860901e-01" nType="0">
          <Node pos="l" depth="2" NCoef="0" IVar="-1" Cut="0.0000000000000000e+00" cType="1" res="-1.3000113889575005e-02" rms="3.3402884006500244e-01" purity="1.0828025639057159e-01" nType="-99"/>
          <Node pos="r" depth="2" NCoef="0" IVar="-1" Cut="0.0000000000000000e+00" cType="1" res="-1.7709591193124652e-03" rms="4.4340705871582031e-01" purity="2.7241963148117065e-01" nType="-99"/>
        </Node>
        <Node pos="r" depth="1" NCoef="0" IVar="15" Cut="9.0905934572219849e-02" cType="1" res="5.0240230560302734e-01" rms="1.2243548035621643e-01" purity="8.3777606487274170e-03" nType="0">
          <Node pos="l" depth="2" NCoef="0" IVar="-1" Cut="0.0000000000000000e+00" cType="1" res="-1.8780520185828209e-02" rms="1.7640210688114166e-01" purity="2.0900322124361992e-02" nType="-99"/>
          <Node pos="r" depth="2" NCoef="0" IVar="-1" Cut="0.0000000000000000e+00" cType="1" res="-2.0078007131814957e-02" rms="9.9335372447967529e-02" purity="4.4910181313753128e-03" nType="-99"/>
        </Node>
      </Node>
    </BinaryTree>
    <BinaryTree type="DecisionTree" boostWeight="1.0000000000000000e+00" itree="35">
      <Node pos="s" depth="0" NCoef="0" IVar="13" Cut="2.7272727489471436e+00" cType="1" res="4.3600559234619141e-01" rms="2.9021796584129333e-01" purity="1.5055761672556400e-02" nType="0">
        <Node pos="l" depth="1" NCoef="0" IVar="14" Cut="1.8464628458023071e+00" cType="1" res="3.9446482062339783e-01" rms="3.4834620356559753e-01" purity="1.6536518931388855e-02" nType="0">
          <Node pos="l" depth="2" NCoef="0" IVar="-1" Cut="0.0000000000000000e+00" cType="1" res="-1.8985265865921974e-02" rms="3.9783400297164917e-01" purity="1.9620666280388832e-02" nType="-99"/>
          <Node pos="r" depth="2" NCoef="0" IVar="-1" Cut="0.0000000000000000e+00" cType="1" res="-1.9670074805617332e-02" rms="1.3461002707481384e-01" purity="9.2592593282461166e-03" nType="-99"/>
        </Node>
        <Node pos="r" depth="1" NCoef="0" IVar="17" Cut="3.6462161689996719e-02" cType="1" res="4.6423983573913574e-01" rms="2.3880496621131897e-01" purity="1.4049328863620758e-02" nType="0">
          <Node pos="l" depth="2" NCoef="0" IVar="-1" Cut="0.0000000000000000e+00" cType="1" res="-1.9382627680897713e-02" rms="2.0673002302646637e-01" purity="1.3123359531164169e-02" nType="-99"/>
          <Node pos="r" depth="2" NCoef="0" IVar="-1" Cut="0.0000000000000000e+00" cType="1" res="-1.9122403115034103e-02" rms="3.0064114928245544e-01" purity="1.6357688233256340e-02" nType="-99"/>
        </Node>
      </Node>
    </BinaryTree>
    <BinaryTree type="DecisionTree" boostWeight="1.0000000000000000e+00" itree="36">
      <Node pos="s" depth="0" NCoef="0" IVar="14" Cut="2.0308506488800049e+00" cType="1" res="4.2804455757141113e-01" rms="2.8514361381530762e-01" purity="9.0651339292526245e-01" nType="0">
        <Node pos="l" depth="1" NCoef="0" IVar="11" Cut="3.5657721757888794e-01" cType="1" res="3.7906116247177124e-01" rms="3.5895422101020813e-01" purity="8.4408414363861084e-01" nType="0">
          <Node pos="l" depth="2" NCoef="0" IVar="-1" Cut="0.0000000000000000e+00" cType="1" res="2.4674303829669952e-02" rms="3.3076342940330505e-01" purity="8.7278580665588379e-01" nType="-99"/>
          <Node pos="r" depth="2" NCoef="0" IVar="-1" Cut="0.0000000000000000e+00" cType="1" res="1.3379235751926899e-02" rms="4.6403506398200989e-01" purity="6.7228913307189941e-01" nType="-99"/>
        </Node>
        <Node pos="r" depth="1" NCoef="0" IVar="11" Cut="1.7689634859561920e-01" cType="1" res="4.8922634124755859e-01" rms="1.2323274463415146e-01" purity="9.8448944091796875e-01" nType="0">
          <Node pos="l" depth="2" NCoef="0" IVar="-1" Cut="0.0000000000000000e+00" cType="1" res="2.8052207082509995e-02" rms="2.0818148553371429e-01" purity="9.5454543828964233e-01" nType="-99"/>
          <Node pos="r" depth="2" NCoef="0" IVar="-1" Cut="0.0000000000000000e+00" cType="1" res="3.0019393190741539e-02" rms="8.6871922016143799e-02" purity="9.9237889051437378e-01" nType="-99"/>
        </Node>
      </Node>
    </BinaryTree>
    <BinaryTree type="DecisionTree" boostWeight="1.0000000000000000e+00" itree="37">
      <Node pos="s" depth="0" NCoef="0" IVar="18" Cut="1.8555157184600830e+00" cType="1" res="4.2872518301010132e-01" rms="2.8453415632247925e-01" purity="8.1015944480895996e-02" nType="0">
        <Node pos="l" depth="1" NCoef="0" IVar="14" Cut="1.7817640304565430e+00" cType="1" res="3.6123618483543396e-01" rms="3.7282291054725647e-01" purity="1.5485437214374542e-01" nType="0">
          <Node pos="l" depth="2" NCoef="0" IVar="-1" Cut="0.0000000000000000e+00" cType="1" res="-6.3292654231190681e-03" rms="4.0969920158386230e-01" purity="1.9859962165355682e-01" nType="-99"/>
          <Node pos="r" depth="2" NCoef="0" IVar="-1" Cut="0.0000000000000000e+00" cType="1" res="-1.9290760159492493e-02" rms="1.6025939583778381e-01" purity="1.4314928092062473e-02" nType="-99"/>
        </Node>
        <Node pos="r" depth="1" NCoef="0" IVar="17" Cut="5.4607450962066650e-02" cType="1" res="4.7042503952980042e-01" rms="2.0136210322380066e-01" purity="3.5392921417951584e-02" nType="0">
          <Node pos="l" depth="2" NCoef="0" IVar="-1" Cut="0.0000000000000000e+00" cType="1" res="-1.8440682440996170e-02" rms="1.8192735314369202e-01" purity="2.6183644309639931e-02" nType="-99"/>
          <Node pos="r" depth="2" NCoef="0" IVar="-1" Cut="0.0000000000000000e+00" cType="1" res="-1.4263059943914413e-02" rms="2.7697989344596863e-01" purity="8.2417584955692291e-02" nType="-99"/>
        </Node>
      </Node>
    </BinaryTree>
    <BinaryTree type="DecisionTree" boostWeight="1.0000000000000000e+00" itree="38">
      <Node pos="s" depth="0" NCoef="0" IVar="18" Cut="2.0521628856658936e+00" cType="1" res="4.3647339940071106e-01" rms="2.7339723706245422e-01" purity="1.3722127303481102e-02" nType="0">
        <Node pos="l" depth="1" NCoef="0" IVar="14" Cut="1.6308960914611816e+00" cType="1" res="3.9778396487236023e-01" rms="3.3531144261360168e-01" purity="1.9461696967482567e-02" nType="0">
          <Node pos="l" depth="2" NCoef="0" IVar="-1" Cut="0.0000000000000000e+00" cType="1" res="-1.8116395920515060e-02" rms="3.9183807373046875e-01" purity="2.8241334483027458e-02" nType="-99"/>
          <Node pos="r" depth="2" NCoef="0" IVar="-1" Cut="0.0000000000000000e+00" cType="1" res="-1.9997922703623772e-02" rms="1.5633994340896606e-01" purity="3.5005833487957716e-03" nType="-99"/>
        </Node>
        <Node pos="r" depth="1" NCoef="0" IVar="17" Cut="6.3668474555015564e-02" cType="1" res="4.6946600079536438e-01" rms="2.0060585439205170e-01" purity="8.8276835158467293e-03" nType="0">
          <Node pos="l" depth="2" NCoef="0" IVar="-1" Cut="0.0000000000000000e+00" cType="1" res="-1.9595662131905556e-02" rms="1.8059708178043365e-01" purity="7.9968012869358063e-03" nType="-99"/>
          <Node pos="r" depth="2" NCoef="0" IVar="-1" Cut="0.0000000000000000e+00" cType="1" res="-1.9019704312086105e-02" rms="3.0625617504119873e-01" purity="1.5105740167200565e-02" nType="-99"/>
        </Node>
      </Node>
    </BinaryTree>
    <BinaryTree type="DecisionTree" boostWeight="1.0000000000000000e+00" itree="39">
      <Node pos="s" depth="0" NCoef="0" IVar="14" Cut="1.9762033224105835e+00" cType="1" res="4.1967153549194336e-01" rms="2.8066417574882507e-01" purity="9.0919160842895508e-01" nType="0">
        <Node pos="l" depth="1" NCoef="0" IVar="11" Cut="3.9681109786033630e-01" cType="1" res="3.6667954921722412e-01" rms="3.6198604106903076e-01" purity="8.4032428264617920e-01" nType="0">
          <Node pos="l" depth="2" NCoef="0" IVar="-1" Cut="0.0000000000000000e+00" cType="1" res="2.3544183000922203e-02" rms="3.4036782383918762e-01" purity="8.6336869001388550e-01" nType="-99"/>
          <Node pos="r" depth="2" NCoef="0" IVar="-1" Cut="0.0000000000000000e+00" cType="1" res="1.0969030670821667e-02" rms="4.7488170862197876e-01" purity="6.3793104887008667e-01" nType="-99"/>
        </Node>
        <Node pos="r" depth="1" NCoef="0" IVar="11" Cut="1.9011251628398895e-01" cType="1" res="4.7791960835456848e-01" rms="1.2185114622116089e-01" purity="9.8488956689834595e-01" nType="0">
          <Node pos="l" depth="2" NCoef="0" IVar="-1" Cut="0.0000000000000000e+00" cType="1" res="2.7465239167213440e-02" rms="2.0282068848609924e-01" purity="9.5707470178604126e-01" nType="-99"/>
          <Node pos="r" depth="2" NCoef="0" IVar="-1" Cut="0.0000000000000000e+00" cType="1" res="2.9400197789072990e-02" rms="7.8289709985256195e-02" purity="9.9385243654251099e-01" nType="-99"/>
        </Node>
      </Node>
    </BinaryTree>
    <BinaryTree type="DecisionTree" boostWeight="1.0000000000000000e+00" itree="40">
      <Node pos="s" depth="0" NCoef="0" IVar="18" Cut="1.3414080142974854e+00" cType="1" res="4.2206215858459473e-01" rms="2.7847370505332947e-01" purity="7.6894640922546387e-02" nType="0">
        <Node pos="l" depth="1" NCoef="0" IVar="10" Cut="3.1327140331268311e+00" cType="1" res="2.9232329130172729e-01" rms="4.2217314243316650e-01" purity="2.1202185750007629e-01" nType="0">
          <Node pos="l" depth="2" NCoef="0" IVar="-1" Cut="0.0000000000000000e+00" cType="1" res="1.9123990787193179e-03" rms="4.6568542718887329e-01" purity="3.1078225374221802e-01" nType="-99"/>
          <Node pos="r" depth="2" NCoef="0" IVar="-1" Cut="0.0000000000000000e+00" cType="1" res="-1.2727657333016396e-02" rms="3.4934097528457642e-01" purity="1.0633484274148941e-01" nType="-99"/>
        </Node>
        <Node pos="r" depth="1" NCoef="0" IVar="14" Cut="2.4681899547576904e+00" cType="1" res="4.4847172498703003e-01" rms="2.3006281256675720e-01" purity="4.9388207495212555e-02" nType="0">
          <Node pos="l" depth="2" NCoef="0" IVar="-1" Cut="0.0000000000000000e+00" cType="1" res="-1.4977516606450081e-02" rms="2.7325287461280823e-01" purity="7.3666095733642578e-02" nType="-99"/>
          <Node pos="r" depth="2" NCoef="0" IVar="-1" Cut="0.0000000000000000e+00" cType="1" res="-1.9643224775791168e-02" rms="1.0845500230789185e-01" purity="5.0314464606344700e-03" nType="-99"/>
        </Node>
      </Node>
    </BinaryTree>
    <BinaryTree type="DecisionTree" boostWeight="1.0000000000000000e+00" itree="41">
      <Node pos="s" depth="0" NCoef="0" IVar="14" Cut="1.9782186746597290e+00" cType="1" res="4.2422828078269958e-01" rms="2.7543994784355164e-01" purity="1.1833207681775093e-02" nType="0">
        <Node pos="l" depth="1" NCoef="0" IVar="8" Cut="5.4238047450780869e-02" cType="1" res="3.7740528583526611e-01" rms="3.5232266783714294e-01" purity="1.6433566808700562e-02" nType="0">
          <Node pos="l" depth="2" NCoef="0" IVar="-1" Cut="0.0000000000000000e+00" cType="1" res="-1.8513238057494164e-02" rms="4.0290763974189758e-01" purity="2.0766772329807281e-02" nType="-99"/>
          <Node pos="r" depth="2" NCoef="0" IVar="-1" Cut="0.0000000000000000e+00" cType="1" res="-1.9104599952697754e-02" rms="2.9909917712211609e-01" purity="1.3059701770544052e-02" nType="-99"/>
        </Node>
        <Node pos="r" depth="1" NCoef="0" IVar="11" Cut="1.9515664875507355e-01" cType="1" res="4.7857639193534851e-01" rms="1.1978270113468170e-01" purity="6.4935064874589443e-03" nType="0">
          <Node pos="l" depth="2" NCoef="0" IVar="-1" Cut="0.0000000000000000e+00" cType="1" res="-1.8701395019888878e-02" rms="1.8706390261650085e-01" purity="1.7350157722830772e-02" nType="-99"/>
          <Node pos="r" depth="2" NCoef="0" IVar="-1" Cut="0.0000000000000000e+00" cType="1" res="-1.9823120906949043e-02" rms="8.3913147449493408e-02" purity="2.7322403620928526e-03" nType="-99"/>
        </Node>
      </Node>
    </BinaryTree>
    <BinaryTree type="DecisionTree" boostWeight="1.0000000000000000e+00" itree="42">
      <Node pos="s" depth="0" NCoef="0" IVar="14" Cut="1.5604275465011597e+00" cType="1" res="4.1456770896911621e-01" rms="2.7306038141250610e-01" purity="9.1458332538604736e-01" nType="0">
        <Node pos="l" depth="1" NCoef="0" IVar="11" Cut="2.2121162712574005e-01" cType="1" res="3.3808448910713196e-01" rms="3.8339832425117493e-01" purity="8.1711232662200928e-01" nType="0">
          <Node pos="l" depth="2" NCoef="0" IVar="-1" Cut="0.0000000000000000e+00" cType="1" res="2.3223275318741798e-02" rms="3.3929544687271118e-01" purity="8.6572992801666260e-01" nType="-99"/>
          <Node pos="r" depth="2" NCoef="0" IVar="-1" Cut="0.0000000000000000e+00" cType="1" res="1.4577011577785015e-02" rms="4.4972151517868042e-01" purity="7.1137523651123047e-01" nType="-99"/>
        </Node>
        <Node pos="r" depth="1" NCoef="0" IVar="9" Cut="5.3017463684082031e+00" cType="1" res="4.5651012659072876e-01" rms="1.7284092307090759e-01" purity="9.6803516149520874e-01" nType="0">
          <Node pos="l" depth="2" NCoef="0" IVar="-1" Cut="0.0000000000000000e+00" cType="1" res="2.7851214632391930e-02" rms="1.6524571180343628e-01" purity="9.7070705890655518e-01" nType="-99"/>
          <Node pos="r" depth="2" NCoef="0" IVar="-1" Cut="0.0000000000000000e+00" cType="1" res="2.6390042155981064e-02" rms="2.1609380841255188e-01" purity="9.4999998807907104e-01" nType="-99"/>
        </Node>
      </Node>
    </BinaryTree>
    <BinaryTree type="DecisionTree" boostWeight="1.0000000000000000e+00" itree="43">
      <Node pos="s" depth="0" NCoef="0" IVar="18" Cut="1.2188924551010132e+00" cType="1" res="4.1091081500053406e-01" rms="2.7948048710823059e-01" purity="7.8214354813098907e-02" nType="0">
        <Node pos="l" depth="1" NCoef="0" IVar="10" Cut="2.8544526100158691e+00" cType="1" res="2.8553080558776855e-01" rms="4.2213547229766846e-01" purity="2.1720117330551147e-01" nType="0">
          <Node pos="l" depth="2" NCoef="0" IVar="-1" Cut="0.0000000000000000e+00" cType="1" res="5.4284259676933289e-03" rms="4.7688430547714233e-01" purity="3.5889571905136108e-01" nType="-99"/>
          <Node pos="r" depth="2" NCoef="0" IVar="-1" Cut="0.0000000000000000e+00" cType="1" res="-1.3965680263936520e-02" rms="3.3292686939239502e-01" purity="8.8888891041278839e-02" nType="-99"/>
        </Node>
        <Node pos="r" depth="1" NCoef="0" IVar="14" Cut="2.3531403541564941e+00" cType="1" res="4.2907568812370300e-01" rms="2.4698403477668762e-01" purity="5.8078140020370483e-02" nType="0">
          <Node pos="l" depth="2" NCoef="0" IVar="-1" Cut="0.0000000000000000e+00" cType="1" res="-1.3706761412322521e-02" rms="2.9655838012695312e-01" purity="8.8519133627414703e-02" nType="-99"/>
          <Node pos="r" depth="2" NCoef="0" IVar="-1" Cut="0.0000000000000000e+00" cType="1" res="-1.9470522180199623e-02" rms="1.0918107628822327e-01" purity="5.2023120224475861e-03" nType="-99"/>
        </Node>
      </Node>
    </BinaryTree>
    <BinaryTree type="DecisionTree" boostWeight="1.0000000000000000e+00" itree="44">
      <Node pos="s" depth="0" NCoef="0" IVar="14" Cut="1.8784842491149902e+00" cType="1" res="4.0643829107284546e-01" rms="2.8550991415977478e-01" purity="1.5828151255846024e-02" nType="0">
        <Node pos="l" depth="1" NCoef="0" IVar="11" Cut="2.2050979733467102e-01" cType="1" res="3.4709718823432922e-01" rms="3.7374487519264221e-01" purity="2.2497188299894333e-02" nType="0">
          <Node pos="l" depth="2" NCoef="0" IVar="-1" Cut="0.0000000000000000e+00" cType="1" res="-1.7395343631505966e-02" rms="3.3031398057937622e-01" purity="3.2333921641111374e-02" nType="-99"/>
          <Node pos="r" depth="2" NCoef="0" IVar="-1" Cut="0.0000000000000000e+00" cType="1" res="-1.9596541300415993e-02" rms="4.3047136068344116e-01" purity="5.1759835332632065e-03" nType="-99"/>
        </Node>
        <Node pos="r" depth="1" NCoef="0" IVar="11" Cut="1.7719523608684540e-01" cType="1" res="4.6638625860214233e-01" rms="1.2490219622850418e-01" purity="9.0909088030457497e-03" nType="0">
          <Node pos="l" depth="2" NCoef="0" IVar="-1" Cut="0.0000000000000000e+00" cType="1" res="-1.6998443752527237e-02" rms="2.1666514873504639e-01" purity="3.6053132265806198e-02" nType="-99"/>
          <Node pos="r" depth="2" NCoef="0" IVar="-1" Cut="0.0000000000000000e+00" cType="1" res="-1.9693609327077866e-02" rms="8.6764760315418243e-02" purity="2.3663039319217205e-03" nType="-99"/>
        </Node>
      </Node>
    </BinaryTree>
    <BinaryTree type="DecisionTree" boostWeight="1.0000000000000000e+00" itree="45">
      <Node pos="s" depth="0" NCoef="0" IVar="14" Cut="1.2819408178329468e+00" cType="1" res="4.0115290880203247e-01" rms="2.7773198485374451e-01" purity="9.1114348173141479e-01" nType="0">
        <Node pos="l" depth="1" NCoef="0" IVar="18" Cut="1.2834136486053467e+00" cType="1" res="3.1707701086997986e-01" rms="3.9422601461410522e-01" purity="8.0326533317565918e-01" nType="0">
          <Node pos="l" depth="2" NCoef="0" IVar="-1" Cut="0.0000000000000000e+00" cType="1" res="1.4572378247976303e-02" rms="4.4646984338760376e-01" purity="7.1899223327636719e-01" nType="-99"/>
          <Node pos="r" depth="2" NCoef="0" IVar="-1" Cut="0.0000000000000000e+00" cType="1" res="2.2585695609450340e-02" rms="3.4063088893890381e-01" purity="8.6459803581237793e-01" nType="-99"/>
        </Node>
        <Node pos="r" depth="1" NCoef="0" IVar="14" Cut="2.2370131015777588e+00" cType="1" res="4.2529001832008362e-01" rms="2.2814510762691498e-01" purity="9.4211387634277344e-01" nType="0">
          <Node pos="l" depth="2" NCoef="0" IVar="-1" Cut="0.0000000000000000e+00" cType="1" res="2.4221109226346016e-02" rms="2.9201173782348633e-01" purity="9.0236151218414307e-01" nType="-99"/>
          <Node pos="r" depth="2" NCoef="0" IVar="-1" Cut="0.0000000000000000e+00" cType="1" res="2.7494711801409721e-02" rms="1.2326652556657791e-01" purity="9.8450362682342529e-01" nType="-99"/>
        </Node>
      </Node>
    </BinaryTree>
    <BinaryTree type="DecisionTree" boostWeight="1.0000000000000000e+00" itree="46">
      <Node pos="s" depth="0" NCoef="0" IVar="18" Cut="2.0990729331970215e+00" cType="1" res="4.0395990014076233e-01" rms="2.7359437942504883e-01" purity="7.0855863392353058e-02" nType="0">
        <Node pos="l" depth="1" NCoef="0" IVar="18" Cut="1.3536150455474854e+00" cType="1" res="3.6810541152954102e-01" rms="3.3315530419349670e-01" purity="1.1391437053680420e-01" nType="0">
          <Node pos="l" depth="2" NCoef="0" IVar="-1" Cut="0.0000000000000000e+00" cType="1" res="-6.7661385983228683e-03" rms="4.0681982040405273e-01" purity="1.8438178300857544e-01" nType="-99"/>
          <Node pos="r" depth="2" NCoef="0" IVar="-1" Cut="0.0000000000000000e+00" cType="1" res="-1.4370957389473915e-02" rms="2.7785307168960571e-01" purity="7.5560800731182098e-02" nType="-99"/>
        </Node>
        <Node pos="r" depth="1" NCoef="0" IVar="17" Cut="6.3629083335399628e-02" cType="1" res="4.3810456991195679e-01" rms="1.9506049156188965e-01" purity="2.9850745573639870e-02" nType="0">
          <Node pos="l" depth="2" NCoef="0" IVar="-1" Cut="0.0000000000000000e+00" cType="1" res="-1.7958583310246468e-02" rms="1.8269127607345581e-01" purity="2.5165015831589699e-02" nType="-99"/>
          <Node pos="r" depth="2" NCoef="0" IVar="-1" Cut="0.0000000000000000e+00" cType="1" res="-1.4912337064743042e-02" rms="2.6788330078125000e-01" purity="6.5015479922294617e-02" nType="-99"/>
        </Node>
      </Node>
    </BinaryTree>
    <BinaryTree type="DecisionTree" boostWeight="1.0000000000000000e+00" itree="47">
      <Node pos="s" depth="0" NCoef="0" IVar="14" Cut="1.3153843879699707e+00" cType="1" res="3.9743289351463318e-01" rms="2.8211244940757751e-01" purity="1.5103487297892570e-02" nType="0">
        <Node pos="l" depth="1" NCoef="0" IVar="8" Cut="3.8735724985599518e-02" cType="1" res="3.0059307813644409e-01" rms="4.0585952997207642e-01" purity="2.7250206097960472e-02" nType="0">
          <Node pos="l" depth="2" NCoef="0" IVar="-1" Cut="0.0000000000000000e+00" cType="1" res="-1.6616370528936386e-02" rms="4.6930891275405884e-01" purity="4.0100250393152237e-02" nType="-99"/>
          <Node pos="r" depth="2" NCoef="0" IVar="-1" Cut="0.0000000000000000e+00" cType="1" res="-1.8166005611419678e-02" rms="3.5506591200828552e-01" purity="2.0935960114002228e-02" nType="-99"/>
        </Node>
        <Node pos="r" depth="1" NCoef="0" IVar="14" Cut="2.2394642829895020e+00" cType="1" res="4.2567783594131470e-01" rms="2.2632610797882080e-01" purity="1.1560693383216858e-02" nType="0">
          <Node pos="l" depth="2" NCoef="0" IVar="-1" Cut="0.0000000000000000e+00" cType="1" res="-1.8486389890313148e-02" rms="2.9307812452316284e-01" purity="1.6362786293029785e-02" nType="-99"/>
          <Node pos="r" depth="2" NCoef="0" IVar="-1" Cut="0.0000000000000000e+00" cType="1" res="-1.9193973392248154e-02" rms="1.1266342550516129e-01" purity="6.4580226317048073e-03" nType="-99"/>
        </Node>
      </Node>
    </BinaryTree>
    <BinaryTree type="DecisionTree" boostWeight="1.0000000000000000e+00" itree="48">
      <Node pos="s" depth="0" NCoef="0" IVar="18" Cut="1.7138628959655762e+00" cType="1" res="3.9352041482925415e-01" rms="2.7360802888870239e-01" purity="9.1364586353302002e-01" nType="0">
        <Node pos="l" depth="1" NCoef="0" IVar="11" Cut="2.3962917923927307e-01" cType="1" res="3.3363017439842224e-01" rms="3.6549463868141174e-01" purity="8.3525139093399048e-01" nType="0">
          <Node pos="l" depth="2" NCoef="0" IVar="-1" Cut="0.0000000000000000e+00" cType="1" res="2.2017830982804298e-02" rms="3.3761391043663025e-01" purity="8.6601305007934570e-01" nType="-99"/>
          <Node pos="r" depth="2" NCoef="0" IVar="-1" Cut="0.0000000000000000e+00" cType="1" res="1.5045352280139923e-02" rms="4.2409712076187134e-01" purity="7.4707257747650146e-01" nType="-99"/>
        </Node>
        <Node pos="r" depth="1" NCoef="0" IVar="14" Cut="2.7410328388214111e+00" cType="1" res="4.2085006833076477e-01" rms="2.1372815966606140e-01" purity="9.4941955804824829e-01" nType="0">
          <Node pos="l" depth="2" NCoef="0" IVar="-1" Cut="0.0000000000000000e+00" cType="1" res="2.4809731170535088e-02" rms="2.4976947903633118e-01" purity="9.3008387088775635e-01" nType="-99"/>
          <Node pos="r" depth="2" NCoef="0" IVar="-1" Cut="0.0000000000000000e+00" cType="1" res="2.7343954890966415e-02" rms="8.4222696721553802e-02" purity="9.9282509088516235e-01" nType="-99"/>
        </Node>
      </Node>
    </BinaryTree>
    <BinaryTree type="DecisionTree" boostWeight="1.0000000000000000e+00" itree="49">
      <Node pos="s" depth="0" NCoef="0" IVar="13" Cut="2.9090909957885742e+00" cType="1" res="3.8380232453346252e-01" rms="2.8710252046585083e-01" purity="8.2563616335391998e-02" nType="0">
        <Node pos="l" depth="1" NCoef="0" IVar="8" Cut="4.8160988837480545e-02" cType="1" res="3.3911111950874329e-01" rms="3.5120368003845215e-01" purity="1.3203883171081543e-01" nType="0">
          <Node pos="l" depth="2" NCoef="0" IVar="-1" Cut="0.0000000000000000e+00" cType="1" res="-4.3049436062574387e-03" rms="4.1770213842391968e-01" purity="2.0457604527473450e-01" nType="-99"/>
          <Node pos="r" depth="2" NCoef="0" IVar="-1" Cut="0.0000000000000000e+00" cType="1" res="-1.3120266608893871e-02" rms="2.9756832122802734e-01" purity="9.1116175055503845e-02" nType="-99"/>
        </Node>
        <Node pos="r" depth="1" NCoef="0" IVar="17" Cut="5.4485794156789780e-02" cType="1" res="4.1217333078384399e-01" rms="2.3319624364376068e-01" purity="5.1155623048543930e-02" nType="0">
          <Node pos="l" depth="2" NCoef="0" IVar="-1" Cut="0.0000000000000000e+00" cType="1" res="-1.6668712720274925e-02" rms="2.1226018667221069e-01" purity="4.0307804942131042e-02" nType="-99"/>
          <Node pos="r" depth="2" NCoef="0" IVar="-1" Cut="0.0000000000000000e+00" cType="1" res="-1.1315438896417618e-02" rms="3.1652933359146118e-01" purity="1.0852713137865067e-01" nType="-99"/>
        </Node>
      </Node>
    </BinaryTree>
    <BinaryTree type="DecisionTree" boostWeight="1.0000000000000000e+00" itree="50">
      <Node pos="s" depth="0" NCoef="0" IVar="14" Cut="1.8938559293746948e+00" cType="1" res="3.9351814985275269e-01" rms="2.7308246493339539e-01" purity="1.1189854703843594e-02" nType="0">
        <Node pos="l" depth="1" NCoef="0" IVar="8" Cut="4.7720860689878464e-02" cType="1" res="3.4094908833503723e-01" rms="3.6079651117324829e-01" purity="1.5258653089404106e-02" nType="0">
          <Node pos="l" depth="2" NCoef="0" IVar="-1" Cut="0.0000000000000000e+00" cType="1" res="-1.7909884452819824e-02" rms="4.2381373047828674e-01" purity="2.2304832935333252e-02" nType="-99"/>
          <Node pos="r" depth="2" NCoef="0" IVar="-1" Cut="0.0000000000000000e+00" cType="1" res="-1.8854061141610146e-02" rms="2.9935890436172485e-01" purity="1.0552451945841312e-02" nType="-99"/>
        </Node>
        <Node pos="r" depth="1" NCoef="0" IVar="10" Cut="7.0109262466430664e+00" cType="1" res="4.4632300734519958e-01" rms="1.1471822112798691e-01" purity="7.1028037928044796e-03" nType="0">
          <Node pos="l" depth="2" NCoef="0" IVar="-1" Cut="0.0000000000000000e+00" cType="1" res="-1.9337546080350876e-02" rms="8.9813165366649628e-02" purity="3.0316154006868601e-03" nType="-99"/>
          <Node pos="r" depth="2" NCoef="0" IVar="-1" Cut="0.0000000000000000e+00" cType="1" res="-1.6860570758581161e-02" rms="2.1038219332695007e-01" purity="3.2786883413791656e-02" nType="-99"/>
        </Node>
      </Node>
    </BinaryTree>
    <BinaryTree type="DecisionTree" boostWeight="1.0000000000000000e+00" itree="51">
      <Node pos="s" depth="0" NCoef="0" IVar="14" Cut="2.3623316287994385e+00" cType="1" res="3.7478736042976379e-01" rms="2.8614810109138489e-01" purity="9.0447425842285156e-01" nType="0">
        <Node pos="l" depth="1" NCoef="0" IVar="14" Cut="1.7881304025650024e+00" cType="1" res="3.4812220931053162e-01" rms="3.3430039882659912e-01" purity="8.6603403091430664e-01" nType="0">
          <Node pos="l" depth="2" NCoef="0" IVar="-1" Cut="0.0000000000000000e+00" cType="1" res="1.8736658617854118e-02" rms="3.8208016753196716e-01" purity="8.1737375259399414e-01" nType="-99"/>
          <Node pos="r" depth="2" NCoef="0" IVar="-1" Cut="0.0000000000000000e+00" cType="1" res="2.6493433862924576e-02" rms="1.5624350309371948e-01" purity="9.7472923994064331e-01" nType="-99"/>
        </Node>
        <Node pos="r" depth="1" NCoef="0" IVar="11" Cut="1.7901200056076050e-01" cType="1" res="4.3052908778190613e-01" rms="1.2179259210824966e-01" purity="9.8483079671859741e-01" nType="0">
          <Node pos="l" depth="2" NCoef="0" IVar="-1" Cut="0.0000000000000000e+00" cType="1" res="2.4187870323657990e-02" rms="2.2883720695972443e-01" purity="9.4444441795349121e-01" nType="-99"/>
          <Node pos="r" depth="2" NCoef="0" IVar="-1" Cut="0.0000000000000000e+00" cType="1" res="2.6806753128767014e-02" rms="8.3441056311130524e-02" purity="9.9298739433288574e-01" nType="-99"/>
        </Node>
      </Node>
    </BinaryTree>
    <BinaryTree type="DecisionTree" boostWeight="1.0000000000000000e+00" itree="52">
      <Node pos="s" depth="0" NCoef="0" IVar="18" Cut="2.3807089328765869e+00" cType="1" res="3.8776770234107971e-01" rms="2.6747134327888489e-01" purity="7.0581696927547455e-02" nType="0">
        <Node pos="l" depth="1" NCoef="0" IVar="18" Cut="1.4316524267196655e+00" cType="1" res="3.6295488476753235e-01" rms="3.1417161226272583e-01" purity="1.0192666202783585e-01" nType="0">
          <Node pos="l" depth="2" NCoef="0" IVar="-1" Cut="0.0000000000000000e+00" cType="1" res="-6.5588452853262424e-03" rms="4.0096551179885864e-01" purity="1.8199418485164642e-01" nType="-99"/>
          <Node pos="r" depth="2" NCoef="0" IVar="-1" Cut="0.0000000000000000e+00" cType="1" res="-1.4825852587819099e-02" rms="2.5609165430068970e-01" purity="6.4073227345943451e-02" nType="-99"/>
        </Node>
        <Node pos="r" depth="1" NCoef="0" IVar="8" Cut="4.8434060066938400e-02" cType="1" res="4.2439511418342590e-01" rms="1.7086283862590790e-01" purity="2.4311926215887070e-02" nType="0">
          <Node pos="l" depth="2" NCoef="0" IVar="-1" Cut="0.0000000000000000e+00" cType="1" res="-1.6243174672126770e-02" rms="2.2160536050796509e-01" purity="4.0887851268053055e-02" nType="-99"/>
          <Node pos="r" depth="2" NCoef="0" IVar="-1" Cut="0.0000000000000000e+00" cType="1" res="-1.8600350245833397e-02" rms="1.2552067637443542e-01" purity="1.3595166616141796e-02" nType="-99"/>
        </Node>
      </Node>
    </BinaryTree>
    <BinaryTree type="DecisionTree" boostWeight="1.0000000000000000e+00" itree="53">
      <Node pos="s" depth="0" NCoef="0" IVar="14" Cut="1.9106870889663696e+00" cType="1" res="3.8017874956130981e-01" rms="2.7865350246429443e-01" purity="1.3232514262199402e-02" nType="0">
        <Node pos="l" depth="1" NCoef="0" IVar="8" Cut="5.6146442890167236e-02" cType="1" res="3.3170953392982483e-01" rms="3.5974764823913574e-01" purity="1.8214935436844826e-02" nType="0">
          <Node pos="l" depth="2" NCoef="0" IVar="-1" Cut="0.0000000000000000e+00" cType="1" res="-1.7338564619421959e-02" rms="4.1357100009918213e-01" purity="2.6920031756162643e-02" nType="-99"/>
          <Node pos="r" depth="2" NCoef="0" IVar="-1" Cut="0.0000000000000000e+00" cType="1" res="-1.8686715513467789e-02" rms="2.9441204667091370e-01" purity="1.0796220973134041e-02" nType="-99"/>
        </Node>
        <Node pos="r" depth="1" NCoef="0" IVar="11" Cut="1.8098716437816620e-01" cType="1" res="4.3245694041252136e-01" rms="1.2861520051956177e-01" purity="7.8585464507341385e-03" nType="0">
          <Node pos="l" depth="2" NCoef="0" IVar="-1" Cut="0.0000000000000000e+00" cType="1" res="-1.7263876274228096e-02" rms="2.1266078948974609e-01" purity="2.6223776862025261e-02" nType="-99"/>
          <Node pos="r" depth="2" NCoef="0" IVar="-1" Cut="0.0000000000000000e+00" cType="1" res="-1.9221214577555656e-02" rms="8.9407347142696381e-02" purity="2.5342118460685015e-03" nType="-99"/>
        </Node>
      </Node>
    </BinaryTree>
    <BinaryTree type="DecisionTree" boostWeight="1.0000000000000000e+00" itree="54">
      <Node pos="s" depth="0" NCoef="0" IVar="14" Cut="1.9783086776733398e+00" cType="1" res="3.7332591414451599e-01" rms="2.7345892786979675e-01" purity="9.1320544481277466e-01" nType="0">
        <Node pos="l" depth="1" NCoef="0" IVar="18" Cut="1.1099536418914795e+00" cType="1" res="3.2817548513412476e-01" rms="3.5374256968498230e-01" purity="8.4816753864288330e-01" nType="0">
          <Node pos="l" depth="2" NCoef="0" IVar="-1" Cut="0.0000000000000000e+00" cType="1" res="1.3314962387084961e-02" rms="4.4425857067108154e-01" purity="7.2270745038986206e-01" nType="-99"/>
          <Node pos="r" depth="2" NCoef="0" IVar="-1" Cut="0.0000000000000000e+00" cType="1" res="2.1169099956750870e-02" rms="3.2974913716316223e-01" purity="8.7203985452651978e-01" nType="-99"/>
        </Node>
        <Node pos="r" depth="1" NCoef="0" IVar="11" Cut="1.8952281773090363e-01" cType="1" res="4.2498564720153809e-01" rms="1.1029540747404099e-01" purity="9.8761981725692749e-01" nType="0">
          <Node pos="l" depth="2" NCoef="0" IVar="-1" Cut="0.0000000000000000e+00" cType="1" res="2.5222716853022575e-02" rms="1.7501594126224518e-01" purity="9.6847635507583618e-01" nType="-99"/>
          <Node pos="r" depth="2" NCoef="0" IVar="-1" Cut="0.0000000000000000e+00" cType="1" res="2.6401000097393990e-02" rms="8.1480145454406738e-02" purity="9.9327468872070312e-01" nType="-99"/>
        </Node>
      </Node>
    </BinaryTree>
    <BinaryTree type="DecisionTree" boostWeight="1.0000000000000000e+00" itree="55">
      <Node pos="s" depth="0" NCoef="0" IVar="18" Cut="1.1783597469329834e+00" cType="1" res="3.7171059846878052e-01" rms="2.7598711848258972e-01" purity="7.4305161833763123e-02" nType="0">
        <Node pos="l" depth="1" NCoef="0" IVar="11" Cut="1.2741671502590179e-01" cType="1" res="2.2893290221691132e-01" rms="4.3681684136390686e-01" purity="2.3601397871971130e-01" nType="0">
          <Node pos="l" depth="2" NCoef="0" IVar="-1" Cut="0.0000000000000000e+00" cType="1" res="-9.3311704695224762e-03" rms="4.0405637025833130e-01" purity="1.4391143620014191e-01" nType="-99"/>
          <Node pos="r" depth="2" NCoef="0" IVar="-1" Cut="0.0000000000000000e+00" cType="1" res="3.5302070900797844e-03" rms="4.5881357789039612e-01" purity="3.1893688440322876e-01" nType="-99"/>
        </Node>
        <Node pos="r" depth="1" NCoef="0" IVar="18" Cut="1.8985267877578735e+00" cType="1" res="3.8902431726455688e-01" rms="2.4391688406467438e-01" purity="5.4695781320333481e-02" nType="0">
          <Node pos="l" depth="2" NCoef="0" IVar="-1" Cut="0.0000000000000000e+00" cType="1" res="-1.1570926755666733e-02" rms="3.2563239336013794e-01" purity="1.0578186810016632e-01" nType="-99"/>
          <Node pos="r" depth="2" NCoef="0" IVar="-1" Cut="0.0000000000000000e+00" cType="1" res="-1.7076281830668449e-02" rms="1.8980756402015686e-01" purity="3.0359936878085136e-02" nType="-99"/>
        </Node>
      </Node>
    </BinaryTree>
    <BinaryTree type="DecisionTree" boostWeight="1.0000000000000000e+00" itree="56">
      <Node pos="s" depth="0" NCoef="0" IVar="14" Cut="1.7695293426513672e+00" cType="1" res="3.6836084723472595e-01" rms="2.8105422854423523e-01" purity="1.3397841714322567e-02" nType="0">
        <Node pos="l" depth="1" NCoef="0" IVar="11" Cut="3.2066494226455688e-01" cType="1" res="3.0467459559440613e-01" rms="3.7862402200698853e-01" purity="2.0917136222124100e-02" nType="0">
          <Node pos="l" depth="2" NCoef="0" IVar="-1" Cut="0.0000000000000000e+00" cType="1" res="-1.7370980232954025e-02" rms="3.5019570589065552e-01" purity="2.4709302932024002e-02" nType="-99"/>
          <Node pos="r" depth="2" NCoef="0" IVar="-1" Cut="0.0000000000000000e+00" cType="1" res="-1.9318135455250740e-02" rms="4.6892559528350830e-01" purity="2.3696683347225189e-03" nType="-99"/>
        </Node>
        <Node pos="r" depth="1" NCoef="0" IVar="9" Cut="5.3518552780151367e+00" cType="1" res="4.2318221926689148e-01" rms="1.3072647154331207e-01" purity="6.9252075627446175e-03" nType="0">
          <Node pos="l" depth="2" NCoef="0" IVar="-1" Cut="0.0000000000000000e+00" cType="1" res="-1.9053265452384949e-02" rms="1.1843498796224594e-01" purity="3.2193157821893692e-03" nType="-99"/>
          <Node pos="r" depth="2" NCoef="0" IVar="-1" Cut="0.0000000000000000e+00" cType="1" res="-1.6661219298839569e-02" rms="1.8819287419319153e-01" purity="2.9776675626635551e-02" nType="-99"/>
        </Node>
      </Node>
    </BinaryTree>
    <BinaryTree type="DecisionTree" boostWeight="1.0000000000000000e+00" itree="57">
      <Node pos="s" depth="0" NCoef="0" IVar="18" Cut="1.6278531551361084e+00" cType="1" res="3.6363458633422852e-01" rms="2.7433744072914124e-01" purity="9.1253972053527832e-01" nType="0">
        <Node pos="l" depth="1" NCoef="0" IVar="11" Cut="2.0036949217319489e-01" cType="1" res="3.0040624737739563e-01" rms="3.7269651889801025e-01" purity="8.2513296604156494e-01" nType="0">
          <Node pos="l" depth="2" NCoef="0" IVar="-1" Cut="0.0000000000000000e+00" cType="1" res="2.0908150821924210e-02" rms="3.3215591311454773e-01" purity="8.7076920270919800e-01" nType="-99"/>
          <Node pos="r" depth="2" NCoef="0" IVar="-1" Cut="0.0000000000000000e+00" cType="1" res="1.3359110802412033e-02" rms="4.2604973912239075e-01" purity="7.4102079868316650e-01" nType="-99"/>
        </Node>
        <Node pos="r" depth="1" NCoef="0" IVar="4" Cut="4.9705035984516144e-02" cType="1" res="3.8835394382476807e-01" rms="2.1955879032611847e-01" purity="9.4671171903610229e-01" nType="0">
          <Node pos="l" depth="2" NCoef="0" IVar="-1" Cut="0.0000000000000000e+00" cType="1" res="2.2928174585103989e-02" rms="2.4767453968524933e-01" purity="9.3121236562728882e-01" nType="-99"/>
          <Node pos="r" depth="2" NCoef="0" IVar="-1" Cut="0.0000000000000000e+00" cType="1" res="2.5310492143034935e-02" rms="1.6498783230781555e-01" purity="9.7041422128677368e-01" nType="-99"/>
        </Node>
      </Node>
    </BinaryTree>
    <BinaryTree type="DecisionTree" boostWeight="1.0000000000000000e+00" itree="58">
      <Node pos="s" depth="0" NCoef="0" IVar="14" Cut="1.7697033882141113e+00" cType="1" res="3.6498421430587769e-01" rms="2.7099692821502686e-01" purity="7.1865446865558624e-02" nType="0">
        <Node pos="l" depth="1" NCoef="0" IVar="11" Cut="2.3437070846557617e-01" cType="1" res="3.0434897541999817e-01" rms="3.7143167853355408e-01" purity="1.5040476620197296e-01" nType="0">
          <Node pos="l" depth="2" NCoef="0" IVar="-1" Cut="0.0000000000000000e+00" cType="1" res="-1.2366939336061478e-02" rms="3.2476210594177246e-01" purity="9.7135737538337708e-02" nType="-99"/>
          <Node pos="r" depth="2" NCoef="0" IVar="-1" Cut="0.0000000000000000e+00" cType="1" res="7.5281459430698305e-05" rms="4.4145837426185608e-01" purity="2.6585695147514343e-01" nType="-99"/>
        </Node>
        <Node pos="r" depth="1" NCoef="0" IVar="11" Cut="1.7143650352954865e-01" cType="1" res="4.1431212425231934e-01" rms="1.2459990382194519e-01" purity="7.9722702503204346e-03" nType="0">
          <Node pos="l" depth="2" NCoef="0" IVar="-1" Cut="0.0000000000000000e+00" cType="1" res="-1.7814293503761292e-02" rms="2.1196006238460541e-01" purity="1.8549747765064240e-02" nType="-99"/>
          <Node pos="r" depth="2" NCoef="0" IVar="-1" Cut="0.0000000000000000e+00" cType="1" res="-1.8873255699872971e-02" rms="8.7850190699100494e-02" purity="5.2356021478772163e-03" nType="-99"/>
        </Node>
      </Node>
    </BinaryTree>
    <BinaryTree type="DecisionTree" boostWeight="1.0000000000000000e+00" itree="59">
      <Node pos="s" depth="0" NCoef="0" IVar="8" Cut="5.3019948303699493e-02" cType="1" res="3.6583906412124634e-01" rms="2.7092140913009644e-01" purity="1.4914514496922493e-02" nType="0">
        <Node pos="l" depth="1" NCoef="0" IVar="9" Cut="4.7282949090003967e-01" cType="1" res="3.3852192759513855e-01" rms="3.0756005644798279e-01" purity="1.5625000000000000e-02" nType="0">
          <Node pos="l" depth="2" NCoef="0" IVar="-1" Cut="0.0000000000000000e+00" cType="1" res="-1.7612947151064873e-02" rms="3.7379303574562073e-01" purity="1.9567456096410751e-02" nType="-99"/>
          <Node pos="r" depth="2" NCoef="0" IVar="-1" Cut="0.0000000000000000e+00" cType="1" res="-1.8124690279364586e-02" rms="2.4373528361320496e-01" purity="1.2884752824902534e-02" nType="-99"/>
        </Node>
        <Node pos="r" depth="1" NCoef="0" IVar="18" Cut="1.5958749055862427e+00" cType="1" res="3.8650584220886230e-01" rms="2.3742756247520447e-01" purity="1.4376997016370296e-02" nType="0">
          <Node pos="l" depth="2" NCoef="0" IVar="-1" Cut="0.0000000000000000e+00" cType="1" res="-1.6999401152133942e-02" rms="3.5091111063957214e-01" purity="2.7122640982270241e-02" nType="-99"/>
          <Node pos="r" depth="2" NCoef="0" IVar="-1" Cut="0.0000000000000000e+00" cType="1" res="-1.8366144970059395e-02" rms="1.7223645746707916e-01" purity="9.6406657248735428e-03" nType="-99"/>
        </Node>
      </Node>
    </BinaryTree>
    <BinaryTree type="DecisionTree" boostWeight="1.0000000000000000e+00" itree="60">
      <Node pos="s" depth="0" NCoef="0" IVar="14" Cut="1.9454559087753296e+00" cType="1" res="3.4921056032180786e-01" rms="2.7987298369407654e-01" purity="9.0814232826232910e-01" nType="0">
        <Node pos="l" depth="1" NCoef="0" IVar="11" Cut="3.0685466527938843e-01" cType="1" res="3.0042895674705505e-01" rms="3.6378356814384460e-01" purity="8.3697599172592163e-01" nType="0">
          <Node pos="l" depth="2" NCoef="0" IVar="-1" Cut="0.0000000000000000e+00" cType="1" res="2.0116675645112991e-02" rms="3.3234587311744690e-01" purity="8.7017071247100830e-01" nType="-99"/>
          <Node pos="r" depth="2" NCoef="0" IVar="-1" Cut="0.0000000000000000e+00" cType="1" res="1.1168155819177628e-02" rms="4.4894677400588989e-01" purity="7.0619469881057739e-01" nType="-99"/>
        </Node>
        <Node pos="r" depth="1" NCoef="0" IVar="11" Cut="1.6644510626792908e-01" cType="1" res="4.0206357836723328e-01" rms="1.2016568332910538e-01" purity="9.8524844646453857e-01" nType="0">
          <Node pos="l" depth="2" NCoef="0" IVar="-1" Cut="0.0000000000000000e+00" cType="1" res="2.2982537746429443e-02" rms="2.2417762875556946e-01" purity="9.4714587926864624e-01" nType="-99"/>
          <Node pos="r" depth="2" NCoef="0" IVar="-1" Cut="0.0000000000000000e+00" cType="1" res="2.5490824133157730e-02" rms="7.8211128711700439e-02" purity="9.9381834268569946e-01" nType="-99"/>
        </Node>
      </Node>
    </BinaryTree>
    <BinaryTree type="DecisionTree" boostWeight="1.0000000000000000e+00" itree="61">
      <Node pos="s" depth="0" NCoef="0" IVar="14" Cut="1.6170735359191895e+00" cType="1" res="3.5229477286338806e-01" rms="2.7524849772453308e-01" purity="7.5475245714187622e-02" nType="0">
        <Node pos="l" depth="1" NCoef="0" IVar="11" Cut="3.3190131187438965e-01" cType="1" res="2.8208634257316589e-01" rms="3.8417148590087891e-01" purity="1.6405063867568970e-01" nType="0">
          <Node pos="l" depth="2" NCoef="0" IVar="-1" Cut="0.0000000000000000e+00" cType="1" res="-9.4225006178021431e-03" rms="3.6061838269233704e-01" purity="1.3282620906829834e-01" nType="-99"/>
