<?xml version="1.0"?>
<MethodSetup Method="BDT::bdt">
  <GeneralInfo>
    <Info name="TMVA Release" value="4.2.1 [262657]"/>
    <Info name="ROOT Release" value="6.18/04 [397828]"/>
    <Info name="Creator" value="marherje"/>
    <Info name="Date" value="Tue Oct  4 17:57:07 2022"/>
    <Info name="Host" value="Linux naf-ilc11.desy.de 3.10.0-1127.8.2.el7.x86_64 #1 SMP Tue May 12 16:57:42 UTC 2020 x86_64 x86_64 x86_64 GNU/Linux"/>
    <Info name="Dir" value="/lhome/ific/m/marherje/ParticleSwarmOptimization/TestingROC/ReTraining250_Bad"/>
    <Info name="Training events" value="913622"/>
    <Info name="TrainingTime" value="4.50730213e+02"/>
    <Info name="AnalysisType" value="Multiclass"/>
  </GeneralInfo>
  <Options>
    <Option name="V" modified="Yes">False</Option>
    <Option name="VerbosityLevel" modified="No">Default</Option>
    <Option name="VarTransform" modified="No">None</Option>
    <Option name="H" modified="Yes">False</Option>
    <Option name="CreateMVAPdfs" modified="No">False</Option>
    <Option name="IgnoreNegWeightsInTraining" modified="No">False</Option>
    <Option name="NTrees" modified="Yes">100</Option>
    <Option name="MaxDepth" modified="Yes">2</Option>
    <Option name="MinNodeSize" modified="No">5%</Option>
    <Option name="nCuts" modified="Yes">55</Option>
    <Option name="BoostType" modified="Yes">Grad</Option>
    <Option name="AdaBoostR2Loss" modified="No">quadratic</Option>
    <Option name="UseBaggedBoost" modified="Yes">True</Option>
    <Option name="Shrinkage" modified="Yes">9.592048e-03</Option>
    <Option name="AdaBoostBeta" modified="No">5.000000e-01</Option>
    <Option name="UseRandomisedTrees" modified="No">False</Option>
    <Option name="UseNvars" modified="No">4</Option>
    <Option name="UsePoissonNvars" modified="No">True</Option>
    <Option name="BaggedSampleFraction" modified="No">4.157117e-01</Option>
    <Option name="UseYesNoLeaf" modified="No">True</Option>
    <Option name="NegWeightTreatment" modified="Yes">ignorenegweightsintraining</Option>
    <Option name="Css" modified="No">1.000000e+00</Option>
    <Option name="Cts_sb" modified="No">1.000000e+00</Option>
    <Option name="Ctb_ss" modified="No">1.000000e+00</Option>
    <Option name="Cbb" modified="No">1.000000e+00</Option>
    <Option name="NodePurityLimit" modified="No">5.000000e-01</Option>
    <Option name="SeparationType" modified="No">giniindex</Option>
    <Option name="RegressionLossFunctionBDTG" modified="No">huber</Option>
    <Option name="HuberQuantile" modified="No">7.000000e-01</Option>
    <Option name="DoBoostMonitor" modified="No">False</Option>
    <Option name="UseFisherCuts" modified="No">False</Option>
    <Option name="MinLinCorrForFisher" modified="No">8.000000e-01</Option>
    <Option name="UseExclusiveVars" modified="No">False</Option>
    <Option name="DoPreselection" modified="No">False</Option>
    <Option name="SigToBkgFraction" modified="No">1.000000e+00</Option>
    <Option name="PruneMethod" modified="No">nopruning</Option>
    <Option name="PruneStrength" modified="No">0.000000e+00</Option>
    <Option name="PruningValFraction" modified="No">5.000000e-01</Option>
    <Option name="SkipNormalization" modified="Yes">True</Option>
    <Option name="nEventsMin" modified="No">0</Option>
    <Option name="UseBaggedGrad" modified="No">False</Option>
    <Option name="GradBaggingFraction" modified="Yes">4.157117e-01</Option>
    <Option name="UseNTrainEvents" modified="No">0</Option>
    <Option name="NNodesMax" modified="No">0</Option>
  </Options>
  <Variables NVar="16">
    <Variable VarIndex="0" Expression="trk1d0sig" Label="trk1d0sig" Title="trk1d0sig" Unit="" Internal="trk1d0sig" Type="F" Min="-9.94050232e+02" Max="6.50360750e+05"/>
    <Variable VarIndex="1" Expression="trk2d0sig" Label="trk2d0sig" Title="trk2d0sig" Unit="" Internal="trk2d0sig" Type="F" Min="-9.98659729e+02" Max="3.00814277e+04"/>
    <Variable VarIndex="2" Expression="trk1z0sig" Label="trk1z0sig" Title="trk1z0sig" Unit="" Internal="trk1z0sig" Type="F" Min="-2.47183688e+05" Max="2.59352891e+05"/>
    <Variable VarIndex="3" Expression="trk2z0sig" Label="trk2z0sig" Title="trk2z0sig" Unit="" Internal="trk2z0sig" Type="F" Min="-6.70598203e+04" Max="1.43508922e+05"/>
    <Variable VarIndex="4" Expression="trk1pt_jete" Label="trk1pt_jete" Title="trk1pt_jete" Unit="" Internal="trk1pt_jete" Type="F" Min="2.38823509e-06" Max="9.99827445e-01"/>
    <Variable VarIndex="5" Expression="trk2pt_jete" Label="trk2pt_jete" Title="trk2pt_jete" Unit="" Internal="trk2pt_jete" Type="F" Min="0.00000000e+00" Max="9.83340263e-01"/>
    <Variable VarIndex="6" Expression="jprobr2" Label="jprobr2" Title="jprobr2" Unit="" Internal="jprobr2" Type="F" Min="0.00000000e+00" Max="1.00000000e+00"/>
    <Variable VarIndex="7" Expression="jprobr25sigma" Label="jprobr25sigma" Title="jprobr25sigma" Unit="" Internal="jprobr25sigma" Type="F" Min="0.00000000e+00" Max="1.00000000e+00"/>
    <Variable VarIndex="8" Expression="jprobz2" Label="jprobz2" Title="jprobz2" Unit="" Internal="jprobz2" Type="F" Min="0.00000000e+00" Max="1.00000000e+00"/>
    <Variable VarIndex="9" Expression="jprobz25sigma" Label="jprobz25sigma" Title="jprobz25sigma" Unit="" Internal="jprobz25sigma" Type="F" Min="0.00000000e+00" Max="1.00000000e+00"/>
    <Variable VarIndex="10" Expression="d0bprob2" Label="d0bprob2" Title="d0bprob2" Unit="" Internal="d0bprob2" Type="F" Min="0.00000000e+00" Max="9.99999106e-01"/>
    <Variable VarIndex="11" Expression="d0cprob2" Label="d0cprob2" Title="d0cprob2" Unit="" Internal="d0cprob2" Type="F" Min="0.00000000e+00" Max="9.91012037e-01"/>
    <Variable VarIndex="12" Expression="d0qprob2" Label="d0qprob2" Title="d0qprob2" Unit="" Internal="d0qprob2" Type="F" Min="0.00000000e+00" Max="9.99999642e-01"/>
    <Variable VarIndex="13" Expression="z0bprob2" Label="z0bprob2" Title="z0bprob2" Unit="" Internal="z0bprob2" Type="F" Min="0.00000000e+00" Max="9.99994576e-01"/>
    <Variable VarIndex="14" Expression="z0cprob2" Label="z0cprob2" Title="z0cprob2" Unit="" Internal="z0cprob2" Type="F" Min="0.00000000e+00" Max="9.95949090e-01"/>
    <Variable VarIndex="15" Expression="z0qprob2" Label="z0qprob2" Title="z0qprob2" Unit="" Internal="z0qprob2" Type="F" Min="0.00000000e+00" Max="9.99999881e-01"/>
  </Variables>
  <Spectators NSpec="2">
    <Spectator SpecIndex="0" Expression="aux" Label="aux" Title="aux" Unit="" Internal="aux" Type="F" Min="-1.00000000e+00" Max="-1.00000000e+00"/>
    <Spectator SpecIndex="1" Expression="nvtx" Label="nvtx" Title="nvtx" Unit="" Internal="nvtx" Type="F" Min="0.00000000e+00" Max="0.00000000e+00"/>
  </Spectators>
  <Classes NClass="3">
    <Class Name="jetB" Index="0"/>
    <Class Name="jetC" Index="1"/>
    <Class Name="jetO" Index="2"/>
  </Classes>
  <Transformations NTransformations="0"/>
  <MVAPdfs/>
  <Weights NTrees="300" AnalysisType="1">
    <BinaryTree type="DecisionTree" boostWeight="1.0000000000000000e+00" itree="0">
      <Node pos="s" depth="0" NCoef="0" IVar="8" Cut="1.7857143655419350e-02" cType="1" res="-2.7159804105758667e-01" rms="2.4067415297031403e-01" purity="6.1735291033983231e-02" nType="0">
        <Node pos="l" depth="1" NCoef="0" IVar="10" Cut="7.3213917016983032e-01" cType="1" res="-7.0620730519294739e-02" rms="4.4010761380195618e-01" purity="2.6271259784698486e-01" nType="0">
          <Node pos="l" depth="2" NCoef="0" IVar="-1" Cut="0.0000000000000000e+00" cType="1" res="-5.2737081423401833e-03" rms="3.5713675618171692e-01" purity="1.5006665885448456e-01" nType="-99"/>
          <Node pos="r" depth="2" NCoef="0" IVar="-1" Cut="0.0000000000000000e+00" cType="1" res="2.2828713990747929e-03" rms="4.9231359362602234e-01" purity="4.1266542673110962e-01" nType="-99"/>
        </Node>
        <Node pos="r" depth="1" NCoef="0" IVar="6" Cut="3.5714287310838699e-02" cType="1" res="-2.9929932951927185e-01" rms="1.8131659924983978e-01" purity="3.4034017473459244e-02" nType="0">
          <Node pos="l" depth="2" NCoef="0" IVar="-1" Cut="0.0000000000000000e+00" cType="1" res="-5.7021873071789742e-03" rms="3.4191209077835083e-01" purity="1.3517656922340393e-01" nType="-99"/>
          <Node pos="r" depth="2" NCoef="0" IVar="-1" Cut="0.0000000000000000e+00" cType="1" res="-8.7940422818064690e-03" rms="1.6420255601406097e-01" purity="2.7731511741876602e-02" nType="-99"/>
        </Node>
      </Node>
    </BinaryTree>
    <BinaryTree type="DecisionTree" boostWeight="1.0000000000000000e+00" itree="1">
      <Node pos="s" depth="0" NCoef="0" IVar="8" Cut="1.7857143655419350e-02" cType="1" res="-2.7198198437690735e-01" rms="2.3997370898723602e-01" purity="1.4232423901557922e-01" nType="0">
        <Node pos="l" depth="1" NCoef="0" IVar="10" Cut="7.3214221000671387e-01" cType="1" res="-7.1729131042957306e-02" rms="4.3950819969177246e-01" purity="2.6221466064453125e-01" nType="0">
          <Node pos="l" depth="2" NCoef="0" IVar="-1" Cut="0.0000000000000000e+00" cType="1" res="-2.3640985600650311e-03" rms="3.5930779576301575e-01" purity="2.5117853283882141e-01" nType="-99"/>
          <Node pos="r" depth="2" NCoef="0" IVar="-1" Cut="0.0000000000000000e+00" cType="1" res="-1.6195130301639438e-03" rms="4.9157088994979858e-01" purity="2.7705362439155579e-01" nType="-99"/>
        </Node>
        <Node pos="r" depth="1" NCoef="0" IVar="6" Cut="3.5714287310838699e-02" cType="1" res="-2.9943823814392090e-01" rms="1.8095920979976654e-01" purity="1.2588630616664886e-01" nType="0">
          <Node pos="l" depth="2" NCoef="0" IVar="-1" Cut="0.0000000000000000e+00" cType="1" res="6.7744019906967878e-04" rms="3.3863306045532227e-01" purity="3.5687506198883057e-01" nType="-99"/>
          <Node pos="r" depth="2" NCoef="0" IVar="-1" Cut="0.0000000000000000e+00" cType="1" res="-6.3862986862659454e-03" rms="1.6421429812908173e-01" purity="1.1140301078557968e-01" nType="-99"/>
        </Node>
      </Node>
    </BinaryTree>
    <BinaryTree type="DecisionTree" boostWeight="1.0000000000000000e+00" itree="2">
      <Node pos="s" depth="0" NCoef="0" IVar="6" Cut="1.7857143655419350e-02" cType="1" res="-2.7177587151527405e-01" rms="2.4035005271434784e-01" purity="7.9495245218276978e-01" nType="0">
        <Node pos="l" depth="1" NCoef="0" IVar="10" Cut="7.6785647869110107e-01" cType="1" res="-6.7710079252719879e-02" rms="4.4166451692581177e-01" purity="4.6265825629234314e-01" nType="0">
          <Node pos="l" depth="2" NCoef="0" IVar="-1" Cut="0.0000000000000000e+00" cType="1" res="6.9590392522513866e-03" rms="3.6149039864540100e-01" purity="5.7516694068908691e-01" nType="-99"/>
          <Node pos="r" depth="2" NCoef="0" IVar="-1" Cut="0.0000000000000000e+00" cType="1" res="-6.5969582647085190e-04" rms="4.9287801980972290e-01" purity="3.1040823459625244e-01" nType="-99"/>
        </Node>
        <Node pos="r" depth="1" NCoef="0" IVar="8" Cut="3.5714287310838699e-02" cType="1" res="-2.9907220602035522e-01" rms="1.8189918994903564e-01" purity="8.3940088748931885e-01" nType="0">
          <Node pos="l" depth="2" NCoef="0" IVar="-1" Cut="0.0000000000000000e+00" cType="1" res="5.8820559643208981e-03" rms="3.4004914760589600e-01" purity="5.3774070739746094e-01" nType="-99"/>
          <Node pos="r" depth="2" NCoef="0" IVar="-1" Cut="0.0000000000000000e+00" cType="1" res="1.5153653919696808e-02" rms="1.6356126964092255e-01" purity="8.5993802547454834e-01" nType="-99"/>
        </Node>
      </Node>
    </BinaryTree>
    <BinaryTree type="DecisionTree" boostWeight="1.0000000000000000e+00" itree="3">
      <Node pos="s" depth="0" NCoef="0" IVar="8" Cut="1.7857143655419350e-02" cType="1" res="-2.6862451434135437e-01" rms="2.4101300537586212e-01" purity="6.2101736664772034e-02" nType="0">
        <Node pos="l" depth="1" NCoef="0" IVar="10" Cut="7.3213887214660645e-01" cType="1" res="-6.6912099719047546e-02" rms="4.4135168194770813e-01" purity="2.6571330428123474e-01" nType="0">
          <Node pos="l" depth="2" NCoef="0" IVar="-1" Cut="0.0000000000000000e+00" cType="1" res="-5.2069774828851223e-03" rms="3.5823795199394226e-01" purity="1.5119132399559021e-01" nType="-99"/>
          <Node pos="r" depth="2" NCoef="0" IVar="-1" Cut="0.0000000000000000e+00" cType="1" res="2.4270606227219105e-03" rms="4.9319255352020264e-01" purity="4.1828060150146484e-01" nType="-99"/>
        </Node>
        <Node pos="r" depth="1" NCoef="0" IVar="6" Cut="3.5714287310838699e-02" cType="1" res="-2.9654195904731750e-01" rms="1.8098737299442291e-01" purity="3.3921428024768829e-02" nType="0">
          <Node pos="l" depth="2" NCoef="0" IVar="-1" Cut="0.0000000000000000e+00" cType="1" res="-5.8029969222843647e-03" rms="3.3638060092926025e-01" purity="1.3015535473823547e-01" nType="-99"/>
          <Node pos="r" depth="2" NCoef="0" IVar="-1" Cut="0.0000000000000000e+00" cType="1" res="-8.7442407384514809e-03" rms="1.6464589536190033e-01" purity="2.7888547629117966e-02" nType="-99"/>
        </Node>
      </Node>
    </BinaryTree>
    <BinaryTree type="DecisionTree" boostWeight="1.0000000000000000e+00" itree="4">
      <Node pos="s" depth="0" NCoef="0" IVar="6" Cut="1.7857143655419350e-02" cType="1" res="-2.6885771751403809e-01" rms="2.4058523774147034e-01" purity="1.4280787110328674e-01" nType="0">
        <Node pos="l" depth="1" NCoef="0" IVar="10" Cut="7.4999934434890747e-01" cType="1" res="-6.1464853584766388e-02" rms="4.4404700398445129e-01" purity="2.6625594496726990e-01" nType="0">
          <Node pos="l" depth="2" NCoef="0" IVar="-1" Cut="0.0000000000000000e+00" cType="1" res="-2.0389619749039412e-03" rms="3.5995942354202271e-01" purity="2.6200538873672485e-01" nType="-99"/>
          <Node pos="r" depth="2" NCoef="0" IVar="-1" Cut="0.0000000000000000e+00" cType="1" res="-1.7705768113955855e-03" rms="4.9337315559387207e-01" purity="2.7163448929786682e-01" nType="-99"/>
        </Node>
        <Node pos="r" depth="1" NCoef="0" IVar="8" Cut="3.5714287310838699e-02" cType="1" res="-2.9636800289154053e-01" rms="1.8149815499782562e-01" purity="1.2643270194530487e-01" nType="0">
          <Node pos="l" depth="2" NCoef="0" IVar="-1" Cut="0.0000000000000000e+00" cType="1" res="-1.2885672913398594e-04" rms="3.4151953458786011e-01" purity="3.2799440622329712e-01" nType="-99"/>
          <Node pos="r" depth="2" NCoef="0" IVar="-1" Cut="0.0000000000000000e+00" cType="1" res="-6.3088471069931984e-03" rms="1.6282860934734344e-01" purity="1.1268072575330734e-01" nType="-99"/>
        </Node>
      </Node>
    </BinaryTree>
    <BinaryTree type="DecisionTree" boostWeight="1.0000000000000000e+00" itree="5">
      <Node pos="s" depth="0" NCoef="0" IVar="8" Cut="1.7857143655419350e-02" cType="1" res="-2.6868000626564026e-01" rms="2.4091462790966034e-01" purity="7.9556822776794434e-01" nType="0">
        <Node pos="l" depth="1" NCoef="0" IVar="10" Cut="7.3213887214660645e-01" cType="1" res="-6.8703964352607727e-02" rms="4.4039925932884216e-01" purity="4.7204566001892090e-01" nType="0">
          <Node pos="l" depth="2" NCoef="0" IVar="-1" Cut="0.0000000000000000e+00" cType="1" res="7.3438114486634731e-03" rms="3.5650250315666199e-01" purity="5.9173578023910522e-01" nType="-99"/>
          <Node pos="r" depth="2" NCoef="0" IVar="-1" Cut="0.0000000000000000e+00" cType="1" res="-5.8408995391801000e-04" rms="4.9278369545936584e-01" purity="3.1326031684875488e-01" nType="-99"/>
        </Node>
        <Node pos="r" depth="1" NCoef="0" IVar="6" Cut="3.5714287310838699e-02" cType="1" res="-2.9623779654502869e-01" rms="1.8176957964897156e-01" purity="8.4015142917633057e-01" nType="0">
          <Node pos="l" depth="2" NCoef="0" IVar="-1" Cut="0.0000000000000000e+00" cType="1" res="5.0751529633998871e-03" rms="3.3936056494712830e-01" purity="5.1252144575119019e-01" nType="-99"/>
          <Node pos="r" depth="2" NCoef="0" IVar="-1" Cut="0.0000000000000000e+00" cType="1" res="1.4922104775905609e-02" rms="1.6501188278198242e-01" purity="8.6077290773391724e-01" nType="-99"/>
        </Node>
      </Node>
    </BinaryTree>
    <BinaryTree type="DecisionTree" boostWeight="1.0000000000000000e+00" itree="6">
      <Node pos="s" depth="0" NCoef="0" IVar="8" Cut="1.7857143655419350e-02" cType="1" res="-2.6642990112304688e-01" rms="2.3996743559837341e-01" purity="6.1704438179731369e-02" nType="0">
        <Node pos="l" depth="1" NCoef="0" IVar="10" Cut="7.3214221000671387e-01" cType="1" res="-6.6405192017555237e-02" rms="4.4087642431259155e-01" purity="2.6551482081413269e-01" nType="0">
          <Node pos="l" depth="2" NCoef="0" IVar="-1" Cut="0.0000000000000000e+00" cType="1" res="-5.1034693606197834e-03" rms="3.6042165756225586e-01" purity="1.5345278382301331e-01" nType="-99"/>
          <Node pos="r" depth="2" NCoef="0" IVar="-1" Cut="0.0000000000000000e+00" cType="1" res="2.2731802891939878e-03" rms="4.9240860342979431e-01" purity="4.1377556324005127e-01" nType="-99"/>
        </Node>
        <Node pos="r" depth="1" NCoef="0" IVar="6" Cut="3.5714287310838699e-02" cType="1" res="-2.9380884766578674e-01" rms="1.8065187335014343e-01" purity="3.3807318657636642e-02" nType="0">
          <Node pos="l" depth="2" NCoef="0" IVar="-1" Cut="0.0000000000000000e+00" cType="1" res="-5.7071000337600708e-03" rms="3.3887764811515808e-01" purity="1.3243256509304047e-01" nType="-99"/>
          <Node pos="r" depth="2" NCoef="0" IVar="-1" Cut="0.0000000000000000e+00" cType="1" res="-8.7073659524321556e-03" rms="1.6381460428237915e-01" purity="2.7597852051258087e-02" nType="-99"/>
        </Node>
      </Node>
    </BinaryTree>
    <BinaryTree type="DecisionTree" boostWeight="1.0000000000000000e+00" itree="7">
      <Node pos="s" depth="0" NCoef="0" IVar="8" Cut="1.7857143655419350e-02" cType="1" res="-2.6650902628898621e-01" rms="2.3982051014900208e-01" purity="1.4170727133750916e-01" nType="0">
        <Node pos="l" depth="1" NCoef="0" IVar="10" Cut="7.3213917016983032e-01" cType="1" res="-6.5516807138919830e-02" rms="4.4134226441383362e-01" purity="2.5552910566329956e-01" nType="0">
          <Node pos="l" depth="2" NCoef="0" IVar="-1" Cut="0.0000000000000000e+00" cType="1" res="-2.4133489932864904e-03" rms="3.6020195484161377e-01" purity="2.4839153885841370e-01" nType="-99"/>
          <Node pos="r" depth="2" NCoef="0" IVar="-1" Cut="0.0000000000000000e+00" cType="1" res="-1.9336190307512879e-03" rms="4.9288249015808105e-01" purity="2.6499417424201965e-01" nType="-99"/>
        </Node>
        <Node pos="r" depth="1" NCoef="0" IVar="6" Cut="3.5714287310838699e-02" cType="1" res="-2.9401153326034546e-01" rms="1.8012958765029907e-01" purity="1.2613260746002197e-01" nType="0">
          <Node pos="l" depth="2" NCoef="0" IVar="-1" Cut="0.0000000000000000e+00" cType="1" res="6.5749249188229442e-04" rms="3.3874514698982239e-01" purity="3.5545286536216736e-01" nType="-99"/>
          <Node pos="r" depth="2" NCoef="0" IVar="-1" Cut="0.0000000000000000e+00" cType="1" res="-6.2987948767840862e-03" rms="1.6313925385475159e-01" purity="1.1163238435983658e-01" nType="-99"/>
        </Node>
      </Node>
    </BinaryTree>
    <BinaryTree type="DecisionTree" boostWeight="1.0000000000000000e+00" itree="8">
      <Node pos="s" depth="0" NCoef="0" IVar="6" Cut="1.7857143655419350e-02" cType="1" res="-2.6651778817176819e-01" rms="2.3981314897537231e-01" purity="7.9646635055541992e-01" nType="0">
        <Node pos="l" depth="1" NCoef="0" IVar="10" Cut="7.6785331964492798e-01" cType="1" res="-6.5968357026576996e-02" rms="4.4085383415222168e-01" purity="4.6601051092147827e-01" nType="0">
          <Node pos="l" depth="2" NCoef="0" IVar="-1" Cut="0.0000000000000000e+00" cType="1" res="7.0520020090043545e-03" rms="3.5875269770622253e-01" purity="5.8451253175735474e-01" nType="-99"/>
          <Node pos="r" depth="2" NCoef="0" IVar="-1" Cut="0.0000000000000000e+00" cType="1" res="-8.1288098590448499e-04" rms="4.9307963252067566e-01" purity="3.0541068315505981e-01" nType="-99"/>
        </Node>
        <Node pos="r" depth="1" NCoef="0" IVar="8" Cut="3.5714287310838699e-02" cType="1" res="-2.9329743981361389e-01" rms="1.8207107484340668e-01" purity="8.4059262275695801e-01" nType="0">
          <Node pos="l" depth="2" NCoef="0" IVar="-1" Cut="0.0000000000000000e+00" cType="1" res="5.6764958426356316e-03" rms="3.4158307313919067e-01" purity="5.3639721870422363e-01" nType="-99"/>
          <Node pos="r" depth="2" NCoef="0" IVar="-1" Cut="0.0000000000000000e+00" cType="1" res="1.4690831303596497e-02" rms="1.6353599727153778e-01" purity="8.6135333776473999e-01" nType="-99"/>
        </Node>
      </Node>
    </BinaryTree>
    <BinaryTree type="DecisionTree" boostWeight="1.0000000000000000e+00" itree="9">
      <Node pos="s" depth="0" NCoef="0" IVar="8" Cut="1.7857143655419350e-02" cType="1" res="-2.6311919093132019e-01" rms="2.4099577963352203e-01" purity="6.2452070415019989e-02" nType="0">
        <Node pos="l" depth="1" NCoef="0" IVar="10" Cut="7.3213917016983032e-01" cType="1" res="-6.3438169658184052e-02" rms="4.4174954295158386e-01" purity="2.6783773303031921e-01" nType="0">
          <Node pos="l" depth="2" NCoef="0" IVar="-1" Cut="0.0000000000000000e+00" cType="1" res="-5.0271884538233280e-03" rms="3.6183059215545654e-01" purity="1.5492041409015656e-01" nType="-99"/>
          <Node pos="r" depth="2" NCoef="0" IVar="-1" Cut="0.0000000000000000e+00" cType="1" res="2.3299942258745432e-03" rms="4.9278059601783752e-01" purity="4.1642332077026367e-01" nType="-99"/>
        </Node>
        <Node pos="r" depth="1" NCoef="0" IVar="6" Cut="3.5714287310838699e-02" cType="1" res="-2.9066342115402222e-01" rms="1.8142075836658478e-01" purity="3.4120932221412659e-02" nType="0">
          <Node pos="l" depth="2" NCoef="0" IVar="-1" Cut="0.0000000000000000e+00" cType="1" res="-5.7202675379812717e-03" rms="3.3665755391120911e-01" purity="1.3048750162124634e-01" nType="-99"/>
          <Node pos="r" depth="2" NCoef="0" IVar="-1" Cut="0.0000000000000000e+00" cType="1" res="-8.6503550410270691e-03" rms="1.6507454216480255e-01" purity="2.8039379045367241e-02" nType="-99"/>
        </Node>
      </Node>
    </BinaryTree>
    <BinaryTree type="DecisionTree" boostWeight="1.0000000000000000e+00" itree="10">
      <Node pos="s" depth="0" NCoef="0" IVar="6" Cut="1.7857143655419350e-02" cType="1" res="-2.6377183198928833e-01" rms="2.3980380594730377e-01" purity="1.4171501994132996e-01" nType="0">
        <Node pos="l" depth="1" NCoef="0" IVar="10" Cut="7.4999642372131348e-01" cType="1" res="-6.2893778085708618e-02" rms="4.4159099459648132e-01" purity="2.6737943291664124e-01" nType="0">
          <Node pos="l" depth="2" NCoef="0" IVar="-1" Cut="0.0000000000000000e+00" cType="1" res="-1.9919646438211203e-03" rms="3.5829731822013855e-01" purity="2.6257428526878357e-01" nType="-99"/>
          <Node pos="r" depth="2" NCoef="0" IVar="-1" Cut="0.0000000000000000e+00" cType="1" res="-1.6962534282356501e-03" rms="4.9226781725883484e-01" purity="2.7351427078247070e-01" nType="-99"/>
        </Node>
        <Node pos="r" depth="1" NCoef="0" IVar="8" Cut="3.5714287310838699e-02" cType="1" res="-2.9063770174980164e-01" rms="1.8165411055088043e-01" purity="1.2490838766098022e-01" nType="0">
          <Node pos="l" depth="2" NCoef="0" IVar="-1" Cut="0.0000000000000000e+00" cType="1" res="-1.4516050578095019e-04" rms="3.4202224016189575e-01" purity="3.2615455985069275e-01" nType="-99"/>
          <Node pos="r" depth="2" NCoef="0" IVar="-1" Cut="0.0000000000000000e+00" cType="1" res="-6.2688523903489113e-03" rms="1.6315111517906189e-01" purity="1.1126762628555298e-01" nType="-99"/>
        </Node>
      </Node>
    </BinaryTree>
    <BinaryTree type="DecisionTree" boostWeight="1.0000000000000000e+00" itree="11">
      <Node pos="s" depth="0" NCoef="0" IVar="6" Cut="1.7857143655419350e-02" cType="1" res="-2.6308292150497437e-01" rms="2.4106723070144653e-01" purity="7.9542261362075806e-01" nType="0">
        <Node pos="l" depth="1" NCoef="0" IVar="10" Cut="7.4999624490737915e-01" cType="1" res="-6.2847621738910675e-02" rms="4.4163447618484497e-01" purity="4.6196269989013672e-01" nType="0">
          <Node pos="l" depth="2" NCoef="0" IVar="-1" Cut="0.0000000000000000e+00" cType="1" res="6.8720867857336998e-03" rms="3.6082151532173157e-01" purity="5.8143597841262817e-01" nType="-99"/>
          <Node pos="r" depth="2" NCoef="0" IVar="-1" Cut="0.0000000000000000e+00" cType="1" res="-7.2055798955261707e-04" rms="4.9183216691017151e-01" purity="3.0869609117507935e-01" nType="-99"/>
        </Node>
        <Node pos="r" depth="1" NCoef="0" IVar="8" Cut="7.1428574621677399e-02" cType="1" res="-2.8990471363067627e-01" rms="1.8352577090263367e-01" purity="8.4008997678756714e-01" nType="0">
          <Node pos="l" depth="2" NCoef="0" IVar="-1" Cut="0.0000000000000000e+00" cType="1" res="6.4732851460576057e-03" rms="3.2089313864707947e-01" purity="5.7079917192459106e-01" nType="-99"/>
          <Node pos="r" depth="2" NCoef="0" IVar="-1" Cut="0.0000000000000000e+00" cType="1" res="1.4678793959319592e-02" rms="1.5922434628009796e-01" purity="8.6949121952056885e-01" nType="-99"/>
        </Node>
      </Node>
    </BinaryTree>
    <BinaryTree type="DecisionTree" boostWeight="1.0000000000000000e+00" itree="12">
      <Node pos="s" depth="0" NCoef="0" IVar="6" Cut="1.7857143655419350e-02" cType="1" res="-2.6161327958106995e-01" rms="2.3879328370094299e-01" purity="6.1407972127199173e-02" nType="0">
        <Node pos="l" depth="1" NCoef="0" IVar="10" Cut="7.6784408092498779e-01" cType="1" res="-6.4229033887386322e-02" rms="4.4013530015945435e-01" purity="2.6564726233482361e-01" nType="0">
          <Node pos="l" depth="2" NCoef="0" IVar="-1" Cut="0.0000000000000000e+00" cType="1" res="-4.9987561069428921e-03" rms="3.6149317026138306e-01" purity="1.5472337603569031e-01" nType="-99"/>
          <Node pos="r" depth="2" NCoef="0" IVar="-1" Cut="0.0000000000000000e+00" cType="1" res="2.3888442665338516e-03" rms="4.9232393503189087e-01" purity="4.1740459203720093e-01" nType="-99"/>
        </Node>
        <Node pos="r" depth="1" NCoef="0" IVar="8" Cut="3.5714287310838699e-02" cType="1" res="-2.8813621401786804e-01" rms="1.8087373673915863e-01" purity="3.3963900059461594e-02" nType="0">
          <Node pos="l" depth="2" NCoef="0" IVar="-1" Cut="0.0000000000000000e+00" cType="1" res="-5.6293546222150326e-03" rms="3.3938753604888916e-01" purity="1.3333015143871307e-01" nType="-99"/>
          <Node pos="r" depth="2" NCoef="0" IVar="-1" Cut="0.0000000000000000e+00" cType="1" res="-8.6277406662702560e-03" rms="1.6301068663597107e-01" purity="2.7327373623847961e-02" nType="-99"/>
        </Node>
      </Node>
    </BinaryTree>
    <BinaryTree type="DecisionTree" boostWeight="1.0000000000000000e+00" itree="13">
      <Node pos="s" depth="0" NCoef="0" IVar="6" Cut="1.7857143655419350e-02" cType="1" res="-2.6058661937713623e-01" rms="2.4067276716232300e-01" purity="1.4253982901573181e-01" nType="0">
        <Node pos="l" depth="1" NCoef="0" IVar="10" Cut="7.6785320043563843e-01" cType="1" res="-6.2883630394935608e-02" rms="4.4083568453788757e-01" purity="2.6490581035614014e-01" nType="0">
          <Node pos="l" depth="2" NCoef="0" IVar="-1" Cut="0.0000000000000000e+00" cType="1" res="-1.9906056113541126e-03" rms="3.6174336075782776e-01" purity="2.6201209425926208e-01" nType="-99"/>
          <Node pos="r" depth="2" NCoef="0" IVar="-1" Cut="0.0000000000000000e+00" cType="1" res="-1.8245372921228409e-03" rms="4.9263846874237061e-01" purity="2.6884540915489197e-01" nType="-99"/>
        </Node>
        <Node pos="r" depth="1" NCoef="0" IVar="8" Cut="7.1428574621677399e-02" cType="1" res="-2.8719186782836914e-01" rms="1.8329840898513794e-01" purity="1.2607282400131226e-01" nType="0">
          <Node pos="l" depth="2" NCoef="0" IVar="-1" Cut="0.0000000000000000e+00" cType="1" res="-5.3138413932174444e-04" rms="3.1955590844154358e-01" purity="3.1083035469055176e-01" nType="-99"/>
          <Node pos="r" depth="2" NCoef="0" IVar="-1" Cut="0.0000000000000000e+00" cType="1" res="-6.3885720446705818e-03" rms="1.5913324058055878e-01" purity="1.0573856532573700e-01" nType="-99"/>
        </Node>
      </Node>
    </BinaryTree>
    <BinaryTree type="DecisionTree" boostWeight="1.0000000000000000e+00" itree="14">
      <Node pos="s" depth="0" NCoef="0" IVar="8" Cut="1.7857143655419350e-02" cType="1" res="-2.6137045025825500e-01" rms="2.3924639821052551e-01" purity="7.9611063003540039e-01" nType="0">
        <Node pos="l" depth="1" NCoef="0" IVar="10" Cut="7.3214221000671387e-01" cType="1" res="-6.7540191113948822e-02" rms="4.3879902362823486e-01" purity="4.7791993618011475e-01" nType="0">
          <Node pos="l" depth="2" NCoef="0" IVar="-1" Cut="0.0000000000000000e+00" cType="1" res="7.1198325604200363e-03" rms="3.6029422283172607e-01" purity="5.9332072734832764e-01" nType="-99"/>
          <Node pos="r" depth="2" NCoef="0" IVar="-1" Cut="0.0000000000000000e+00" cType="1" res="-3.5403243964537978e-04" rms="4.9185857176780701e-01" purity="3.2139018177986145e-01" nType="-99"/>
        </Node>
        <Node pos="r" depth="1" NCoef="0" IVar="6" Cut="3.5714287310838699e-02" cType="1" res="-2.8812620043754578e-01" rms="1.8071992695331573e-01" purity="8.4003275632858276e-01" nType="0">
          <Node pos="l" depth="2" NCoef="0" IVar="-1" Cut="0.0000000000000000e+00" cType="1" res="4.8195356503129005e-03" rms="3.3717402815818787e-01" purity="5.1216197013854980e-01" nType="-99"/>
          <Node pos="r" depth="2" NCoef="0" IVar="-1" Cut="0.0000000000000000e+00" cType="1" res="1.4204053208231926e-02" rms="1.6414502263069153e-01" purity="8.6078971624374390e-01" nType="-99"/>
        </Node>
      </Node>
    </BinaryTree>
    <BinaryTree type="DecisionTree" boostWeight="1.0000000000000000e+00" itree="15">
      <Node pos="s" depth="0" NCoef="0" IVar="8" Cut="1.7857143655419350e-02" cType="1" res="-2.5875523686408997e-01" rms="2.3906469345092773e-01" purity="6.1730179935693741e-02" nType="0">
        <Node pos="l" depth="1" NCoef="0" IVar="10" Cut="7.3213917016983032e-01" cType="1" res="-6.5053202211856842e-02" rms="4.3919205665588379e-01" purity="2.6448318362236023e-01" nType="0">
          <Node pos="l" depth="2" NCoef="0" IVar="-1" Cut="0.0000000000000000e+00" cType="1" res="-5.0920536741614342e-03" rms="3.5721698403358459e-01" purity="1.5015755593776703e-01" nType="-99"/>
          <Node pos="r" depth="2" NCoef="0" IVar="-1" Cut="0.0000000000000000e+00" cType="1" res="2.3798968177288771e-03" rms="4.9291452765464783e-01" purity="4.1898408532142639e-01" nType="-99"/>
        </Node>
        <Node pos="r" depth="1" NCoef="0" IVar="6" Cut="5.3571429103612900e-02" cType="1" res="-2.8531029820442200e-01" rms="1.8081589043140411e-01" purity="3.3934302628040314e-02" nType="0">
          <Node pos="l" depth="2" NCoef="0" IVar="-1" Cut="0.0000000000000000e+00" cType="1" res="-5.8824680745601654e-03" rms="3.2695597410202026e-01" purity="1.2212061882019043e-01" nType="-99"/>
          <Node pos="r" depth="2" NCoef="0" IVar="-1" Cut="0.0000000000000000e+00" cType="1" res="-8.6078569293022156e-03" rms="1.6066883504390717e-01" purity="2.6522817090153694e-02" nType="-99"/>
        </Node>
      </Node>
    </BinaryTree>
    <BinaryTree type="DecisionTree" boostWeight="1.0000000000000000e+00" itree="16">
      <Node pos="s" depth="0" NCoef="0" IVar="6" Cut="1.7857143655419350e-02" cType="1" res="-2.5862979888916016e-01" rms="2.3929871618747711e-01" purity="1.4118409156799316e-01" nType="0">
        <Node pos="l" depth="1" NCoef="0" IVar="10" Cut="7.4999642372131348e-01" cType="1" res="-5.9956546872854233e-02" rms="4.4165879487991333e-01" purity="2.6240691542625427e-01" nType="0">
          <Node pos="l" depth="2" NCoef="0" IVar="-1" Cut="0.0000000000000000e+00" cType="1" res="-2.0837660413235426e-03" rms="3.6092364788055420e-01" purity="2.5823915004730225e-01" nType="-99"/>
          <Node pos="r" depth="2" NCoef="0" IVar="-1" Cut="0.0000000000000000e+00" cType="1" res="-1.8328840378671885e-03" rms="4.9235892295837402e-01" purity="2.6780232787132263e-01" nType="-99"/>
        </Node>
        <Node pos="r" depth="1" NCoef="0" IVar="8" Cut="3.5714287310838699e-02" cType="1" res="-2.8522130846977234e-01" rms="1.8119060993194580e-01" purity="1.2495896965265274e-01" nType="0">
          <Node pos="l" depth="2" NCoef="0" IVar="-1" Cut="0.0000000000000000e+00" cType="1" res="-2.1220292546786368e-04" rms="3.4391134977340698e-01" purity="3.2318121194839478e-01" nType="-99"/>
          <Node pos="r" depth="2" NCoef="0" IVar="-1" Cut="0.0000000000000000e+00" cType="1" res="-6.1861760914325714e-03" rms="1.6205032169818878e-01" purity="1.1134355515241623e-01" nType="-99"/>
        </Node>
      </Node>
    </BinaryTree>
    <BinaryTree type="DecisionTree" boostWeight="1.0000000000000000e+00" itree="17">
      <Node pos="s" depth="0" NCoef="0" IVar="6" Cut="1.7857143655419350e-02" cType="1" res="-2.5898620486259460e-01" rms="2.3866611719131470e-01" purity="7.9662960767745972e-01" nType="0">
        <Node pos="l" depth="1" NCoef="0" IVar="10" Cut="7.4999624490737915e-01" cType="1" res="-6.4917474985122681e-02" rms="4.3905183672904968e-01" purity="4.6944072842597961e-01" nType="0">
          <Node pos="l" depth="2" NCoef="0" IVar="-1" Cut="0.0000000000000000e+00" cType="1" res="6.8167424760758877e-03" rms="3.5770657658576965e-01" purity="5.8554714918136597e-01" nType="-99"/>
          <Node pos="r" depth="2" NCoef="0" IVar="-1" Cut="0.0000000000000000e+00" cType="1" res="-4.5726844109594822e-04" rms="4.9132385849952698e-01" purity="3.1807875633239746e-01" nType="-99"/>
        </Node>
        <Node pos="r" depth="1" NCoef="0" IVar="8" Cut="5.3571429103612900e-02" cType="1" res="-2.8484782576560974e-01" rms="1.8214377760887146e-01" purity="8.4023088216781616e-01" nType="0">
          <Node pos="l" depth="2" NCoef="0" IVar="-1" Cut="0.0000000000000000e+00" cType="1" res="5.8674844913184643e-03" rms="3.2445496320724487e-01" purity="5.5459767580032349e-01" nType="-99"/>
          <Node pos="r" depth="2" NCoef="0" IVar="-1" Cut="0.0000000000000000e+00" cType="1" res="1.4112549833953381e-02" rms="1.6155454516410828e-01" purity="8.6573117971420288e-01" nType="-99"/>
        </Node>
      </Node>
    </BinaryTree>
    <BinaryTree type="DecisionTree" boostWeight="1.0000000000000000e+00" itree="18">
      <Node pos="s" depth="0" NCoef="0" IVar="8" Cut="1.7857143655419350e-02" cType="1" res="-2.5590500235557556e-01" rms="2.3941472172737122e-01" purity="6.2092192471027374e-02" nType="0">
        <Node pos="l" depth="1" NCoef="0" IVar="10" Cut="7.3214221000671387e-01" cType="1" res="-6.7259356379508972e-02" rms="4.3724304437637329e-01" purity="2.6155376434326172e-01" nType="0">
          <Node pos="l" depth="2" NCoef="0" IVar="-1" Cut="0.0000000000000000e+00" cType="1" res="-5.1781372167170048e-03" rms="3.5309487581253052e-01" purity="1.4599804580211639e-01" nType="-99"/>
          <Node pos="r" depth="2" NCoef="0" IVar="-1" Cut="0.0000000000000000e+00" cType="1" res="2.3152842186391354e-03" rms="4.9259835481643677e-01" purity="4.1736039519309998e-01" nType="-99"/>
        </Node>
        <Node pos="r" depth="1" NCoef="0" IVar="6" Cut="3.5714287310838699e-02" cType="1" res="-2.8209638595581055e-01" rms="1.8195398151874542e-01" purity="3.4399140626192093e-02" nType="0">
          <Node pos="l" depth="2" NCoef="0" IVar="-1" Cut="0.0000000000000000e+00" cType="1" res="-5.4025487042963505e-03" rms="3.4470242261886597e-01" purity="1.3822893798351288e-01" nType="-99"/>
          <Node pos="r" depth="2" NCoef="0" IVar="-1" Cut="0.0000000000000000e+00" cType="1" res="-8.5277585312724113e-03" rms="1.6437666118144989e-01" purity="2.7801096439361572e-02" nType="-99"/>
        </Node>
      </Node>
    </BinaryTree>
    <BinaryTree type="DecisionTree" boostWeight="1.0000000000000000e+00" itree="19">
      <Node pos="s" depth="0" NCoef="0" IVar="6" Cut="1.7857143655419350e-02" cType="1" res="-2.5646275281906128e-01" rms="2.3838198184967041e-01" purity="1.4197345077991486e-01" nType="0">
        <Node pos="l" depth="1" NCoef="0" IVar="10" Cut="7.4999934434890747e-01" cType="1" res="-6.1441384255886078e-02" rms="4.4011521339416504e-01" purity="2.6690763235092163e-01" nType="0">
          <Node pos="l" depth="2" NCoef="0" IVar="-1" Cut="0.0000000000000000e+00" cType="1" res="-2.0219783764332533e-03" rms="3.6099478602409363e-01" purity="2.5976562500000000e-01" nType="-99"/>
          <Node pos="r" depth="2" NCoef="0" IVar="-1" Cut="0.0000000000000000e+00" cType="1" res="-1.5880085993558168e-03" rms="4.9072071909904480e-01" purity="2.7598965167999268e-01" nType="-99"/>
        </Node>
        <Node pos="r" depth="1" NCoef="0" IVar="8" Cut="5.3571429103612900e-02" cType="1" res="-2.8254649043083191e-01" rms="1.8097482621669769e-01" purity="1.2526373565196991e-01" nType="0">
          <Node pos="l" depth="2" NCoef="0" IVar="-1" Cut="0.0000000000000000e+00" cType="1" res="-2.4997658329084516e-04" rms="3.2417649030685425e-01" purity="3.2028508186340332e-01" nType="-99"/>
          <Node pos="r" depth="2" NCoef="0" IVar="-1" Cut="0.0000000000000000e+00" cType="1" res="-6.2505612149834633e-03" rms="1.6004821658134460e-01" purity="1.0773018747568130e-01" nType="-99"/>
        </Node>
      </Node>
    </BinaryTree>
    <BinaryTree type="DecisionTree" boostWeight="1.0000000000000000e+00" itree="20">
      <Node pos="s" depth="0" NCoef="0" IVar="6" Cut="1.7857143655419350e-02" cType="1" res="-2.5589165091514587e-01" rms="2.3944047093391418e-01" purity="7.9597526788711548e-01" nType="0">
        <Node pos="l" depth="1" NCoef="0" IVar="10" Cut="7.4999624490737915e-01" cType="1" res="-6.1927847564220428e-02" rms="4.3983680009841919e-01" purity="4.6893587708473206e-01" nType="0">
          <Node pos="l" depth="2" NCoef="0" IVar="-1" Cut="0.0000000000000000e+00" cType="1" res="6.8430495448410511e-03" rms="3.5957860946655273e-01" purity="5.8963274955749512e-01" nType="-99"/>
          <Node pos="r" depth="2" NCoef="0" IVar="-1" Cut="0.0000000000000000e+00" cType="1" res="-5.6808401132002473e-04" rms="4.9109017848968506e-01" purity="3.1427556276321411e-01" nType="-99"/>
        </Node>
        <Node pos="r" depth="1" NCoef="0" IVar="8" Cut="5.3571429103612900e-02" cType="1" res="-2.8192496299743652e-01" rms="1.8257653713226318e-01" purity="8.3986961841583252e-01" nType="0">
          <Node pos="l" depth="2" NCoef="0" IVar="-1" Cut="0.0000000000000000e+00" cType="1" res="5.9001343324780464e-03" rms="3.2630202174186707e-01" purity="5.5841046571731567e-01" nType="-99"/>
          <Node pos="r" depth="2" NCoef="0" IVar="-1" Cut="0.0000000000000000e+00" cType="1" res="1.3875513337552547e-02" rms="1.6161040961742401e-01" purity="8.6513960361480713e-01" nType="-99"/>
        </Node>
      </Node>
    </BinaryTree>
    <BinaryTree type="DecisionTree" boostWeight="1.0000000000000000e+00" itree="21">
      <Node pos="s" depth="0" NCoef="0" IVar="8" Cut="1.7857143655419350e-02" cType="1" res="-2.5410938262939453e-01" rms="2.3782582581043243e-01" purity="6.1383239924907684e-02" nType="0">
        <Node pos="l" depth="1" NCoef="0" IVar="10" Cut="7.3213934898376465e-01" cType="1" res="-6.5110437572002411e-02" rms="4.3766123056411743e-01" purity="2.6293766498565674e-01" nType="0">
          <Node pos="l" depth="2" NCoef="0" IVar="-1" Cut="0.0000000000000000e+00" cType="1" res="-5.0298278219997883e-03" rms="3.5689622163772583e-01" purity="1.4983381330966949e-01" nType="-99"/>
          <Node pos="r" depth="2" NCoef="0" IVar="-1" Cut="0.0000000000000000e+00" cType="1" res="2.2410657256841660e-03" rms="4.9212229251861572e-01" purity="4.1533920168876648e-01" nType="-99"/>
        </Node>
        <Node pos="r" depth="1" NCoef="0" IVar="6" Cut="3.5714287310838699e-02" cType="1" res="-2.8021919727325439e-01" rms="1.7971251904964447e-01" purity="3.3538896590471268e-02" nType="0">
          <Node pos="l" depth="2" NCoef="0" IVar="-1" Cut="0.0000000000000000e+00" cType="1" res="-5.5670840665698051e-03" rms="3.3738344907760620e-01" purity="1.3145780563354492e-01" nType="-99"/>
          <Node pos="r" depth="2" NCoef="0" IVar="-1" Cut="0.0000000000000000e+00" cType="1" res="-8.4962090477347374e-03" rms="1.6335844993591309e-01" purity="2.7448771521449089e-02" nType="-99"/>
        </Node>
      </Node>
    </BinaryTree>
    <BinaryTree type="DecisionTree" boostWeight="1.0000000000000000e+00" itree="22">
      <Node pos="s" depth="0" NCoef="0" IVar="6" Cut="1.7857143655419350e-02" cType="1" res="-2.5310122966766357e-01" rms="2.3965904116630554e-01" purity="1.4208625257015228e-01" nType="0">
        <Node pos="l" depth="1" NCoef="0" IVar="10" Cut="7.4999934434890747e-01" cType="1" res="-5.7800397276878357e-02" rms="4.4122624397277832e-01" purity="2.6646077632904053e-01" nType="0">
          <Node pos="l" depth="2" NCoef="0" IVar="-1" Cut="0.0000000000000000e+00" cType="1" res="-1.9861736800521612e-03" rms="3.6085218191146851e-01" purity="2.6038902997970581e-01" nType="-99"/>
          <Node pos="r" depth="2" NCoef="0" IVar="-1" Cut="0.0000000000000000e+00" cType="1" res="-1.6341197770088911e-03" rms="4.9146762490272522e-01" purity="2.7409091591835022e-01" nType="-99"/>
        </Node>
        <Node pos="r" depth="1" NCoef="0" IVar="8" Cut="7.1428574621677399e-02" cType="1" res="-2.7913364768028259e-01" rms="1.8270415067672729e-01" purity="1.2550789117813110e-01" nType="0">
          <Node pos="l" depth="2" NCoef="0" IVar="-1" Cut="0.0000000000000000e+00" cType="1" res="-4.5975568355061114e-04" rms="3.1618955731391907e-01" purity="3.1161379814147949e-01" nType="-99"/>
          <Node pos="r" depth="2" NCoef="0" IVar="-1" Cut="0.0000000000000000e+00" cType="1" res="-6.2827607616782188e-03" rms="1.5961636602878571e-01" purity="1.0523059964179993e-01" nType="-99"/>
        </Node>
      </Node>
    </BinaryTree>
    <BinaryTree type="DecisionTree" boostWeight="1.0000000000000000e+00" itree="23">
      <Node pos="s" depth="0" NCoef="0" IVar="8" Cut="1.7857143655419350e-02" cType="1" res="-2.5398489832878113e-01" rms="2.3807047307491302e-01" purity="7.9548931121826172e-01" nType="0">
        <Node pos="l" depth="1" NCoef="0" IVar="10" Cut="7.3213934898376465e-01" cType="1" res="-6.6604368388652802e-02" rms="4.3686458468437195e-01" purity="4.7585549950599670e-01" nType="0">
          <Node pos="l" depth="2" NCoef="0" IVar="-1" Cut="0.0000000000000000e+00" cType="1" res="6.8227136507630348e-03" rms="3.5473266243934631e-01" purity="5.9189385175704956e-01" nType="-99"/>
          <Node pos="r" depth="2" NCoef="0" IVar="-1" Cut="0.0000000000000000e+00" cType="1" res="-3.9263689541257918e-04" rms="4.9189430475234985e-01" purity="3.2047387957572937e-01" nType="-99"/>
        </Node>
        <Node pos="r" depth="1" NCoef="0" IVar="6" Cut="5.3571429103612900e-02" cType="1" res="-2.7985954284667969e-01" rms="1.8064384162425995e-01" purity="8.3962625265121460e-01" nType="0">
          <Node pos="l" depth="2" NCoef="0" IVar="-1" Cut="0.0000000000000000e+00" cType="1" res="5.0756940618157387e-03" rms="3.2502380013465881e-01" purity="5.3450965881347656e-01" nType="-99"/>
          <Node pos="r" depth="2" NCoef="0" IVar="-1" Cut="0.0000000000000000e+00" cType="1" res="1.3664936646819115e-02" rms="1.6122429072856903e-01" purity="8.6492323875427246e-01" nType="-99"/>
        </Node>
      </Node>
    </BinaryTree>
    <BinaryTree type="DecisionTree" boostWeight="1.0000000000000000e+00" itree="24">
      <Node pos="s" depth="0" NCoef="0" IVar="8" Cut="1.7857143655419350e-02" cType="1" res="-2.5083109736442566e-01" rms="2.3902274668216705e-01" purity="6.2200050801038742e-02" nType="0">
        <Node pos="l" depth="1" NCoef="0" IVar="10" Cut="7.3214221000671387e-01" cType="1" res="-6.1319328844547272e-02" rms="4.3902623653411865e-01" purity="2.6606142520904541e-01" nType="0">
          <Node pos="l" depth="2" NCoef="0" IVar="-1" Cut="0.0000000000000000e+00" cType="1" res="-4.8748250119388103e-03" rms="3.6081957817077637e-01" purity="1.5388114750385284e-01" nType="-99"/>
          <Node pos="r" depth="2" NCoef="0" IVar="-1" Cut="0.0000000000000000e+00" cType="1" res="2.2557931952178478e-03" rms="4.9233144521713257e-01" purity="4.1662427783012390e-01" nType="-99"/>
        </Node>
        <Node pos="r" depth="1" NCoef="0" IVar="6" Cut="7.1428574621677399e-02" cType="1" res="-2.7700275182723999e-01" rms="1.8099442124366760e-01" purity="3.4046702086925507e-02" nType="0">
          <Node pos="l" depth="2" NCoef="0" IVar="-1" Cut="0.0000000000000000e+00" cType="1" res="-6.1438358388841152e-03" rms="3.1082603335380554e-01" purity="1.0890317708253860e-01" nType="-99"/>
          <Node pos="r" depth="2" NCoef="0" IVar="-1" Cut="0.0000000000000000e+00" cType="1" res="-8.4844231605529785e-03" rms="1.6039063036441803e-01" purity="2.6427889242768288e-02" nType="-99"/>
        </Node>
      </Node>
    </BinaryTree>
    <BinaryTree type="DecisionTree" boostWeight="1.0000000000000000e+00" itree="25">
      <Node pos="s" depth="0" NCoef="0" IVar="6" Cut="1.7857143655419350e-02" cType="1" res="-2.5150820612907410e-01" rms="2.3779152333736420e-01" purity="1.4104500412940979e-01" nType="0">
        <Node pos="l" depth="1" NCoef="0" IVar="10" Cut="7.4998724460601807e-01" cType="1" res="-6.0673128813505173e-02" rms="4.3893256783485413e-01" purity="2.6549917459487915e-01" nType="0">
          <Node pos="l" depth="2" NCoef="0" IVar="-1" Cut="0.0000000000000000e+00" cType="1" res="-1.9149507861584425e-03" rms="3.5796114802360535e-01" purity="2.6228591799736023e-01" nType="-99"/>
          <Node pos="r" depth="2" NCoef="0" IVar="-1" Cut="0.0000000000000000e+00" cType="1" res="-1.7510815523564816e-03" rms="4.9064335227012634e-01" purity="2.6956918835639954e-01" nType="-99"/>
        </Node>
        <Node pos="r" depth="1" NCoef="0" IVar="8" Cut="8.9285716414451599e-02" cType="1" res="-2.7702549099922180e-01" rms="1.8117220699787140e-01" purity="1.2440376728773117e-01" nType="0">
          <Node pos="l" depth="2" NCoef="0" IVar="-1" Cut="0.0000000000000000e+00" cType="1" res="-6.1044527683407068e-04" rms="3.0749899148941040e-01" purity="3.0461075901985168e-01" nType="-99"/>
          <Node pos="r" depth="2" NCoef="0" IVar="-1" Cut="0.0000000000000000e+00" cType="1" res="-6.3544311560690403e-03" rms="1.5592706203460693e-01" purity="1.0145512223243713e-01" nType="-99"/>
        </Node>
      </Node>
    </BinaryTree>
    <BinaryTree type="DecisionTree" boostWeight="1.0000000000000000e+00" itree="26">
      <Node pos="s" depth="0" NCoef="0" IVar="8" Cut="1.7857143655419350e-02" cType="1" res="-2.5142040848731995e-01" rms="2.3799195885658264e-01" purity="7.9689878225326538e-01" nType="0">
        <Node pos="l" depth="1" NCoef="0" IVar="10" Cut="7.3213917016983032e-01" cType="1" res="-6.4994044601917267e-02" rms="4.3716615438461304e-01" purity="4.8071345686912537e-01" nType="0">
          <Node pos="l" depth="2" NCoef="0" IVar="-1" Cut="0.0000000000000000e+00" cType="1" res="6.8715857341885567e-03" rms="3.6079248785972595e-01" purity="5.9665679931640625e-01" nType="-99"/>
          <Node pos="r" depth="2" NCoef="0" IVar="-1" Cut="0.0000000000000000e+00" cType="1" res="-2.1883753652218729e-04" rms="4.9060910940170288e-01" purity="3.2635244727134705e-01" nType="-99"/>
        </Node>
        <Node pos="r" depth="1" NCoef="0" IVar="6" Cut="5.3571429103612900e-02" cType="1" res="-2.7727335691452026e-01" rms="1.8028791248798370e-01" purity="8.4074622392654419e-01" nType="0">
          <Node pos="l" depth="2" NCoef="0" IVar="-1" Cut="0.0000000000000000e+00" cType="1" res="5.0378898158669472e-03" rms="3.2343593239784241e-01" purity="5.3578251600265503e-01" nType="-99"/>
          <Node pos="r" depth="2" NCoef="0" IVar="-1" Cut="0.0000000000000000e+00" cType="1" res="1.3492316007614136e-02" rms="1.6104494035243988e-01" purity="8.6617624759674072e-01" nType="-99"/>
        </Node>
      </Node>
    </BinaryTree>
    <BinaryTree type="DecisionTree" boostWeight="1.0000000000000000e+00" itree="27">
      <Node pos="s" depth="0" NCoef="0" IVar="6" Cut="1.7857143655419350e-02" cType="1" res="-2.4848034977912903e-01" rms="2.3856985569000244e-01" purity="6.2119614332914352e-02" nType="0">
        <Node pos="l" depth="1" NCoef="0" IVar="10" Cut="7.4999934434890747e-01" cType="1" res="-5.7927273213863373e-02" rms="4.3958610296249390e-01" purity="2.6808604598045349e-01" nType="0">
          <Node pos="l" depth="2" NCoef="0" IVar="-1" Cut="0.0000000000000000e+00" cType="1" res="-4.9127028323709965e-03" rms="3.5854056477546692e-01" purity="1.5170191228389740e-01" nType="-99"/>
          <Node pos="r" depth="2" NCoef="0" IVar="-1" Cut="0.0000000000000000e+00" cType="1" res="2.2528243716806173e-03" rms="4.9080815911293030e-01" purity="4.1404396295547485e-01" nType="-99"/>
        </Node>
        <Node pos="r" depth="1" NCoef="0" IVar="8" Cut="7.1428574621677399e-02" cType="1" res="-2.7382904291152954e-01" rms="1.8250611424446106e-01" purity="3.4720543771982193e-02" nType="0">
          <Node pos="l" depth="2" NCoef="0" IVar="-1" Cut="0.0000000000000000e+00" cType="1" res="-5.9519191272556782e-03" rms="3.1685474514961243e-01" purity="1.1429431289434433e-01" nType="-99"/>
          <Node pos="r" depth="2" NCoef="0" IVar="-1" Cut="0.0000000000000000e+00" cType="1" res="-8.4592541679739952e-03" rms="1.5899728238582611e-01" purity="2.5970330461859703e-02" nType="-99"/>
        </Node>
      </Node>
    </BinaryTree>
    <BinaryTree type="DecisionTree" boostWeight="1.0000000000000000e+00" itree="28">
      <Node pos="s" depth="0" NCoef="0" IVar="6" Cut="1.7857143655419350e-02" cType="1" res="-2.4920754134654999e-01" rms="2.3721194267272949e-01" purity="1.4262686669826508e-01" nType="0">
        <Node pos="l" depth="1" NCoef="0" IVar="10" Cut="7.4999642372131348e-01" cType="1" res="-5.9655867516994476e-02" rms="4.3860867619514465e-01" purity="2.6771405339241028e-01" nType="0">
          <Node pos="l" depth="2" NCoef="0" IVar="-1" Cut="0.0000000000000000e+00" cType="1" res="-1.8411162309348583e-03" rms="3.5777971148490906e-01" purity="2.6428171992301941e-01" nType="-99"/>
          <Node pos="r" depth="2" NCoef="0" IVar="-1" Cut="0.0000000000000000e+00" cType="1" res="-1.6652456251904368e-03" rms="4.9056831002235413e-01" purity="2.7208697795867920e-01" nType="-99"/>
        </Node>
        <Node pos="r" depth="1" NCoef="0" IVar="8" Cut="1.0714285820722580e-01" cType="1" res="-2.7436304092407227e-01" rms="1.8112285435199738e-01" purity="1.2602649629116058e-01" nType="0">
          <Node pos="l" depth="2" NCoef="0" IVar="-1" Cut="0.0000000000000000e+00" cType="1" res="-6.8820972228422761e-04" rms="3.0059286952018738e-01" purity="3.0026334524154663e-01" nType="-99"/>
          <Node pos="r" depth="2" NCoef="0" IVar="-1" Cut="0.0000000000000000e+00" cType="1" res="-6.3430080190300941e-03" rms="1.5401378273963928e-01" purity="1.0049449652433395e-01" nType="-99"/>
        </Node>
      </Node>
    </BinaryTree>
    <BinaryTree type="DecisionTree" boostWeight="1.0000000000000000e+00" itree="29">
      <Node pos="s" depth="0" NCoef="0" IVar="6" Cut="1.7857143655419350e-02" cType="1" res="-2.4866434931755066e-01" rms="2.3822873830795288e-01" purity="7.9686063528060913e-01" nType="0">
        <Node pos="l" depth="1" NCoef="0" IVar="10" Cut="7.4999642372131348e-01" cType="1" res="-5.8263733983039856e-02" rms="4.3939355015754700e-01" purity="4.6613231301307678e-01" nType="0">
          <Node pos="l" depth="2" NCoef="0" IVar="-1" Cut="0.0000000000000000e+00" cType="1" res="6.5466007217764854e-03" rms="3.6047509312629700e-01" purity="5.8792263269424438e-01" nType="-99"/>
          <Node pos="r" depth="2" NCoef="0" IVar="-1" Cut="0.0000000000000000e+00" cType="1" res="-7.1582454256713390e-04" rms="4.9072247743606567e-01" purity="3.1000563502311707e-01" nType="-99"/>
        </Node>
        <Node pos="r" depth="1" NCoef="0" IVar="8" Cut="3.5714287310838699e-02" cType="1" res="-2.7399668097496033e-01" rms="1.8207606673240662e-01" purity="8.4086328744888306e-01" nType="0">
          <Node pos="l" depth="2" NCoef="0" IVar="-1" Cut="0.0000000000000000e+00" cType="1" res="5.3345216438174248e-03" rms="3.4241658449172974e-01" purity="5.4272454977035522e-01" nType="-99"/>
          <Node pos="r" depth="2" NCoef="0" IVar="-1" Cut="0.0000000000000000e+00" cType="1" res="1.3163162395358086e-02" rms="1.6353198885917664e-01" purity="8.6137026548385620e-01" nType="-99"/>
        </Node>
      </Node>
    </BinaryTree>
    <BinaryTree type="DecisionTree" boostWeight="1.0000000000000000e+00" itree="30">
      <Node pos="s" depth="0" NCoef="0" IVar="6" Cut="1.7857143655419350e-02" cType="1" res="-2.4636676907539368e-01" rms="2.3771862685680389e-01" purity="6.1769790947437286e-02" nType="0">
        <Node pos="l" depth="1" NCoef="0" IVar="10" Cut="7.4999934434890747e-01" cType="1" res="-5.9650838375091553e-02" rms="4.3810686469078064e-01" purity="2.6567885279655457e-01" nType="0">
          <Node pos="l" depth="2" NCoef="0" IVar="-1" Cut="0.0000000000000000e+00" cType="1" res="-4.8630814999341965e-03" rms="3.5908868908882141e-01" purity="1.5223474800586700e-01" nType="-99"/>
          <Node pos="r" depth="2" NCoef="0" IVar="-1" Cut="0.0000000000000000e+00" cType="1" res="2.1170654799789190e-03" rms="4.9013569951057434e-01" purity="4.0998780727386475e-01" nType="-99"/>
        </Node>
        <Node pos="r" depth="1" NCoef="0" IVar="8" Cut="8.9285716414451599e-02" cType="1" res="-2.7124884724617004e-01" rms="1.8220275640487671e-01" purity="3.4596513956785202e-02" nType="0">
          <Node pos="l" depth="2" NCoef="0" IVar="-1" Cut="0.0000000000000000e+00" cType="1" res="-6.1589106917381287e-03" rms="3.0551144480705261e-01" purity="1.0515307635068893e-01" nType="-99"/>
          <Node pos="r" depth="2" NCoef="0" IVar="-1" Cut="0.0000000000000000e+00" cType="1" res="-8.4327729418873787e-03" rms="1.5762314200401306e-01" purity="2.5510409846901894e-02" nType="-99"/>
        </Node>
      </Node>
    </BinaryTree>
    <BinaryTree type="DecisionTree" boostWeight="1.0000000000000000e+00" itree="31">
      <Node pos="s" depth="0" NCoef="0" IVar="6" Cut="1.7857143655419350e-02" cType="1" res="-2.4586042761802673e-01" rms="2.3864378035068512e-01" purity="1.4185427129268646e-01" nType="0">
        <Node pos="l" depth="1" NCoef="0" IVar="10" Cut="7.6785647869110107e-01" cType="1" res="-5.8385461568832397e-02" rms="4.3871957063674927e-01" purity="2.6724639534950256e-01" nType="0">
          <Node pos="l" depth="2" NCoef="0" IVar="-1" Cut="0.0000000000000000e+00" cType="1" res="-1.8111282261088490e-03" rms="3.5981243848800659e-01" purity="2.6476183533668518e-01" nType="-99"/>
          <Node pos="r" depth="2" NCoef="0" IVar="-1" Cut="0.0000000000000000e+00" cType="1" res="-1.6922850627452135e-03" rms="4.9216893315315247e-01" purity="2.7061924338340759e-01" nType="-99"/>
        </Node>
        <Node pos="r" depth="1" NCoef="0" IVar="8" Cut="7.1428574621677399e-02" cType="1" res="-2.7091369032859802e-01" rms="1.8307249248027802e-01" purity="1.2509746849536896e-01" nType="0">
          <Node pos="l" depth="2" NCoef="0" IVar="-1" Cut="0.0000000000000000e+00" cType="1" res="-4.8336217878386378e-04" rms="3.1866964697837830e-01" purity="3.0923196673393250e-01" nType="-99"/>
          <Node pos="r" depth="2" NCoef="0" IVar="-1" Cut="0.0000000000000000e+00" cType="1" res="-6.1741168610751629e-03" rms="1.5931564569473267e-01" purity="1.0487595200538635e-01" nType="-99"/>
        </Node>
      </Node>
    </BinaryTree>
    <BinaryTree type="DecisionTree" boostWeight="1.0000000000000000e+00" itree="32">
      <Node pos="s" depth="0" NCoef="0" IVar="6" Cut="1.7857143655419350e-02" cType="1" res="-2.4613657593727112e-01" rms="2.3815260827541351e-01" purity="7.9599350690841675e-01" nType="0">
        <Node pos="l" depth="1" NCoef="0" IVar="10" Cut="7.4999529123306274e-01" cType="1" res="-5.9700354933738708e-02" rms="4.3800958991050720e-01" purity="4.6891874074935913e-01" nType="0">
          <Node pos="l" depth="2" NCoef="0" IVar="-1" Cut="0.0000000000000000e+00" cType="1" res="6.4324014820158482e-03" rms="3.6158275604248047e-01" purity="5.8677524328231812e-01" nType="-99"/>
          <Node pos="r" depth="2" NCoef="0" IVar="-1" Cut="0.0000000000000000e+00" cType="1" res="-5.8421416906639934e-04" rms="4.9013477563858032e-01" purity="3.1444627046585083e-01" nType="-99"/>
        </Node>
        <Node pos="r" depth="1" NCoef="0" IVar="8" Cut="7.1428574621677399e-02" cType="1" res="-2.7107033133506775e-01" rms="1.8268424272537231e-01" purity="8.3973610401153564e-01" nType="0">
          <Node pos="l" depth="2" NCoef="0" IVar="-1" Cut="0.0000000000000000e+00" cType="1" res="5.9338412247598171e-03" rms="3.1598174571990967e-01" purity="5.7530790567398071e-01" nType="-99"/>
          <Node pos="r" depth="2" NCoef="0" IVar="-1" Cut="0.0000000000000000e+00" cType="1" res="1.3160444796085358e-02" rms="1.5941275656223297e-01" purity="8.6890131235122681e-01" nType="-99"/>
        </Node>
      </Node>
    </BinaryTree>
    <BinaryTree type="DecisionTree" boostWeight="1.0000000000000000e+00" itree="33">
      <Node pos="s" depth="0" NCoef="0" IVar="6" Cut="1.7857143655419350e-02" cType="1" res="-2.4342606961727142e-01" rms="2.3834221065044403e-01" purity="6.2291204929351807e-02" nType="0">
        <Node pos="l" depth="1" NCoef="0" IVar="10" Cut="7.4999624490737915e-01" cType="1" res="-5.5634900927543640e-02" rms="4.3947833776473999e-01" purity="2.6907512545585632e-01" nType="0">
          <Node pos="l" depth="2" NCoef="0" IVar="-1" Cut="0.0000000000000000e+00" cType="1" res="-4.7860327176749706e-03" rms="3.6048722267150879e-01" purity="1.5368311107158661e-01" nType="-99"/>
          <Node pos="r" depth="2" NCoef="0" IVar="-1" Cut="0.0000000000000000e+00" cType="1" res="2.3010014556348324e-03" rms="4.9129852652549744e-01" purity="4.1723147034645081e-01" nType="-99"/>
        </Node>
        <Node pos="r" depth="1" NCoef="0" IVar="8" Cut="3.5714287310838699e-02" cType="1" res="-2.6833319664001465e-01" rms="1.8283058702945709e-01" purity="3.4865032881498337e-02" nType="0">
          <Node pos="l" depth="2" NCoef="0" IVar="-1" Cut="0.0000000000000000e+00" cType="1" res="-5.2833678200840950e-03" rms="3.4222745895385742e-01" purity="1.3658240437507629e-01" nType="-99"/>
          <Node pos="r" depth="2" NCoef="0" IVar="-1" Cut="0.0000000000000000e+00" cType="1" res="-8.3202691748738289e-03" rms="1.6471171379089355e-01" purity="2.7931893244385719e-02" nType="-99"/>
        </Node>
      </Node>
    </BinaryTree>
    <BinaryTree type="DecisionTree" boostWeight="1.0000000000000000e+00" itree="34">
      <Node pos="s" depth="0" NCoef="0" IVar="6" Cut="1.7857143655419350e-02" cType="1" res="-2.4439702928066254e-01" rms="2.3662644624710083e-01" purity="1.4193376898765564e-01" nType="0">
        <Node pos="l" depth="1" NCoef="0" IVar="10" Cut="7.4999934434890747e-01" cType="1" res="-6.0606323182582855e-02" rms="4.3685585260391235e-01" purity="2.6720783114433289e-01" nType="0">
          <Node pos="l" depth="2" NCoef="0" IVar="-1" Cut="0.0000000000000000e+00" cType="1" res="-1.8852492794394493e-03" rms="3.5561838746070862e-01" purity="2.6157325506210327e-01" nType="-99"/>
          <Node pos="r" depth="2" NCoef="0" IVar="-1" Cut="0.0000000000000000e+00" cType="1" res="-1.5689311549067497e-03" rms="4.9029153585433960e-01" purity="2.7439764142036438e-01" nType="-99"/>
        </Node>
        <Node pos="r" depth="1" NCoef="0" IVar="8" Cut="3.5714287310838699e-02" cType="1" res="-2.6909983158111572e-01" rms="1.8087773025035858e-01" purity="1.2509602308273315e-01" nType="0">
          <Node pos="l" depth="2" NCoef="0" IVar="-1" Cut="0.0000000000000000e+00" cType="1" res="-7.1110720455180854e-05" rms="3.3914217352867126e-01" purity="3.2632175087928772e-01" nType="-99"/>
          <Node pos="r" depth="2" NCoef="0" IVar="-1" Cut="0.0000000000000000e+00" cType="1" res="-5.9437840245664120e-03" rms="1.6306197643280029e-01" purity="1.1147954314947128e-01" nType="-99"/>
        </Node>
      </Node>
    </BinaryTree>
    <BinaryTree type="DecisionTree" boostWeight="1.0000000000000000e+00" itree="35">
      <Node pos="s" depth="0" NCoef="0" IVar="6" Cut="1.7857143655419350e-02" cType="1" res="-2.4416370689868927e-01" rms="2.3704865574836731e-01" purity="7.9591012001037598e-01" nType="0">
        <Node pos="l" depth="1" NCoef="0" IVar="10" Cut="7.6785647869110107e-01" cType="1" res="-5.9279147535562515e-02" rms="4.3764412403106689e-01" purity="4.6681839227676392e-01" nType="0">
          <Node pos="l" depth="2" NCoef="0" IVar="-1" Cut="0.0000000000000000e+00" cType="1" res="6.2772985547780991e-03" rms="3.5875573754310608e-01" purity="5.8340483903884888e-01" nType="-99"/>
          <Node pos="r" depth="2" NCoef="0" IVar="-1" Cut="0.0000000000000000e+00" cType="1" res="-6.7148613743484020e-04" rms="4.9137613177299500e-01" purity="3.1100103259086609e-01" nType="-99"/>
        </Node>
        <Node pos="r" depth="1" NCoef="0" IVar="8" Cut="5.3571429103612900e-02" cType="1" res="-2.6886746287345886e-01" rms="1.8146806955337524e-01" purity="8.3988243341445923e-01" nType="0">
          <Node pos="l" depth="2" NCoef="0" IVar="-1" Cut="0.0000000000000000e+00" cType="1" res="5.3344452753663063e-03" rms="3.2657474279403687e-01" purity="5.5268216133117676e-01" nType="-99"/>
          <Node pos="r" depth="2" NCoef="0" IVar="-1" Cut="0.0000000000000000e+00" cType="1" res="1.2885983102023602e-02" rms="1.6037382185459137e-01" purity="8.6560654640197754e-01" nType="-99"/>
        </Node>
      </Node>
    </BinaryTree>
    <BinaryTree type="DecisionTree" boostWeight="1.0000000000000000e+00" itree="36">
      <Node pos="s" depth="0" NCoef="0" IVar="8" Cut="1.7857143655419350e-02" cType="1" res="-2.4170491099357605e-01" rms="2.3689861595630646e-01" purity="6.1672698706388474e-02" nType="0">
        <Node pos="l" depth="1" NCoef="0" IVar="10" Cut="7.3214221000671387e-01" cType="1" res="-5.8905940502882004e-02" rms="4.3712705373764038e-01" purity="2.6513013243675232e-01" nType="0">
          <Node pos="l" depth="2" NCoef="0" IVar="-1" Cut="0.0000000000000000e+00" cType="1" res="-4.7922558151185513e-03" rms="3.5883823037147522e-01" purity="1.5184929966926575e-01" nType="-99"/>
          <Node pos="r" depth="2" NCoef="0" IVar="-1" Cut="0.0000000000000000e+00" cType="1" res="2.1470678038895130e-03" rms="4.9103611707687378e-01" purity="4.1368749737739563e-01" nType="-99"/>
        </Node>
        <Node pos="r" depth="1" NCoef="0" IVar="6" Cut="7.1428574621677399e-02" cType="1" res="-2.6692479848861694e-01" rms="1.7959702014923096e-01" purity="3.3602666109800339e-02" nType="0">
          <Node pos="l" depth="2" NCoef="0" IVar="-1" Cut="0.0000000000000000e+00" cType="1" res="-6.0262857005000114e-03" rms="3.0958622694015503e-01" purity="1.0840564966201782e-01" nType="-99"/>
          <Node pos="r" depth="2" NCoef="0" IVar="-1" Cut="0.0000000000000000e+00" cType="1" res="-8.3382120355963707e-03" rms="1.5901991724967957e-01" purity="2.5972653180360794e-02" nType="-99"/>
        </Node>
      </Node>
    </BinaryTree>
    <BinaryTree type="DecisionTree" boostWeight="1.0000000000000000e+00" itree="37">
      <Node pos="s" depth="0" NCoef="0" IVar="8" Cut="1.7857143655419350e-02" cType="1" res="-2.4219070374965668e-01" rms="2.3602080345153809e-01" purity="1.4207632839679718e-01" nType="0">
        <Node pos="l" depth="1" NCoef="0" IVar="10" Cut="7.3213887214660645e-01" cType="1" res="-6.3767038285732269e-02" rms="4.3441659212112427e-01" purity="2.6139825582504272e-01" nType="0">
          <Node pos="l" depth="2" NCoef="0" IVar="-1" Cut="0.0000000000000000e+00" cType="1" res="-2.0710793323814869e-03" rms="3.5674458742141724e-01" purity="2.5537064671516418e-01" nType="-99"/>
          <Node pos="r" depth="2" NCoef="0" IVar="-1" Cut="0.0000000000000000e+00" cType="1" res="-1.6553743043914437e-03" rms="4.9023965001106262e-01" purity="2.6955765485763550e-01" nType="-99"/>
        </Node>
        <Node pos="r" depth="1" NCoef="0" IVar="6" Cut="7.1428574621677399e-02" cType="1" res="-2.6669278740882874e-01" rms="1.8018822371959686e-01" purity="1.2569040060043335e-01" nType="0">
          <Node pos="l" depth="2" NCoef="0" IVar="-1" Cut="0.0000000000000000e+00" cType="1" res="5.0655985251069069e-04" rms="3.1075486540794373e-01" purity="3.3772200345993042e-01" nType="-99"/>
          <Node pos="r" depth="2" NCoef="0" IVar="-1" Cut="0.0000000000000000e+00" cType="1" res="-6.1282217502593994e-03" rms="1.5954658389091492e-01" purity="1.0411908477544785e-01" nType="-99"/>
        </Node>
      </Node>
    </BinaryTree>
    <BinaryTree type="DecisionTree" boostWeight="1.0000000000000000e+00" itree="38">
      <Node pos="s" depth="0" NCoef="0" IVar="8" Cut="1.7857143655419350e-02" cType="1" res="-2.4163582921028137e-01" rms="2.3700904846191406e-01" purity="7.9562711715698242e-01" nType="0">
        <Node pos="l" depth="1" NCoef="0" IVar="10" Cut="7.3214221000671387e-01" cType="1" res="-6.0887515544891357e-02" rms="4.3600013852119446e-01" purity="4.7705581784248352e-01" nType="0">
          <Node pos="l" depth="2" NCoef="0" IVar="-1" Cut="0.0000000000000000e+00" cType="1" res="6.5490906126797199e-03" rms="3.5788333415985107e-01" purity="5.9645116329193115e-01" nType="-99"/>
          <Node pos="r" depth="2" NCoef="0" IVar="-1" Cut="0.0000000000000000e+00" cType="1" res="-5.0729850772768259e-04" rms="4.9091854691505432e-01" purity="3.1733903288841248e-01" nType="-99"/>
        </Node>
        <Node pos="r" depth="1" NCoef="0" IVar="6" Cut="5.3571429103612900e-02" cType="1" res="-2.6648944616317749e-01" rms="1.8068873882293701e-01" purity="8.3943194150924683e-01" nType="0">
          <Node pos="l" depth="2" NCoef="0" IVar="-1" Cut="0.0000000000000000e+00" cType="1" res="4.6640587970614433e-03" rms="3.2652056217193604e-01" purity="5.3496736288070679e-01" nType="-99"/>
          <Node pos="r" depth="2" NCoef="0" IVar="-1" Cut="0.0000000000000000e+00" cType="1" res="1.2692078948020935e-02" rms="1.6116267442703247e-01" purity="8.6470419168472290e-01" nType="-99"/>
        </Node>
      </Node>
    </BinaryTree>
    <BinaryTree type="DecisionTree" boostWeight="1.0000000000000000e+00" itree="39">
      <Node pos="s" depth="0" NCoef="0" IVar="8" Cut="1.7857143655419350e-02" cType="1" res="-2.3934009671211243e-01" rms="2.3664592206478119e-01" purity="6.1663065105676651e-02" nType="0">
        <Node pos="l" depth="1" NCoef="0" IVar="10" Cut="7.3213934898376465e-01" cType="1" res="-6.1138473451137543e-02" rms="4.3533787131309509e-01" purity="2.6225534081459045e-01" nType="0">
          <Node pos="l" depth="2" NCoef="0" IVar="-1" Cut="0.0000000000000000e+00" cType="1" res="-4.8049502074718475e-03" rms="3.5732918977737427e-01" purity="1.5030570328235626e-01" nType="-99"/>
          <Node pos="r" depth="2" NCoef="0" IVar="-1" Cut="0.0000000000000000e+00" cType="1" res="2.0402546506375074e-03" rms="4.9059838056564331e-01" purity="4.1076016426086426e-01" nType="-99"/>
        </Node>
        <Node pos="r" depth="1" NCoef="0" IVar="6" Cut="3.5714287310838699e-02" cType="1" res="-2.6393720507621765e-01" rms="1.8050938844680786e-01" purity="3.3975403755903244e-02" nType="0">
          <Node pos="l" depth="2" NCoef="0" IVar="-1" Cut="0.0000000000000000e+00" cType="1" res="-5.3056296892464161e-03" rms="3.3967354893684387e-01" purity="1.3421370089054108e-01" nType="-99"/>
          <Node pos="r" depth="2" NCoef="0" IVar="-1" Cut="0.0000000000000000e+00" cType="1" res="-8.2500008866190910e-03" rms="1.6385570168495178e-01" purity="2.7631333097815514e-02" nType="-99"/>
        </Node>
      </Node>
    </BinaryTree>
    <BinaryTree type="DecisionTree" boostWeight="1.0000000000000000e+00" itree="40">
      <Node pos="s" depth="0" NCoef="0" IVar="6" Cut="1.7857143655419350e-02" cType="1" res="-2.3876000940799713e-01" rms="2.3762203752994537e-01" purity="1.4256507158279419e-01" nType="0">
        <Node pos="l" depth="1" NCoef="0" IVar="10" Cut="7.4999594688415527e-01" cType="1" res="-5.2776142954826355e-02" rms="4.3966194987297058e-01" purity="2.6811480522155762e-01" nType="0">
          <Node pos="l" depth="2" NCoef="0" IVar="-1" Cut="0.0000000000000000e+00" cType="1" res="-1.7890947638079524e-03" rms="3.6117616295814514e-01" purity="2.6388162374496460e-01" nType="-99"/>
          <Node pos="r" depth="2" NCoef="0" IVar="-1" Cut="0.0000000000000000e+00" cType="1" res="-1.5720243100076914e-03" rms="4.9118337035179138e-01" purity="2.7346131205558777e-01" nType="-99"/>
        </Node>
        <Node pos="r" depth="1" NCoef="0" IVar="8" Cut="3.5714287310838699e-02" cType="1" res="-2.6350104808807373e-01" rms="1.8178933858871460e-01" purity="1.2586346268653870e-01" nType="0">
          <Node pos="l" depth="2" NCoef="0" IVar="-1" Cut="0.0000000000000000e+00" cType="1" res="-4.6890654630260542e-05" rms="3.4479910135269165e-01" purity="3.2608997821807861e-01" nType="-99"/>
          <Node pos="r" depth="2" NCoef="0" IVar="-1" Cut="0.0000000000000000e+00" cType="1" res="-5.8463709428906441e-03" rms="1.6296033561229706e-01" purity="1.1213751882314682e-01" nType="-99"/>
        </Node>
      </Node>
    </BinaryTree>
    <BinaryTree type="DecisionTree" boostWeight="1.0000000000000000e+00" itree="41">
      <Node pos="s" depth="0" NCoef="0" IVar="8" Cut="1.7857143655419350e-02" cType="1" res="-2.3933245241641998e-01" rms="2.3662401735782623e-01" purity="7.9657918214797974e-01" nType="0">
        <Node pos="l" depth="1" NCoef="0" IVar="10" Cut="7.3213917016983032e-01" cType="1" res="-5.8036390691995621e-02" rms="4.3704268336296082e-01" purity="4.7858902812004089e-01" nType="0">
          <Node pos="l" depth="2" NCoef="0" IVar="-1" Cut="0.0000000000000000e+00" cType="1" res="6.5147029235959053e-03" rms="3.6135694384574890e-01" purity="5.9815603494644165e-01" nType="-99"/>
          <Node pos="r" depth="2" NCoef="0" IVar="-1" Cut="0.0000000000000000e+00" cType="1" res="-4.2257091263309121e-04" rms="4.9084818363189697e-01" purity="3.2008853554725647e-01" nType="-99"/>
        </Node>
        <Node pos="r" depth="1" NCoef="0" IVar="6" Cut="7.1428574621677399e-02" cType="1" res="-2.6441997289657593e-01" rms="1.7924848198890686e-01" purity="8.4058225154876709e-01" nType="0">
          <Node pos="l" depth="2" NCoef="0" IVar="-1" Cut="0.0000000000000000e+00" cType="1" res="4.8828204162418842e-03" rms="3.1154194474220276e-01" purity="5.4976409673690796e-01" nType="-99"/>
          <Node pos="r" depth="2" NCoef="0" IVar="-1" Cut="0.0000000000000000e+00" cType="1" res="1.2645657174289227e-02" rms="1.5846861898899078e-01" purity="8.6981952190399170e-01" nType="-99"/>
        </Node>
      </Node>
    </BinaryTree>
    <BinaryTree type="DecisionTree" boostWeight="1.0000000000000000e+00" itree="42">
      <Node pos="s" depth="0" NCoef="0" IVar="8" Cut="1.7857143655419350e-02" cType="1" res="-2.3634903132915497e-01" rms="2.3757781088352203e-01" purity="6.2326151877641678e-02" nType="0">
        <Node pos="l" depth="1" NCoef="0" IVar="10" Cut="7.3214221000671387e-01" cType="1" res="-5.9158839285373688e-02" rms="4.3573895096778870e-01" purity="2.6361745595932007e-01" nType="0">
          <Node pos="l" depth="2" NCoef="0" IVar="-1" Cut="0.0000000000000000e+00" cType="1" res="-4.7311247326433659e-03" rms="3.5858914256095886e-01" purity="1.5159128606319427e-01" nType="-99"/>
          <Node pos="r" depth="2" NCoef="0" IVar="-1" Cut="0.0000000000000000e+00" cType="1" res="2.0425920374691486e-03" rms="4.9066230654716492e-01" purity="4.1159608960151672e-01" nType="-99"/>
        </Node>
        <Node pos="r" depth="1" NCoef="0" IVar="6" Cut="5.3571429103612900e-02" cType="1" res="-2.6089847087860107e-01" rms="1.8167206645011902e-01" purity="3.4437522292137146e-02" nType="0">
          <Node pos="l" depth="2" NCoef="0" IVar="-1" Cut="0.0000000000000000e+00" cType="1" res="-5.6408098898828030e-03" rms="3.2411521673202515e-01" purity="1.2032438069581985e-01" nType="-99"/>
          <Node pos="r" depth="2" NCoef="0" IVar="-1" Cut="0.0000000000000000e+00" cType="1" res="-8.2220332697033882e-03" rms="1.6273269057273865e-01" purity="2.7235783636569977e-02" nType="-99"/>
        </Node>
      </Node>
    </BinaryTree>
    <BinaryTree type="DecisionTree" boostWeight="1.0000000000000000e+00" itree="43">
      <Node pos="s" depth="0" NCoef="0" IVar="8" Cut="1.7857143655419350e-02" cType="1" res="-2.3699922859668732e-01" rms="2.3630522191524506e-01" purity="1.4182387292385101e-01" nType="0">
        <Node pos="l" depth="1" NCoef="0" IVar="10" Cut="7.3213887214660645e-01" cType="1" res="-5.9164602309465408e-02" rms="4.3560513854026794e-01" purity="2.5924956798553467e-01" nType="0">
          <Node pos="l" depth="2" NCoef="0" IVar="-1" Cut="0.0000000000000000e+00" cType="1" res="-2.0925998687744141e-03" rms="3.5782277584075928e-01" purity="2.5350022315979004e-01" nType="-99"/>
          <Node pos="r" depth="2" NCoef="0" IVar="-1" Cut="0.0000000000000000e+00" cType="1" res="-1.7040432430803776e-03" rms="4.9127835035324097e-01" purity="2.6698756217956543e-01" nType="-99"/>
        </Node>
        <Node pos="r" depth="1" NCoef="0" IVar="6" Cut="7.1428574621677399e-02" cType="1" res="-2.6137310266494751e-01" rms="1.8043759465217590e-01" purity="1.2572960555553436e-01" nType="0">
          <Node pos="l" depth="2" NCoef="0" IVar="-1" Cut="0.0000000000000000e+00" cType="1" res="4.5535169192589819e-04" rms="3.1673651933670044e-01" purity="3.3519282937049866e-01" nType="-99"/>
          <Node pos="r" depth="2" NCoef="0" IVar="-1" Cut="0.0000000000000000e+00" cType="1" res="-6.0446355491876602e-03" rms="1.5839266777038574e-01" purity="1.0430839657783508e-01" nType="-99"/>
        </Node>
      </Node>
    </BinaryTree>
    <BinaryTree type="DecisionTree" boostWeight="1.0000000000000000e+00" itree="44">
      <Node pos="s" depth="0" NCoef="0" IVar="8" Cut="1.7857143655419350e-02" cType="1" res="-2.3641137778759003e-01" rms="2.3739829659461975e-01" purity="7.9539662599563599e-01" nType="0">
        <Node pos="l" depth="1" NCoef="0" IVar="10" Cut="7.3213917016983032e-01" cType="1" res="-5.7534240186214447e-02" rms="4.3649569153785706e-01" purity="4.7769266366958618e-01" nType="0">
          <Node pos="l" depth="2" NCoef="0" IVar="-1" Cut="0.0000000000000000e+00" cType="1" res="6.3910591416060925e-03" rms="3.5961744189262390e-01" purity="5.9647798538208008e-01" nType="-99"/>
          <Node pos="r" depth="2" NCoef="0" IVar="-1" Cut="0.0000000000000000e+00" cType="1" res="-4.8329686978831887e-04" rms="4.9150756001472473e-01" purity="3.1778264045715332e-01" nType="-99"/>
        </Node>
        <Node pos="r" depth="1" NCoef="0" IVar="6" Cut="5.3571429103612900e-02" cType="1" res="-2.6113310456275940e-01" rms="1.8105685710906982e-01" purity="8.3930492401123047e-01" nType="0">
          <Node pos="l" depth="2" NCoef="0" IVar="-1" Cut="0.0000000000000000e+00" cType="1" res="4.6472107060253620e-03" rms="3.2375448942184448e-01" purity="5.3895169496536255e-01" nType="-99"/>
          <Node pos="r" depth="2" NCoef="0" IVar="-1" Cut="0.0000000000000000e+00" cType="1" res="1.2329106219112873e-02" rms="1.6216492652893066e-01" purity="8.6434775590896606e-01" nType="-99"/>
        </Node>
      </Node>
    </BinaryTree>
    <BinaryTree type="DecisionTree" boostWeight="1.0000000000000000e+00" itree="45">
      <Node pos="s" depth="0" NCoef="0" IVar="6" Cut="1.7857143655419350e-02" cType="1" res="-2.3480539023876190e-01" rms="2.3583698272705078e-01" purity="6.1510831117630005e-02" nType="0">
        <Node pos="l" depth="1" NCoef="0" IVar="10" Cut="7.4999642372131348e-01" cType="1" res="-5.6465838104486465e-02" rms="4.3616580963134766e-01" purity="2.6510348916053772e-01" nType="0">
          <Node pos="l" depth="2" NCoef="0" IVar="-1" Cut="0.0000000000000000e+00" cType="1" res="-4.6897144056856632e-03" rms="3.5919949412345886e-01" purity="1.5242847800254822e-01" nType="-99"/>
          <Node pos="r" depth="2" NCoef="0" IVar="-1" Cut="0.0000000000000000e+00" cType="1" res="2.0889656152576208e-03" rms="4.8957854509353638e-01" purity="4.1084679961204529e-01" nType="-99"/>
        </Node>
        <Node pos="r" depth="1" NCoef="0" IVar="8" Cut="1.0714285820722580e-01" cType="1" res="-2.5881314277648926e-01" rms="1.8066176772117615e-01" purity="3.4103553742170334e-02" nType="0">
          <Node pos="l" depth="2" NCoef="0" IVar="-1" Cut="0.0000000000000000e+00" cType="1" res="-6.0747032985091209e-03" rms="2.9991111159324646e-01" purity="1.0129406303167343e-01" nType="-99"/>
          <Node pos="r" depth="2" NCoef="0" IVar="-1" Cut="0.0000000000000000e+00" cType="1" res="-8.2758963108062744e-03" rms="1.5400636196136475e-01" purity="2.4326227605342865e-02" nType="-99"/>
        </Node>
      </Node>
    </BinaryTree>
    <BinaryTree type="DecisionTree" boostWeight="1.0000000000000000e+00" itree="46">
      <Node pos="s" depth="0" NCoef="0" IVar="6" Cut="1.7857143655419350e-02" cType="1" res="-2.3420684039592743e-01" rms="2.3693314194679260e-01" purity="1.4184479415416718e-01" nType="0">
        <Node pos="l" depth="1" NCoef="0" IVar="10" Cut="7.4999934434890747e-01" cType="1" res="-5.4421745240688324e-02" rms="4.3717575073242188e-01" purity="2.6665475964546204e-01" nType="0">
          <Node pos="l" depth="2" NCoef="0" IVar="-1" Cut="0.0000000000000000e+00" cType="1" res="-1.8734910991042852e-03" rms="3.5872283577919006e-01" purity="2.6000398397445679e-01" nType="-99"/>
          <Node pos="r" depth="2" NCoef="0" IVar="-1" Cut="0.0000000000000000e+00" cType="1" res="-1.5012524090707302e-03" rms="4.9018302559852600e-01" purity="2.7516916394233704e-01" nType="-99"/>
        </Node>
        <Node pos="r" depth="1" NCoef="0" IVar="8" Cut="7.1428574621677399e-02" cType="1" res="-2.5828778743743896e-01" rms="1.8206508457660675e-01" purity="1.2512737512588501e-01" nType="0">
          <Node pos="l" depth="2" NCoef="0" IVar="-1" Cut="0.0000000000000000e+00" cType="1" res="-3.7811059155501425e-04" rms="3.1248131394386292e-01" purity="3.0881333351135254e-01" nType="-99"/>
          <Node pos="r" depth="2" NCoef="0" IVar="-1" Cut="0.0000000000000000e+00" cType="1" res="-5.9797503054141998e-03" rms="1.5978620946407318e-01" purity="1.0493478924036026e-01" nType="-99"/>
        </Node>
      </Node>
    </BinaryTree>
    <BinaryTree type="DecisionTree" boostWeight="1.0000000000000000e+00" itree="47">
      <Node pos="s" depth="0" NCoef="0" IVar="8" Cut="1.7857143655419350e-02" cType="1" res="-2.3493926227092743e-01" rms="2.3558934032917023e-01" purity="7.9566735029220581e-01" nType="0">
        <Node pos="l" depth="1" NCoef="0" IVar="10" Cut="7.3213911056518555e-01" cType="1" res="-6.0864165425300598e-02" rms="4.3403074145317078e-01" purity="4.7843542695045471e-01" nType="0">
          <Node pos="l" depth="2" NCoef="0" IVar="-1" Cut="0.0000000000000000e+00" cType="1" res="6.3985851593315601e-03" rms="3.5444754362106323e-01" purity="5.9963923692703247e-01" nType="-99"/>
          <Node pos="r" depth="2" NCoef="0" IVar="-1" Cut="0.0000000000000000e+00" cType="1" res="-5.6388368830084801e-04" rms="4.9126911163330078e-01" purity="3.1483641266822815e-01" nType="-99"/>
        </Node>
        <Node pos="r" depth="1" NCoef="0" IVar="6" Cut="3.5714287310838699e-02" cType="1" res="-2.5905072689056396e-01" rms="1.7977279424667358e-01" purity="8.3960771560668945e-01" nType="0">
          <Node pos="l" depth="2" NCoef="0" IVar="-1" Cut="0.0000000000000000e+00" cType="1" res="4.0004677139222622e-03" rms="3.3861428499221802e-01" purity="5.1088988780975342e-01" nType="-99"/>
          <Node pos="r" depth="2" NCoef="0" IVar="-1" Cut="0.0000000000000000e+00" cType="1" res="1.2062363326549530e-02" rms="1.6334326565265656e-01" purity="8.6028039455413818e-01" nType="-99"/>
        </Node>
      </Node>
    </BinaryTree>
    <BinaryTree type="DecisionTree" boostWeight="1.0000000000000000e+00" itree="48">
      <Node pos="s" depth="0" NCoef="0" IVar="6" Cut="1.7857143655419350e-02" cType="1" res="-2.3185119032859802e-01" rms="2.3673897981643677e-01" purity="6.2155470252037048e-02" nType="0">
        <Node pos="l" depth="1" NCoef="0" IVar="10" Cut="7.4999618530273438e-01" cType="1" res="-5.4031219333410263e-02" rms="4.3668952584266663e-01" purity="2.6691359281539917e-01" nType="0">
          <Node pos="l" depth="2" NCoef="0" IVar="-1" Cut="0.0000000000000000e+00" cType="1" res="-4.7064754180610180e-03" rms="3.5772517323493958e-01" purity="1.5082783997058868e-01" nType="-99"/>
          <Node pos="r" depth="2" NCoef="0" IVar="-1" Cut="0.0000000000000000e+00" cType="1" res="2.2635688073933125e-03" rms="4.9055063724517822e-01" purity="4.1749960184097290e-01" nType="-99"/>
        </Node>
        <Node pos="r" depth="1" NCoef="0" IVar="8" Cut="3.5714287310838699e-02" cType="1" res="-2.5567483901977539e-01" rms="1.8221203982830048e-01" purity="3.4722741693258286e-02" nType="0">
          <Node pos="l" depth="2" NCoef="0" IVar="-1" Cut="0.0000000000000000e+00" cType="1" res="-5.0990055315196514e-03" rms="3.4267598390579224e-01" purity="1.3740031421184540e-01" nType="-99"/>
          <Node pos="r" depth="2" NCoef="0" IVar="-1" Cut="0.0000000000000000e+00" cType="1" res="-8.1362165510654449e-03" rms="1.6397881507873535e-01" purity="2.7690647169947624e-02" nType="-99"/>
        </Node>
      </Node>
    </BinaryTree>
    <BinaryTree type="DecisionTree" boostWeight="1.0000000000000000e+00" itree="49">
      <Node pos="s" depth="0" NCoef="0" IVar="6" Cut="1.7857143655419350e-02" cType="1" res="-2.3221945762634277e-01" rms="2.3606906831264496e-01" purity="1.4161220192909241e-01" nType="0">
        <Node pos="l" depth="1" NCoef="0" IVar="10" Cut="7.4999618530273438e-01" cType="1" res="-5.3735401481389999e-02" rms="4.3697354197502136e-01" purity="2.6759085059165955e-01" nType="0">
          <Node pos="l" depth="2" NCoef="0" IVar="-1" Cut="0.0000000000000000e+00" cType="1" res="-1.7515025101602077e-03" rms="3.6039134860038757e-01" purity="2.6363709568977356e-01" nType="-99"/>
          <Node pos="r" depth="2" NCoef="0" IVar="-1" Cut="0.0000000000000000e+00" cType="1" res="-1.5573652926832438e-03" rms="4.8970767855644226e-01" purity="2.7265322208404541e-01" nType="-99"/>
        </Node>
        <Node pos="r" depth="1" NCoef="0" IVar="8" Cut="7.1428574621677399e-02" cType="1" res="-2.5609263777732849e-01" rms="1.8113988637924194e-01" purity="1.2476187944412231e-01" nType="0">
          <Node pos="l" depth="2" NCoef="0" IVar="-1" Cut="0.0000000000000000e+00" cType="1" res="-2.2958077897783369e-04" rms="3.1213185191154480e-01" purity="3.1346818804740906e-01" nType="-99"/>
          <Node pos="r" depth="2" NCoef="0" IVar="-1" Cut="0.0000000000000000e+00" cType="1" res="-5.9640114195644855e-03" rms="1.5890549123287201e-01" purity="1.0418956726789474e-01" nType="-99"/>
        </Node>
      </Node>
    </BinaryTree>
    <BinaryTree type="DecisionTree" boostWeight="1.0000000000000000e+00" itree="50">
      <Node pos="s" depth="0" NCoef="0" IVar="8" Cut="1.7857143655419350e-02" cType="1" res="-2.3236641287803650e-01" rms="2.3584896326065063e-01" purity="7.9504078626632690e-01" nType="0">
        <Node pos="l" depth="1" NCoef="0" IVar="10" Cut="7.3213934898376465e-01" cType="1" res="-6.0285635292530060e-02" rms="4.3354278802871704e-01" purity="4.7872018814086914e-01" nType="0">
          <Node pos="l" depth="2" NCoef="0" IVar="-1" Cut="0.0000000000000000e+00" cType="1" res="6.2254392541944981e-03" rms="3.5570883750915527e-01" purity="5.9614080190658569e-01" nType="-99"/>
          <Node pos="r" depth="2" NCoef="0" IVar="-1" Cut="0.0000000000000000e+00" cType="1" res="-3.9019994437694550e-04" rms="4.9038669466972351e-01" purity="3.2097199559211731e-01" nType="-99"/>
        </Node>
        <Node pos="r" depth="1" NCoef="0" IVar="6" Cut="7.1428574621677399e-02" cType="1" res="-2.5617280602455139e-01" rms="1.8070314824581146e-01" purity="8.3880192041397095e-01" nType="0">
          <Node pos="l" depth="2" NCoef="0" IVar="-1" Cut="0.0000000000000000e+00" cType="1" res="4.6553472056984901e-03" rms="3.1262591481208801e-01" purity="5.4977518320083618e-01" nType="-99"/>
          <Node pos="r" depth="2" NCoef="0" IVar="-1" Cut="0.0000000000000000e+00" cType="1" res="1.2102160602807999e-02" rms="1.5965276956558228e-01" purity="8.6852884292602539e-01" nType="-99"/>
        </Node>
      </Node>
    </BinaryTree>
    <BinaryTree type="DecisionTree" boostWeight="1.0000000000000000e+00" itree="51">
      <Node pos="s" depth="0" NCoef="0" IVar="6" Cut="1.7857143655419350e-02" cType="1" res="-2.2963629662990570e-01" rms="2.3636323213577271e-01" purity="6.2106627970933914e-02" nType="0">
        <Node pos="l" depth="1" NCoef="0" IVar="10" Cut="7.6785647869110107e-01" cType="1" res="-5.1906306296586990e-02" rms="4.3737319111824036e-01" purity="2.6870268583297729e-01" nType="0">
          <Node pos="l" depth="2" NCoef="0" IVar="-1" Cut="0.0000000000000000e+00" cType="1" res="-4.5627960935235023e-03" rms="3.6172264814376831e-01" purity="1.5519851446151733e-01" nType="-99"/>
          <Node pos="r" depth="2" NCoef="0" IVar="-1" Cut="0.0000000000000000e+00" cType="1" res="2.3792327847331762e-03" rms="4.9129536747932434e-01" purity="4.2242196202278137e-01" nType="-99"/>
        </Node>
        <Node pos="r" depth="1" NCoef="0" IVar="8" Cut="1.0714285820722580e-01" cType="1" res="-2.5342771410942078e-01" rms="1.8150587379932404e-01" purity="3.4451123327016830e-02" nType="0">
          <Node pos="l" depth="2" NCoef="0" IVar="-1" Cut="0.0000000000000000e+00" cType="1" res="-6.0059037059545517e-03" rms="2.9942637681961060e-01" purity="1.0090523213148117e-01" nType="-99"/>
          <Node pos="r" depth="2" NCoef="0" IVar="-1" Cut="0.0000000000000000e+00" cType="1" res="-8.1913061439990997e-03" rms="1.5509428083896637e-01" purity="2.4688353762030602e-02" nType="-99"/>
        </Node>
      </Node>
    </BinaryTree>
    <BinaryTree type="DecisionTree" boostWeight="1.0000000000000000e+00" itree="52">
      <Node pos="s" depth="0" NCoef="0" IVar="6" Cut="1.7857143655419350e-02" cType="1" res="-2.3018454015254974e-01" rms="2.3537723720073700e-01" purity="1.4246889948844910e-01" nType="0">
        <Node pos="l" depth="1" NCoef="0" IVar="10" Cut="7.4998724460601807e-01" cType="1" res="-5.6609511375427246e-02" rms="4.3490487337112427e-01" purity="2.7001434564590454e-01" nType="0">
          <Node pos="l" depth="2" NCoef="0" IVar="-1" Cut="0.0000000000000000e+00" cType="1" res="-1.6987973358482122e-03" rms="3.5669520497322083e-01" purity="2.6488822698593140e-01" nType="-99"/>
          <Node pos="r" depth="2" NCoef="0" IVar="-1" Cut="0.0000000000000000e+00" cType="1" res="-1.4241347089409828e-03" rms="4.8919785022735596e-01" purity="2.7656528353691101e-01" nType="-99"/>
        </Node>
        <Node pos="r" depth="1" NCoef="0" IVar="8" Cut="8.9285716414451599e-02" cType="1" res="-2.5326496362686157e-01" rms="1.8187920749187469e-01" purity="1.2550906836986542e-01" nType="0">
          <Node pos="l" depth="2" NCoef="0" IVar="-1" Cut="0.0000000000000000e+00" cType="1" res="-4.2885856237262487e-04" rms="3.0796399712562561e-01" purity="3.0370566248893738e-01" nType="-99"/>
          <Node pos="r" depth="2" NCoef="0" IVar="-1" Cut="0.0000000000000000e+00" cType="1" res="-5.9650465846061707e-03" rms="1.5705515444278717e-01" purity="1.0287130624055862e-01" nType="-99"/>
        </Node>
      </Node>
    </BinaryTree>
    <BinaryTree type="DecisionTree" boostWeight="1.0000000000000000e+00" itree="53">
      <Node pos="s" depth="0" NCoef="0" IVar="6" Cut="1.7857143655419350e-02" cType="1" res="-2.2965207695960999e-01" rms="2.3633192479610443e-01" purity="7.9571545124053955e-01" nType="0">
        <Node pos="l" depth="1" NCoef="0" IVar="10" Cut="7.4999624490737915e-01" cType="1" res="-5.1703497767448425e-02" rms="4.3751829862594604e-01" purity="4.6285054087638855e-01" nType="0">
          <Node pos="l" depth="2" NCoef="0" IVar="-1" Cut="0.0000000000000000e+00" cType="1" res="5.8232019655406475e-03" rms="3.6206081509590149e-01" purity="5.8330047130584717e-01" nType="-99"/>
          <Node pos="r" depth="2" NCoef="0" IVar="-1" Cut="0.0000000000000000e+00" cType="1" res="-8.1776676233857870e-04" rms="4.9022930860519409e-01" purity="3.0714321136474609e-01" nType="-99"/>
        </Node>
        <Node pos="r" depth="1" NCoef="0" IVar="8" Cut="7.1428574621677399e-02" cType="1" res="-2.5356128811836243e-01" rms="1.8113909661769867e-01" purity="8.4043926000595093e-01" nType="0">
          <Node pos="l" depth="2" NCoef="0" IVar="-1" Cut="0.0000000000000000e+00" cType="1" res="5.4159550927579403e-03" rms="3.1360140442848206e-01" purity="5.7901132106781006e-01" nType="-99"/>
          <Node pos="r" depth="2" NCoef="0" IVar="-1" Cut="0.0000000000000000e+00" cType="1" res="1.1946682818233967e-02" rms="1.5853294730186462e-01" purity="8.6895298957824707e-01" nType="-99"/>
        </Node>
      </Node>
    </BinaryTree>
    <BinaryTree type="DecisionTree" boostWeight="1.0000000000000000e+00" itree="54">
      <Node pos="s" depth="0" NCoef="0" IVar="6" Cut="1.7857143655419350e-02" cType="1" res="-2.2715221345424652e-01" rms="2.3647226393222809e-01" purity="6.2289860099554062e-02" nType="0">
        <Node pos="l" depth="1" NCoef="0" IVar="10" Cut="7.4998795986175537e-01" cType="1" res="-5.0950475037097931e-02" rms="4.3745547533035278e-01" purity="2.6922559738159180e-01" nType="0">
          <Node pos="l" depth="2" NCoef="0" IVar="-1" Cut="0.0000000000000000e+00" cType="1" res="-4.5424210838973522e-03" rms="3.6090871691703796e-01" purity="1.5417186915874481e-01" nType="-99"/>
          <Node pos="r" depth="2" NCoef="0" IVar="-1" Cut="0.0000000000000000e+00" cType="1" res="2.1056320983916521e-03" rms="4.8990142345428467e-01" purity="4.1346883773803711e-01" nType="-99"/>
        </Node>
        <Node pos="r" depth="1" NCoef="0" IVar="8" Cut="7.1428574621677399e-02" cType="1" res="-2.5054064393043518e-01" rms="1.8240642547607422e-01" purity="3.4821916371583939e-02" nType="0">
          <Node pos="l" depth="2" NCoef="0" IVar="-1" Cut="0.0000000000000000e+00" cType="1" res="-5.6124222464859486e-03" rms="3.1618937849998474e-01" purity="1.1422524601221085e-01" nType="-99"/>
          <Node pos="r" depth="2" NCoef="0" IVar="-1" Cut="0.0000000000000000e+00" cType="1" res="-8.1095406785607338e-03" rms="1.5948784351348877e-01" purity="2.6147158816456795e-02" nType="-99"/>
        </Node>
      </Node>
    </BinaryTree>
    <BinaryTree type="DecisionTree" boostWeight="1.0000000000000000e+00" itree="55">
      <Node pos="s" depth="0" NCoef="0" IVar="8" Cut="1.7857143655419350e-02" cType="1" res="-2.2766092419624329e-01" rms="2.3559059202671051e-01" purity="1.4222958683967590e-01" nType="0">
        <Node pos="l" depth="1" NCoef="0" IVar="10" Cut="7.3214221000671387e-01" cType="1" res="-5.6682400405406952e-02" rms="4.3405127525329590e-01" purity="2.6016399264335632e-01" nType="0">
          <Node pos="l" depth="2" NCoef="0" IVar="-1" Cut="0.0000000000000000e+00" cType="1" res="-2.1225956734269857e-03" rms="3.5840278863906860e-01" purity="2.5046187639236450e-01" nType="-99"/>
          <Node pos="r" depth="2" NCoef="0" IVar="-1" Cut="0.0000000000000000e+00" cType="1" res="-1.4873769832774997e-03" rms="4.9012267589569092e-01" purity="2.7314931154251099e-01" nType="-99"/>
        </Node>
        <Node pos="r" depth="1" NCoef="0" IVar="6" Cut="1.0714285820722580e-01" cType="1" res="-2.5141170620918274e-01" rms="1.8004727363586426e-01" purity="1.2584720551967621e-01" nType="0">
          <Node pos="l" depth="2" NCoef="0" IVar="-1" Cut="0.0000000000000000e+00" cType="1" res="1.1761296627810225e-04" rms="2.9556873440742493e-01" purity="3.1644091010093689e-01" nType="-99"/>
          <Node pos="r" depth="2" NCoef="0" IVar="-1" Cut="0.0000000000000000e+00" cType="1" res="-6.0321991331875324e-03" rms="1.5631915628910065e-01" purity="9.9706843495368958e-02" nType="-99"/>
        </Node>
      </Node>
    </BinaryTree>
    <BinaryTree type="DecisionTree" boostWeight="1.0000000000000000e+00" itree="56">
      <Node pos="s" depth="0" NCoef="0" IVar="6" Cut="1.7857143655419350e-02" cType="1" res="-2.2790664434432983e-01" rms="2.3514170944690704e-01" purity="7.9590177536010742e-01" nType="0">
        <Node pos="l" depth="1" NCoef="0" IVar="10" Cut="7.6785349845886230e-01" cType="1" res="-5.2827179431915283e-02" rms="4.3655201792716980e-01" purity="4.6543520689010620e-01" nType="0">
          <Node pos="l" depth="2" NCoef="0" IVar="-1" Cut="0.0000000000000000e+00" cType="1" res="5.7294731959700584e-03" rms="3.6215421557426453e-01" purity="5.8128851652145386e-01" nType="-99"/>
          <Node pos="r" depth="2" NCoef="0" IVar="-1" Cut="0.0000000000000000e+00" cType="1" res="-6.9616502150893211e-04" rms="4.9052757024765015e-01" purity="3.1080019474029541e-01" nType="-99"/>
        </Node>
        <Node pos="r" depth="1" NCoef="0" IVar="8" Cut="7.1428574621677399e-02" cType="1" res="-2.5118669867515564e-01" rms="1.8079002201557159e-01" purity="8.3984339237213135e-01" nType="0">
          <Node pos="l" depth="2" NCoef="0" IVar="-1" Cut="0.0000000000000000e+00" cType="1" res="5.2256723865866661e-03" rms="3.1606435775756836e-01" purity="5.7432210445404053e-01" nType="-99"/>
          <Node pos="r" depth="2" NCoef="0" IVar="-1" Cut="0.0000000000000000e+00" cType="1" res="1.1796204373240471e-02" rms="1.5711718797683716e-01" purity="8.6921644210815430e-01" nType="-99"/>
        </Node>
      </Node>
    </BinaryTree>
    <BinaryTree type="DecisionTree" boostWeight="1.0000000000000000e+00" itree="57">
      <Node pos="s" depth="0" NCoef="0" IVar="6" Cut="1.7857143655419350e-02" cType="1" res="-2.2529257833957672e-01" rms="2.3550654947757721e-01" purity="6.1892230063676834e-02" nType="0">
        <Node pos="l" depth="1" NCoef="0" IVar="10" Cut="7.4999642372131348e-01" cType="1" res="-5.2174177020788193e-02" rms="4.3602207303047180e-01" purity="2.6717132329940796e-01" nType="0">
          <Node pos="l" depth="2" NCoef="0" IVar="-1" Cut="0.0000000000000000e+00" cType="1" res="-4.5689074322581291e-03" rms="3.5904252529144287e-01" purity="1.5224282443523407e-01" nType="-99"/>
          <Node pos="r" depth="2" NCoef="0" IVar="-1" Cut="0.0000000000000000e+00" cType="1" res="2.1470086649060249e-03" rms="4.9018588662147522e-01" purity="4.1554123163223267e-01" nType="-99"/>
        </Node>
        <Node pos="r" depth="1" NCoef="0" IVar="8" Cut="8.9285716414451599e-02" cType="1" res="-2.4839408695697784e-01" rms="1.8155427277088165e-01" purity="3.4499093890190125e-02" nType="0">
          <Node pos="l" depth="2" NCoef="0" IVar="-1" Cut="0.0000000000000000e+00" cType="1" res="-5.8010108768939972e-03" rms="3.0596056580543518e-01" purity="1.0602623224258423e-01" nType="-99"/>
          <Node pos="r" depth="2" NCoef="0" IVar="-1" Cut="0.0000000000000000e+00" cType="1" res="-8.1001641228795052e-03" rms="1.5687644481658936e-01" purity="2.5271316990256310e-02" nType="-99"/>
        </Node>
      </Node>
    </BinaryTree>
    <BinaryTree type="DecisionTree" boostWeight="1.0000000000000000e+00" itree="58">
      <Node pos="s" depth="0" NCoef="0" IVar="8" Cut="1.7857143655419350e-02" cType="1" res="-2.2553074359893799e-01" rms="2.3511627316474915e-01" purity="1.4225995540618896e-01" nType="0">
        <Node pos="l" depth="1" NCoef="0" IVar="10" Cut="7.3213887214660645e-01" cType="1" res="-5.6313119828701019e-02" rms="4.3341505527496338e-01" purity="2.5901767611503601e-01" nType="0">
          <Node pos="l" depth="2" NCoef="0" IVar="-1" Cut="0.0000000000000000e+00" cType="1" res="-2.0916468929499388e-03" rms="3.5673207044601440e-01" purity="2.5091916322708130e-01" nType="-99"/>
          <Node pos="r" depth="2" NCoef="0" IVar="-1" Cut="0.0000000000000000e+00" cType="1" res="-1.5692664310336113e-03" rms="4.9024981260299683e-01" purity="2.6991331577301025e-01" nType="-99"/>
        </Node>
        <Node pos="r" depth="1" NCoef="0" IVar="6" Cut="5.3571429103612900e-02" cType="1" res="-2.4884085357189178e-01" rms="1.8036116659641266e-01" purity="1.2617631256580353e-01" nType="0">
          <Node pos="l" depth="2" NCoef="0" IVar="-1" Cut="0.0000000000000000e+00" cType="1" res="7.6721032382920384e-04" rms="3.2352009415626526e-01" purity="3.4482890367507935e-01" nType="-99"/>
          <Node pos="r" depth="2" NCoef="0" IVar="-1" Cut="0.0000000000000000e+00" cType="1" res="-5.7546864263713360e-03" rms="1.6121810674667358e-01" purity="1.0765916854143143e-01" nType="-99"/>
        </Node>
      </Node>
    </BinaryTree>
    <BinaryTree type="DecisionTree" boostWeight="1.0000000000000000e+00" itree="59">
      <Node pos="s" depth="0" NCoef="0" IVar="8" Cut="1.7857143655419350e-02" cType="1" res="-2.2542969882488251e-01" rms="2.3523375391960144e-01" purity="7.9582732915878296e-01" nType="0">
        <Node pos="l" depth="1" NCoef="0" IVar="10" Cut="7.3214221000671387e-01" cType="1" res="-5.5448908358812332e-02" rms="4.3382176756858826e-01" purity="4.7460076212882996e-01" nType="0">
          <Node pos="l" depth="2" NCoef="0" IVar="-1" Cut="0.0000000000000000e+00" cType="1" res="5.9682996943593025e-03" rms="3.5778900980949402e-01" purity="5.9459972381591797e-01" nType="-99"/>
          <Node pos="r" depth="2" NCoef="0" IVar="-1" Cut="0.0000000000000000e+00" cType="1" res="-6.5025279764086008e-04" rms="4.9030163884162903e-01" purity="3.1266084313392639e-01" nType="-99"/>
        </Node>
        <Node pos="r" depth="1" NCoef="0" IVar="10" Cut="8.0314588546752930e-01" cType="1" res="-2.4869856238365173e-01" rms="1.8069307506084442e-01" purity="8.3980041742324829e-01" nType="0">
          <Node pos="l" depth="2" NCoef="0" IVar="-1" Cut="0.0000000000000000e+00" cType="1" res="1.1408569291234016e-02" rms="1.6332626342773438e-01" purity="8.5665822029113770e-01" nType="-99"/>
          <Node pos="r" depth="2" NCoef="0" IVar="-1" Cut="0.0000000000000000e+00" cType="1" res="6.4619542099535465e-03" rms="3.0799937248229980e-01" purity="6.5020197629928589e-01" nType="-99"/>
        </Node>
      </Node>
    </BinaryTree>
    <BinaryTree type="DecisionTree" boostWeight="1.0000000000000000e+00" itree="60">
      <Node pos="s" depth="0" NCoef="0" IVar="6" Cut="1.7857143655419350e-02" cType="1" res="-2.2328265011310577e-01" rms="2.3485116660594940e-01" purity="6.1661083251237869e-02" nType="0">
        <Node pos="l" depth="1" NCoef="0" IVar="10" Cut="7.4999642372131348e-01" cType="1" res="-5.3014904260635376e-02" rms="4.3481740355491638e-01" purity="2.6562708616256714e-01" nType="0">
          <Node pos="l" depth="2" NCoef="0" IVar="-1" Cut="0.0000000000000000e+00" cType="1" res="-4.6013724058866501e-03" rms="3.5679578781127930e-01" purity="1.4997811615467072e-01" nType="-99"/>
          <Node pos="r" depth="2" NCoef="0" IVar="-1" Cut="0.0000000000000000e+00" cType="1" res="2.0962439011782408e-03" rms="4.8983395099639893e-01" purity="4.1424262523651123e-01" nType="-99"/>
        </Node>
        <Node pos="r" depth="1" NCoef="0" IVar="8" Cut="3.5714287310838699e-02" cType="1" res="-2.4597850441932678e-01" rms="1.8145492672920227e-01" purity="3.4473400563001633e-02" nType="0">
          <Node pos="l" depth="2" NCoef="0" IVar="-1" Cut="0.0000000000000000e+00" cType="1" res="-4.9743233248591423e-03" rms="3.4196978807449341e-01" purity="1.3680981099605560e-01" nType="-99"/>
          <Node pos="r" depth="2" NCoef="0" IVar="-1" Cut="0.0000000000000000e+00" cType="1" res="-7.9947933554649353e-03" rms="1.6360163688659668e-01" purity="2.7570422738790512e-02" nType="-99"/>
        </Node>
      </Node>
    </BinaryTree>
    <BinaryTree type="DecisionTree" boostWeight="1.0000000000000000e+00" itree="61">
      <Node pos="s" depth="0" NCoef="0" IVar="8" Cut="1.7857143655419350e-02" cType="1" res="-2.2311492264270782e-01" rms="2.3519578576087952e-01" purity="1.4188531041145325e-01" nType="0">
        <Node pos="l" depth="1" NCoef="0" IVar="10" Cut="7.3213917016983032e-01" cType="1" res="-5.4001826792955399e-02" rms="4.3408337235450745e-01" purity="2.5765940546989441e-01" nType="0">
          <Node pos="l" depth="2" NCoef="0" IVar="-1" Cut="0.0000000000000000e+00" cType="1" res="-2.1244410891085863e-03" rms="3.5937461256980896e-01" purity="2.4918517470359802e-01" nType="-99"/>
